{"learner":{"attributes":{"best_iteration":"99","best_ntree_limit":"100","scikit_learn":"{\"use_label_encoder\": null, \"n_estimators\": 100, \"objective\": \"binary:logistic\", \"max_depth\": 6, \"max_leaves\": null, \"max_bin\": null, \"grow_policy\": null, \"learning_rate\": 0.1, \"verbosity\": null, \"booster\": null, \"tree_method\": null, \"gamma\": null, \"min_child_weight\": null, \"max_delta_step\": null, \"subsample\": null, \"sampling_method\": null, \"colsample_bytree\": null, \"colsample_bylevel\": null, \"colsample_bynode\": null, \"reg_alpha\": null, \"reg_lambda\": null, \"scale_pos_weight\": 37.46, \"base_score\": null, \"missing\": NaN, \"num_parallel_tree\": null, \"random_state\": 42, \"n_jobs\": -1, \"monotone_constraints\": null, \"interaction_constraints\": null, \"importance_type\": null, \"gpu_id\": null, \"validate_parameters\": null, \"predictor\": null, \"enable_categorical\": false, \"feature_types\": null, \"max_cat_to_onehot\": null, \"max_cat_threshold\": null, \"eval_metric\": \"logloss\", \"early_stopping_rounds\": null, \"callbacks\": null, \"classes_\": [0, 1], \"n_classes_\": 2, \"_estimator_type\": \"classifier\"}"},"feature_names":["TransactionID","TransactionDT","TransactionAmt","ProductCD","card1","card2","card3","card4","card5","card6","addr1","addr2","dist1","P_emaildomain","C1","C2","C3","C4","C5","C6","C7","C8","C9","C10","C11","C12","C13","C14","D1","D2","D3","D4","D5","D10","D11","D15","M1","M2","M3","M4","M5","M6","M7","M8","M9","V1","V2","V3","V4","V5","V6","V7","V8","V9","V10","V11","V12","V13","V14","V15","V16","V17","V18","V19","V20","V21","V22","V23","V24","V25","V26","V27","V28","V29","V30","V31","V32","V33","V34","V35","V36","V37","V38","V39","V40","V41","V42","V43","V44","V45","V46","V47","V48","V49","V50","V51","V52","V53","V54","V55","V56","V57","V58","V59","V60","V61","V62","V63","V64","V65","V66","V67","V68","V69","V70","V71","V72","V73","V74","V75","V76","V77","V78","V79","V80","V81","V82","V83","V84","V85","V86","V87","V88","V89","V90","V91","V92","V93","V94","V95","V96","V97","V98","V99","V100","V101","V102","V103","V104","V105","V106","V107","V108","V109","V110","V111","V112","V113","V114","V115","V116","V117","V118","V119","V120","V121","V122","V123","V124","V125","V126","V127","V128","V129","V130","V131","V132","V133","V134","V135","V136","V137","V279","V280","V281","V282","V283","V284","V285","V286","V287","V288","V289","V290","V291","V292","V293","V294","V295","V296","V297","V298","V299","V300","V301","V302","V303","V304","V305","V306","V307","V308","V309","V310","V311","V312","V313","V314","V315","V316","V317","V318","V319","V320","V321","id_01","id_12"],"feature_types":["int","int","float","int","int","float","float","int","float","int","float","float","float","int","float","float","float","float","float","float","float","float","float","float","float","float","float","float","float","float","float","float","float","float","float","float","int","int","int","int","int","int","int","int","int","float","float","float","float","float","float","float","float","float","float","float","float","float","float","float","float","float","float","float","float","float","float","float","float","float","float","float","float","float","float","float","float","float","float","float","float","float","float","float","float","float","float","float","float","float","float","float","float","float","float","float","float","float","float","float","float","float","float","float","float","float","float","float","float","float","float","float","float","float","float","float","float","float","float","float","float","float","float","float","float","float","float","float","float","float","float","float","float","float","float","float","float","float","float","float","float","float","float","float","float","float","float","float","float","float","float","float","float","float","float","float","float","float","float","float","float","float","float","float","float","float","float","float","float","float","float","float","float","float","float","float","float","float","float","float","float","float","float","float","float","float","float","float","float","float","float","float","float","float","float","float","float","float","float","float","float","float","float","float","float","float","float","float","float","float","float","float","float","float","float","float","float","float","float","float","float","float","float","float","float","float","int"],"gradient_booster":{"model":{"gbtree_model_param":{"num_parallel_tree":"1","num_trees":"100","size_leaf_vector":"0"},"tree_info":[0,0,0,0,0,0,0,0,0,0,0,0,0,0,0,0,0,0,0,0,0,0,0,0,0,0,0,0,0,0,0,0,0,0,0,0,0,0,0,0,0,0,0,0,0,0,0,0,0,0,0,0,0,0,0,0,0,0,0,0,0,0,0,0,0,0,0,0,0,0,0,0,0,0,0,0,0,0,0,0,0,0,0,0,0,0,0,0,0,0,0,0,0,0,0,0,0,0,0,0],"trees":[{"base_weights":[1.1101893E-4,-3.36305E-1,1.4368417E0,-6.1660945E-1,1.054295E0,1.5411801E0,-1.204887E0,9.264298E-1,-8.822054E-1,1.1680288E0,-1.6913694E0,3.7600088E-1,1.686202E0,2.650314E-1,-1.6919874E0,5.073397E-1,1.7122674E0,5.200682E-1,-9.9721193E-1,6.777881E-2,1.2814718E0,3.5013747E-1,-1.9908046E0,1.2349576E0,-1.2862225E0,1.8384899E0,1.1986432E0,-1.8571428E0,6.822529E-1,-2.7421826E-1,-1.8268273E0,8.527666E-2,1.4406198E0,3.5834894E-1,1.8298906E0,8.420853E-1,-9.633578E-2,-1.0933785E0,-2.2435134E-2,6.061642E-1,-1.1309026E0,1.30866E0,-1.9562842E0,-1.8297873E0,1.499545E0,1.3522758E0,-1.9111111E0,-1.5737576E0,2.719237E-1,1.8518596E0,-1.9036144E0,-2.3855406E-1,1.372009E0,1.1380025E0,-1.8222222E0,-1.8518518E0,1.807043E0,-7.518583E-1,-1.9898605E0,-3.79026E-1,5.231037E-1,1.5040004E0,-1.887324E0,-1.8918918E0,7.321137E-1,1.0334272E0,1.9026024E0,9.980424E-1,-5.6672347E-1,9.07368E-1,-5.2513254E-1,-1.2306356E0,-4.0859905E-1,-3.0551386E-1,1.6458402E0,7.98691E-1,-1.927928E0,-1.5060682E0,1.8498498E0,1.0480627E0,1.6456469E0,1.8022739E0,-1.2727273E0,-1.8333334E0,1.4156519E0,-1.8344556E0,4.8289216E-1,1.2361013E0,-1.875E0,1.8571314E0,-1.7714286E0,-1.9722222E0,7.9047185E-1,1.42974E0,-1.927928E0,1.4528043E0,-1.6923077E0,1.1912657E0,-1.9012346E0],"categories":[],"categories_nodes":[],"categories_segments":[],"categories_sizes":[],"default_left":[1,1,1,1,1,1,1,1,1,1,1,1,1,1,1,1,1,1,1,1,1,1,0,1,1,1,1,0,1,1,1,1,1,1,1,1,1,1,1,1,1,1,0,0,1,1,0,1,1,1,0,1,1,1,0,0,0,1,0,0,0,0,0,0,0,0,0,0,0,0,0,0,0,0,0,0,0,0,0,0,0,0,0,0,0,0,0,0,0,0,0,0,0,0,0,0,0,0,0],"id":0,"left_children":[1,3,5,7,9,11,13,15,17,19,21,23,25,27,29,31,33,35,37,39,41,43,-1,45,47,49,51,-1,53,55,57,59,61,63,65,67,69,71,73,75,77,79,-1,-1,81,83,-1,85,87,89,-1,91,93,95,-1,-1,-1,97,-1,-1,-1,-1,-1,-1,-1,-1,-1,-1,-1,-1,-1,-1,-1,-1,-1,-1,-1,-1,-1,-1,-1,-1,-1,-1,-1,-1,-1,-1,-1,-1,-1,-1,-1,-1,-1,-1,-1,-1,-1],"loss_changes":[2.2242812E4,1.4535168E4,2.4084492E3,1.2719033E4,1.9554595E3,1.4187363E3,2.3837796E2,1.5001465E3,4.270416E3,7.497334E2,1.5305109E2,1.3308995E3,5.524199E2,7.526575E1,4.724048E1,1.1712996E3,2.5172754E2,3.9855994E2,2.2938262E3,3.637383E2,4.819502E2,8.475285E1,0E0,2.2933386E2,1.4276001E2,2.8820312E2,4.4401587E2,0E0,8.262895E1,7.842287E1,3.8438538E1,4.1669928E2,1.9816211E2,1.0897357E2,8.246338E1,2.9031323E2,2.9734525E2,2.0929297E3,1.038676E3,1.9125458E2,1.9815994E2,4.7258887E2,0E0,0E0,2.0740448E1,1.22285645E2,0E0,1.4476282E2,1.0653263E2,1.1159961E2,0E0,3.4503937E2,3.0551074E2,5.6207382E1,0E0,0E0,0E0,7.28732E1,0E0,0E0,0E0,0E0,0E0,0E0,0E0,0E0,0E0,0E0,0E0,0E0,0E0,0E0,0E0,0E0,0E0,0E0,0E0,0E0,0E0,0E0,0E0,0E0,0E0,0E0,0E0,0E0,0E0,0E0,0E0,0E0,0E0,0E0,0E0,0E0,0E0,0E0,0E0,0E0,0E0],"parents":[2147483647,0,0,1,1,2,2,3,3,4,4,5,5,6,6,7,7,8,8,9,9,10,10,11,11,12,12,13,13,14,14,15,15,16,16,17,17,18,18,19,19,20,20,21,21,23,23,24,24,25,25,26,26,28,28,29,29,30,30,31,31,32,32,33,33,34,34,35,35,36,36,37,37,38,38,39,39,40,40,41,41,44,44,45,45,47,47,48,48,49,49,51,51,52,52,53,53,57,57],"right_children":[2,4,6,8,10,12,14,16,18,20,22,24,26,28,30,32,34,36,38,40,42,44,-1,46,48,50,52,-1,54,56,58,60,62,64,66,68,70,72,74,76,78,80,-1,-1,82,84,-1,86,88,90,-1,92,94,96,-1,-1,-1,98,-1,-1,-1,-1,-1,-1,-1,-1,-1,-1,-1,-1,-1,-1,-1,-1,-1,-1,-1,-1,-1,-1,-1,-1,-1,-1,-1,-1,-1,-1,-1,-1,-1,-1,-1,-1,-1,-1,-1,-1,-1],"split_conditions":[1.5E0,1.08975E2,1.18E2,5E-1,4.25E1,2.5E0,5E-1,1.5E0,4.5E0,5E-1,2.5E0,1.5E0,2.755E2,3.5E0,1.38E2,1.84E2,5E-1,3.036048E6,1.5E0,1.844082E2,9.5E0,3.0646975E6,-1.9908045E-1,4.5E0,2.625E2,1.9E1,2.45E2,-1.8571429E-1,3.0899E0,1.36E2,1.875E2,1.48E2,1.845195E1,3.5E0,5E-1,5E-1,2.5E0,5E-1,3.5E0,1.77E2,2.5E0,5.5E0,-1.9562842E-1,-1.8297873E-1,5E-1,2.0359375E1,-1.9111112E-1,1.5E0,3.25E2,5.5E0,-1.9036144E-1,1.5E0,5.545E2,9.035E2,-1.8222223E-1,-1.8518518E-1,1.807043E-1,5E-1,-1.9898605E-1,-3.79026E-2,5.2310374E-2,1.5040004E-1,-1.887324E-1,-1.8918918E-1,7.321137E-2,1.0334273E-1,1.9026025E-1,9.9804245E-2,-5.6672346E-2,9.07368E-2,-5.2513253E-2,-1.23063564E-1,-4.0859904E-2,-3.0551387E-2,1.6458403E-1,7.98691E-2,-1.927928E-1,-1.5060683E-1,1.8498498E-1,1.0480627E-1,1.645647E-1,1.8022738E-1,-1.2727273E-1,-1.8333334E-1,1.4156519E-1,-1.8344556E-1,4.8289217E-2,1.2361013E-1,-1.875E-1,1.8571314E-1,-1.7714286E-1,-1.9722222E-1,7.904719E-2,1.42974E-1,-1.927928E-1,1.4528044E-1,-1.6923077E-1,1.1912657E-1,-1.9012347E-1],"split_indices":[17,220,29,27,26,14,35,14,29,120,33,26,26,26,28,6,17,0,39,209,188,0,0,185,2,33,20,0,210,28,10,2,223,3,226,18,34,40,14,215,68,197,0,0,113,2,0,62,2,185,0,9,5,14,0,0,0,19,0,0,0,0,0,0,0,0,0,0,0,0,0,0,0,0,0,0,0,0,0,0,0,0,0,0,0,0,0,0,0,0,0,0,0,0,0,0,0,0,0],"split_type":[0,0,0,0,0,0,0,0,0,0,0,0,0,0,0,0,0,0,0,0,0,0,0,0,0,0,0,0,0,0,0,0,0,0,0,0,0,0,0,0,0,0,0,0,0,0,0,0,0,0,0,0,0,0,0,0,0,0,0,0,0,0,0,0,0,0,0,0,0,0,0,0,0,0,0,0,0,0,0,0,0,0,0,0,0,0,0,0,0,0,0,0,0,0,0,0,0,0,0],"sum_hessian":[4.6017055E4,3.728694E4,8.730115E3,3.103229E4,6.25465E3,8.39881E3,3.31305E2,4.55669E3,2.64756E4,6.00642E3,2.4823E2,9.30035E2,7.468775E3,8.2575E1,2.4873E2,2.972885E3,1.5838049E3,2.006525E3,2.4469074E4,5.61565E2,5.444855E3,3.173E1,2.165E2,6.13345E2,3.1669E2,5.689045E3,1.77973E3,1.3E1,6.9575E1,2.1865E1,2.26865E2,2.04786E3,9.2502496E2,1.2692E2,1.456885E3,1.31775E3,6.8877496E2,2.2271734E4,2.19734E3,3.8785498E2,1.7370999E2,5.400105E3,4.475E1,1.075E1,2.098E1,5.91845E2,2.15E1,2.67345E2,4.9345E1,5.669295E3,1.975E1,1.91535E2,1.588195E3,5.9324997E1,1.025E1,1.25E1,9.365E0,3.0615E1,1.9625E2,9.93945E2,1.053915E3,9.0827496E2,1.675E1,1.75E1,1.0942E2,1.23149994E2,1.333735E3,1.1866749E3,1.31075E2,2.0584E2,4.82935E2,1.8552314E4,3.71942E3,1.879275E3,3.18065E2,3.6110498E2,2.675E1,1.5473E2,1.898E1,3.04752E3,2.352585E3,1.923E1,1.75E0,1.1E1,5.80845E2,2.37365E2,2.998E1,3.4345E1,1.5E1,5.661545E3,7.75E0,7.1E1,1.20534996E2,1.561445E3,2.675E1,5.3824997E1,5.5E0,1.1365E1,1.925E1],"tree_param":{"num_deleted":"0","num_feature":"227","num_nodes":"99","size_leaf_vector":"0"}},{"base_weights":[1.1998726E-4,-3.2855222E-1,1.2276369E0,-5.8462155E-1,9.477517E-1,4.8123024E-2,1.4764509E0,8.125946E-1,-8.206424E-1,1.0516541E0,-1.5343239E0,8.5075176E-1,-6.423917E-1,1.5336123E0,-1.3959212E0,4.715436E-1,1.540705E0,3.5653904E-1,-9.376101E-1,6.1753637E-1,1.3355639E0,5.912267E-1,-1.8110358E0,-1.2335397E0,9.9782497E-1,-1.2219825E0,2.1948083E-1,1.6662619E0,1.0795052E0,-1.835054E0,4.3800598E-1,7.527594E-2,1.3318453E0,7.265309E-2,1.6394588E0,5.332215E-1,-8.951316E-1,-1.0174267E0,-8.75351E-2,-7.052431E-1,8.5021687E-1,2.5735986E-1,1.5054038E0,1.5226947E0,-1.6445115E0,-1.9085163E0,9.751531E-1,-5.603937E-1,1.1796846E0,-1.5466001E0,1.939357E-1,5.417498E-1,-1.8298727E0,1.6830535E0,-1.7906929E0,1.5276388E0,5.761258E-1,1.597445E0,-1.6947999E0,1.6382538E-1,-1.9865621E0,1.3846359E0,-1.7162906E0,-7.691691E-1,1.8026762E0,5.9514827E-1,1.7376384E0,2.7020374E-1,1.1819389E0,6.325238E-1,-1.550874E0,-1.1498486E0,-3.8495025E-1,5.6967396E-1,-7.251175E-1,3.0705004E-3,-1.9475373E0,-6.3510257E-1,1.0002288E0,8.92349E-1,-1.2742819E0,1.5368876E0,-2.0333767E0,1.68696E0,-1.4075197E0,1.2223462E0,-1.9560522E0,1.36345E0,1.6020079E-1,-1.6223725E0,1.76435E0,7.5364447E-1,-1.8897402E0,8.3877355E-1,-1.8474519E0,1.2836534E0,1.7326111E0,1.6304846E0,1.572388E-1,-1.9091237E0,6.903358E-1],"categories":[],"categories_nodes":[],"categories_segments":[],"categories_sizes":[],"default_left":[1,1,1,1,1,1,1,1,1,1,1,1,1,1,1,1,1,1,1,1,1,1,0,1,1,1,1,1,1,0,1,1,1,1,1,1,1,1,1,1,1,1,1,0,0,0,1,1,1,1,1,1,0,1,0,1,1,0,0,0,0,0,0,0,0,0,0,0,0,0,0,0,0,0,0,0,0,0,0,0,0,0,0,0,0,0,0,0,0,0,0,0,0,0,0,0,0,0,0,0,0],"id":1,"left_children":[1,3,5,7,9,11,13,15,17,19,21,23,25,27,29,31,33,35,37,39,41,43,-1,45,47,49,51,53,55,-1,57,59,61,63,65,67,69,71,73,75,77,79,81,-1,-1,-1,83,85,87,89,91,93,-1,95,-1,97,99,-1,-1,-1,-1,-1,-1,-1,-1,-1,-1,-1,-1,-1,-1,-1,-1,-1,-1,-1,-1,-1,-1,-1,-1,-1,-1,-1,-1,-1,-1,-1,-1,-1,-1,-1,-1,-1,-1,-1,-1,-1,-1,-1,-1],"loss_changes":[1.8488955E4,1.1814604E4,2.8404648E3,9.929529E3,1.5595454E3,9.3557153E2,1.314459E3,1.079844E3,3.5469766E3,7.1388574E2,1.4407025E2,2.4052844E2,4.5356863E2,4.7029492E2,1.2682187E2,1.010644E3,2.0105444E2,5.1547864E2,1.5896387E3,7.068861E2,6.414756E2,6.2395966E1,0E0,7.923449E1,2.074505E2,2.4975543E2,2.425278E2,3.5499414E2,3.9944336E2,0E0,7.945854E1,3.711199E2,1.5281775E2,1.3028598E2,1.3226782E2,3.4798053E2,2.899184E2,1.7934648E3,8.4357245E2,3.0254102E2,4.355547E2,4.6622192E2,3.4047852E2,0E0,0E0,0E0,2.4100235E1,1.9383496E2,1.2226605E2,1.1365515E2,1.2051E2,2.2636276E2,0E0,1.1722656E2,0E0,1.319773E2,2.3900662E2,0E0,0E0,0E0,0E0,0E0,0E0,0E0,0E0,0E0,0E0,0E0,0E0,0E0,0E0,0E0,0E0,0E0,0E0,0E0,0E0,0E0,0E0,0E0,0E0,0E0,0E0,0E0,0E0,0E0,0E0,0E0,0E0,0E0,0E0,0E0,0E0,0E0,0E0,0E0,0E0,0E0,0E0,0E0,0E0],"parents":[2147483647,0,0,1,1,2,2,3,3,4,4,5,5,6,6,7,7,8,8,9,9,10,10,11,11,12,12,13,13,14,14,15,15,16,16,17,17,18,18,19,19,20,20,21,21,23,23,24,24,25,25,26,26,27,27,28,28,30,30,31,31,32,32,33,33,34,34,35,35,36,36,37,37,38,38,39,39,40,40,41,41,42,42,46,46,47,47,48,48,49,49,50,50,51,51,53,53,55,55,56,56],"right_children":[2,4,6,8,10,12,14,16,18,20,22,24,26,28,30,32,34,36,38,40,42,44,-1,46,48,50,52,54,56,-1,58,60,62,64,66,68,70,72,74,76,78,80,82,-1,-1,-1,84,86,88,90,92,94,-1,96,-1,98,100,-1,-1,-1,-1,-1,-1,-1,-1,-1,-1,-1,-1,-1,-1,-1,-1,-1,-1,-1,-1,-1,-1,-1,-1,-1,-1,-1,-1,-1,-1,-1,-1,-1,-1,-1,-1,-1,-1,-1,-1,-1,-1,-1,-1],"split_conditions":[1.5E0,1.08975E2,2.5E0,5E-1,4.25E1,1.5E0,1.39E2,1.5E0,7.5E0,5E-1,2.5E0,3.0085938E1,2.5E0,2.755E2,1.5E0,1.84E2,5E-1,5E-1,1.81E2,5E-1,3.03E2,4.346875E1,-1.8110357E-1,4.65E1,1.45E1,1.5E0,3.13E2,1.9E1,5.5E0,-1.835054E-1,5E-1,3.0745875E6,1.91807E1,2.5E0,5E-1,1.5E0,1.5E0,5E-1,1.5E0,5E-1,1.875E2,6.095E2,1.5E0,1.5226947E-1,-1.6445115E-1,-1.9085163E-1,6.3E1,7.0125E1,1.23985E4,3.5E0,1.5E0,1.4202E4,-1.8298727E-1,3.5E0,-1.790693E-1,2.6929688E1,4.385E2,1.597445E-1,-1.6948E-1,1.6382538E-2,-1.9865622E-1,1.384636E-1,-1.7162906E-1,-7.691691E-2,1.8026762E-1,5.9514828E-2,1.7376384E-1,2.7020374E-2,1.1819389E-1,6.325238E-2,-1.550874E-1,-1.1498486E-1,-3.8495027E-2,5.6967396E-2,-7.2511755E-2,3.0705004E-4,-1.9475374E-1,-6.351026E-2,1.00022875E-1,8.92349E-2,-1.2742819E-1,1.5368877E-1,-2.0333767E-1,1.68696E-1,-1.4075197E-1,1.2223462E-1,-1.9560522E-1,1.3634501E-1,1.602008E-2,-1.6223726E-1,1.7643501E-1,7.536445E-2,-1.8897402E-1,8.3877355E-2,-1.8474519E-1,1.2836534E-1,1.732611E-1,1.6304846E-1,1.572388E-2,-1.9091237E-1,6.9033585E-2],"split_indices":[21,220,14,27,26,26,29,14,29,40,33,2,21,26,81,6,226,18,6,119,5,2,0,30,13,207,28,33,32,0,115,0,223,15,17,24,9,40,9,190,10,210,130,0,0,0,28,2,4,59,185,4,0,14,0,213,26,0,0,0,0,0,0,0,0,0,0,0,0,0,0,0,0,0,0,0,0,0,0,0,0,0,0,0,0,0,0,0,0,0,0,0,0,0,0,0,0,0,0,0,0],"split_type":[0,0,0,0,0,0,0,0,0,0,0,0,0,0,0,0,0,0,0,0,0,0,0,0,0,0,0,0,0,0,0,0,0,0,0,0,0,0,0,0,0,0,0,0,0,0,0,0,0,0,0,0,0,0,0,0,0,0,0,0,0,0,0,0,0,0,0,0,0,0,0,0,0,0,0,0,0,0,0,0,0,0,0,0,0,0,0,0,0,0,0,0,0,0,0,0,0,0,0,0,0],"sum_hessian":[4.582505E4,3.614723E4,9.677822E3,3.0107248E4,6.039982E3,1.6860797E3,7.991742E3,4.3504775E3,2.575677E4,5.7978535E3,2.421283E2,7.7963214E2,9.0644763E2,7.8362637E3,1.5547865E2,2.9638442E3,1.3866335E3,2.3277607E3,2.342901E4,2.2937402E3,3.504113E3,2.775935E1,2.1436896E2,5.090003E1,7.287321E2,5.4172876E2,3.6471887E2,6.062633E3,1.7736309E3,1.2544122E2,3.0037437E1,2.0299204E3,9.339238E2,8.750722E1,1.2991263E3,2.0403275E3,2.8743314E2,2.1417816E4,2.0111937E3,3.4281567E2,1.9509247E3,4.77199E2,3.026914E3,1.9820522E1,7.9388275E0,3.9090023E1,1.1810005E1,7.594397E1,6.5278815E2,4.4061887E2,1.0110988E2,3.1579456E2,4.8924294E1,6.0338374E3,2.8795097E1,9.3722833E2,8.3640247E2,1.9621681E1,1.0415755E1,1.9472142E3,8.270616E1,9.1856104E2,1.5362786E1,5.9237766E1,2.8269455E1,1.1224682E2,1.1868795E3,1.4527408E3,5.8758673E2,8.633576E1,2.0109738E2,1.770921E4,3.7086047E3,9.904063E2,1.0207874E3,2.1896619E2,1.23849495E2,1.7866528E2,1.7722594E3,3.3763812E2,1.3956088E2,3.0007825E3,2.613168E1,9.318235E0,2.4917693E0,3.3402096E1,4.2541878E1,5.5280566E2,9.998247E1,4.3125934E2,9.359542E0,8.020409E1,2.0905794E1,2.8145343E2,3.434115E1,6.6900714E2,5.3648306E3,8.716249E2,6.56035E1,3.605774E1,8.003447E2],"tree_param":{"num_deleted":"0","num_feature":"227","num_nodes":"101","size_leaf_vector":"0"}},{"base_weights":[2.533305E-4,-2.9833764E-1,1.125238E0,-5.305431E-1,8.6382127E-1,4.323571E-2,1.3556192E0,7.394768E-1,-7.445299E-1,9.580754E-1,-1.4186124E0,7.729707E-1,-5.851607E-1,1.4080375E0,-1.2873441E0,-6.3630015E-2,1.0090771E0,4.1550824E-1,-8.4325755E-1,1.0401224E0,-3.592559E-1,5.417914E-1,-1.6757125E0,1.2579417E0,2.2541201E-1,-1.1164937E0,1.9718297E-1,1.5762134E0,1.0813365E0,-1.6938542E0,4.0096804E-1,-5.7116646E-1,8.3060086E-1,1.2514887E0,2.915721E-1,1.5978964E-2,8.0780554E-1,-8.784213E-1,8.2762605E-1,1.0935045E0,-1.0073502E0,4.0624008E-2,-2.0527813E0,1.4028798E0,-1.5266203E0,1.3331145E0,-1.8411658E0,6.518752E-1,-1.9145957E0,-1.3231832E0,7.8652793E-1,-1.8279717E0,4.699191E-1,1.5860807E0,-2.0317848E0,-1.6421697E0,1.1615752E0,1.4694135E0,-1.5704571E0,-1.4477814E0,3.249331E-1,-1.9270355E0,9.8165053E-1,1.3173498E0,2.1843612E-1,7.8892154E-1,-1.3881115E0,2.26085E-1,-1.4517078E0,-1.9426162E0,8.8194644E-1,-9.9214166E-1,-3.0918446E-1,1.221472E0,-1.4029416E0,1.128488E0,-1.7872308E0,1.5008129E0,-1.4405249E0,5.277145E-1,-1.124707E0,-3.9060754E-1,1.439848E0,9.263774E-1,-1.0533127E0,1.497835E0,-1.4486494E0,1.5740138E0,-1.729835E0,7.4543357E-1,-1.6737167E0,1.5928719E0,-1.5554457E0,-2.1005828E0,1.5330212E0,8.210419E-1,1.5989426E0],"categories":[],"categories_nodes":[],"categories_segments":[],"categories_sizes":[],"default_left":[1,1,1,1,1,1,1,1,1,1,1,1,1,1,1,1,1,1,1,1,1,1,0,1,1,1,1,1,1,0,1,1,1,1,1,1,1,1,1,1,1,1,0,0,0,1,0,1,0,1,1,0,1,1,0,1,1,0,0,0,0,0,0,0,0,0,0,0,0,0,0,0,0,0,0,0,0,0,0,0,0,0,0,0,0,0,0,0,0,0,0,0,0,0,0,0,0],"id":2,"left_children":[1,3,5,7,9,11,13,15,17,19,21,23,25,27,29,31,33,35,37,39,41,43,-1,45,47,49,51,53,55,-1,57,59,61,63,65,67,69,71,73,75,77,79,-1,-1,-1,81,-1,83,-1,85,87,-1,89,91,-1,93,95,-1,-1,-1,-1,-1,-1,-1,-1,-1,-1,-1,-1,-1,-1,-1,-1,-1,-1,-1,-1,-1,-1,-1,-1,-1,-1,-1,-1,-1,-1,-1,-1,-1,-1,-1,-1,-1,-1,-1,-1],"loss_changes":[1.5233919E4,9.671925E3,2.3710947E3,8.1185723E3,1.285394E3,7.666455E2,1.0882998E3,9.327776E2,2.9281865E3,6.199673E2,1.2041495E2,2.0512558E2,3.7364426E2,4.2083008E2,1.05711334E2,4.9227353E2,5.6059644E2,3.1435532E2,1.3849648E3,5.9095557E2,2.2820021E2,5.245062E1,0E0,9.796863E1,3.3393622E2,2.1153058E2,2.0201448E2,1.8388965E2,5.737229E2,0E0,6.656482E1,5.4394836E2,1.6548651E2,1.6371143E2,6.825833E2,3.0707327E2,2.0808112E2,1.4933965E3,4.287605E2,5.321162E2,1.5171483E2,1.5582982E2,0E0,0E0,0E0,7.431177E1,0E0,1.4360289E2,0E0,1.7315466E2,1.07857254E2,0E0,1.9128117E2,1.1046289E2,0E0,1.1282057E2,3.7733838E2,0E0,0E0,0E0,0E0,0E0,0E0,0E0,0E0,0E0,0E0,0E0,0E0,0E0,0E0,0E0,0E0,0E0,0E0,0E0,0E0,0E0,0E0,0E0,0E0,0E0,0E0,0E0,0E0,0E0,0E0,0E0,0E0,0E0,0E0,0E0,0E0,0E0,0E0,0E0,0E0],"parents":[2147483647,0,0,1,1,2,2,3,3,4,4,5,5,6,6,7,7,8,8,9,9,10,10,11,11,12,12,13,13,14,14,15,15,16,16,17,17,18,18,19,19,20,20,21,21,23,23,24,24,25,25,26,26,27,27,28,28,30,30,31,31,32,32,33,33,34,34,35,35,36,36,37,37,38,38,39,39,40,40,41,41,45,45,47,47,49,49,50,50,52,52,53,53,55,55,56,56],"right_children":[2,4,6,8,10,12,14,16,18,20,22,24,26,28,30,32,34,36,38,40,42,44,-1,46,48,50,52,54,56,-1,58,60,62,64,66,68,70,72,74,76,78,80,-1,-1,-1,82,-1,84,-1,86,88,-1,90,92,-1,94,96,-1,-1,-1,-1,-1,-1,-1,-1,-1,-1,-1,-1,-1,-1,-1,-1,-1,-1,-1,-1,-1,-1,-1,-1,-1,-1,-1,-1,-1,-1,-1,-1,-1,-1,-1,-1,-1,-1,-1,-1],"split_conditions":[1.5E0,1.08975E2,2.5E0,5E-1,4.25E1,1.5E0,1.39E2,5E-1,4.5E0,5E-1,2.5E0,3.0222045E6,2.5E0,8.5E0,1.5E0,5E-1,1.5E0,7.59375E1,1.5E0,5E-1,5.581281E2,4.346875E1,-1.6757125E-1,1.5E0,2.5E0,1.9E2,9.5E0,1.78E2,7.5E0,-1.6938542E-1,5E-1,1.6025E2,2.996741E6,4.84115E1,3.056285E6,5.38E2,3.8234375E1,5E-1,5.5E0,9.5E0,1.515E3,5E-1,-2.0527814E-1,1.4028798E-1,-1.5266202E-1,3.0085938E1,-1.8411659E-1,1.21895E4,-1.9145958E-1,2.9876895E6,1.5E0,-1.8279718E-1,3.13E2,1.9E1,-2.0317848E-1,1.36E2,1.5E0,1.4694135E-1,-1.570457E-1,-1.4477815E-1,3.2493312E-2,-1.9270355E-1,9.816506E-2,1.3173498E-1,2.1843612E-2,7.889216E-2,-1.3881116E-1,2.2608502E-2,-1.451708E-1,-1.9426163E-1,8.8194646E-2,-9.921417E-2,-3.0918447E-2,1.221472E-1,-1.4029416E-1,1.12848796E-1,-1.7872308E-1,1.5008129E-1,-1.4405249E-1,5.277145E-2,-1.124707E-1,-3.9060753E-2,1.439848E-1,9.263774E-2,-1.05331264E-1,1.497835E-1,-1.4486495E-1,1.5740138E-1,-1.7298351E-1,7.454336E-2,-1.6737168E-1,1.592872E-1,-1.5554456E-1,-2.1005829E-1,1.5330212E-1,8.210419E-2,1.5989427E-1],"split_indices":[21,220,14,27,26,26,29,17,29,23,33,0,21,26,81,40,3,2,25,135,210,2,0,3,185,217,32,32,24,0,115,2,0,210,0,5,216,40,28,188,4,26,0,0,0,2,0,4,0,0,3,0,28,33,0,29,89,0,0,0,0,0,0,0,0,0,0,0,0,0,0,0,0,0,0,0,0,0,0,0,0,0,0,0,0,0,0,0,0,0,0,0,0,0,0,0,0],"split_type":[0,0,0,0,0,0,0,0,0,0,0,0,0,0,0,0,0,0,0,0,0,0,0,0,0,0,0,0,0,0,0,0,0,0,0,0,0,0,0,0,0,0,0,0,0,0,0,0,0,0,0,0,0,0,0,0,0,0,0,0,0,0,0,0,0,0,0,0,0,0,0,0,0,0,0,0,0,0,0,0,0,0,0,0,0,0,0,0,0,0,0,0,0,0,0,0,0],"sum_hessian":[4.5349156E4,3.583788E4,9.511277E3,2.9870201E4,5.967679E3,1.6698575E3,7.84142E3,4.3067896E3,2.5563412E4,5.731572E3,2.3610768E2,7.7252313E2,8.973344E2,7.6893823E3,1.520376E2,1.0826046E3,3.2241848E3,2.0047406E3,2.3558672E4,5.395722E3,3.3584955E2,2.7246233E1,2.0886145E2,4.0898712E2,3.63536E2,5.341419E2,3.631925E2,5.0737466E3,2.6156357E3,1.2253134E2,2.950626E1,6.9085754E2,3.9174704E2,2.409412E3,8.147728E2,9.937309E2,1.01100964E3,2.3073562E4,4.8510907E2,5.2590723E3,1.3664986E2,2.7248553E2,6.336402E1,1.9464739E1,7.7814927E0,3.9985788E2,9.129224E0,3.037081E2,5.9827908E1,4.8208658E2,5.205534E1,4.2430424E1,3.2076205E2,5.0604673E3,1.3279125E1,7.429828E1,2.5413374E3,1.9300621E1,1.0205638E1,3.489143E2,3.4194327E2,1.9733055E1,3.72014E2,2.2647505E3,1.4466159E2,6.290448E2,1.8572803E2,8.700283E2,1.2370257E2,2.5876125E1,9.8513354E2,1.9230928E4,3.8426353E3,4.126932E2,7.241586E1,5.1965737E3,6.249856E1,1.9761631E1,1.1688823E2,1.9254982E2,7.9935715E1,2.3160536E1,3.7669736E2,2.619896E2,4.1718525E1,2.0062277E1,4.620243E2,3.9932964E1,1.21223755E1,2.8480878E2,3.5953278E1,5.0500435E3,1.0424038E1,6.52206E1,9.07768E0,1.4304609E3,1.1108765E3],"tree_param":{"num_deleted":"0","num_feature":"227","num_nodes":"97","size_leaf_vector":"0"}},{"base_weights":[4.147217E-4,-2.367791E-1,1.2041128E0,-4.7543287E-1,6.931539E-1,1.2567847E0,-9.5769066E-1,7.4550915E-1,-6.863744E-1,-2.2865665E-1,8.313088E-1,5.37303E-1,1.355611E0,1.2128584E0,-1.2548544E0,3.710491E-1,1.3879442E0,-9.2191243E-1,-2.4453463E-1,1.144362E0,-4.7215813E-1,8.833635E-1,-1.7427988E0,9.6052504E-1,-1.4236541E-1,1.3663384E0,-2.2208576E0,1.5993496E0,-1.1762123E0,3.0858219E-2,-1.6720754E0,6.741448E-2,1.1019078E0,3.240673E-1,1.4748755E0,-1.0002998E0,-2.6937357E-1,9.2895854E-1,-4.535192E-1,-1.7244408E0,1.5114483E0,-6.668776E-2,-1.1137851E0,9.1554946E-1,-1.6430912E0,-1.957865E0,-1.614343E0,1.0469637E0,-1.7924716E0,2.0438872E-1,-1.8490446E0,1.4714797E0,1.0401447E0,-1.5508609E0,9.0957886E-1,-7.8901076E-1,2.59061E-1,1.1595185E0,-1.730424E0,-1.6009966E0,6.060034E-1,9.031522E-1,1.5315368E0,-1.0747498E0,-3.7992716E-1,-3.1045873E-2,-1.1909661E0,1.9713476E-1,1.6538786E0,6.6729313E-1,-5.7163584E-1,1.6474912E0,-1.4995102E0,2.255287E-1,-1.8592808E0,-1.2688496E0,1.3325533E0,5.376257E-1,1.123604E0,-1.8225101E0,1.1267503E0,-7.6339555E-1,6.5686077E-1,1.475921E0,-2.151801E0,1.096016E0,-1.9095933E0,1.6020347E0,-1.400237E0],"categories":[],"categories_nodes":[],"categories_segments":[],"categories_sizes":[],"default_left":[1,1,1,1,1,1,1,1,1,1,1,1,1,1,1,1,1,1,1,1,1,1,1,1,1,1,0,0,0,1,0,1,1,1,1,1,1,1,1,0,1,1,1,1,0,0,0,1,0,1,0,1,1,0,1,0,0,0,0,0,0,0,0,0,0,0,0,0,0,0,0,0,0,0,0,0,0,0,0,0,0,0,0,0,0,0,0,0,0],"id":3,"left_children":[1,3,5,7,9,11,13,15,17,19,21,23,25,27,29,31,33,35,37,39,41,43,45,47,49,51,-1,-1,-1,53,-1,55,57,59,61,63,65,67,69,-1,71,73,75,77,-1,-1,-1,79,-1,81,-1,83,85,-1,87,-1,-1,-1,-1,-1,-1,-1,-1,-1,-1,-1,-1,-1,-1,-1,-1,-1,-1,-1,-1,-1,-1,-1,-1,-1,-1,-1,-1,-1,-1,-1,-1,-1,-1],"loss_changes":[1.2757615E4,8.284609E3,8.387637E2,7.651038E3,9.710869E2,5.09875E2,1.14736084E2,1.0523457E3,2.6358408E3,3.330164E2,8.899551E2,2.5008018E2,2.4524902E2,2.1867346E1,8.3132385E1,6.138126E2,1.4853833E2,8.448291E2,2.1607622E3,1.6066484E2,2.1985513E2,5.3001904E2,4.793396E-1,1.2933243E2,1.9822003E2,2.1436426E2,0E0,0E0,0E0,5.551521E1,0E0,3.211537E2,1.3448303E2,6.772532E1,4.6861084E1,6.8082227E2,3.8943494E2,7.0629614E2,9.9037634E2,0E0,5.7193787E1,2.7232257E2,1.25844086E2,5.0406494E2,0E0,0E0,0E0,1.21089905E2,0E0,1.2256667E2,0E0,7.974512E1,2.5554004E2,0E0,4.3277176E1,0E0,0E0,0E0,0E0,0E0,0E0,0E0,0E0,0E0,0E0,0E0,0E0,0E0,0E0,0E0,0E0,0E0,0E0,0E0,0E0,0E0,0E0,0E0,0E0,0E0,0E0,0E0,0E0,0E0,0E0,0E0,0E0,0E0,0E0],"parents":[2147483647,0,0,1,1,2,2,3,3,4,4,5,5,6,6,7,7,8,8,9,9,10,10,11,11,12,12,13,13,14,14,15,15,16,16,17,17,18,18,19,19,20,20,21,21,22,22,23,23,24,24,25,25,29,29,31,31,32,32,33,33,34,34,35,35,36,36,37,37,38,38,40,40,41,41,42,42,43,43,47,47,49,49,51,51,52,52,54,54],"right_children":[2,4,6,8,10,12,14,16,18,20,22,24,26,28,30,32,34,36,38,40,42,44,46,48,50,52,-1,-1,-1,54,-1,56,58,60,62,64,66,68,70,-1,72,74,76,78,-1,-1,-1,80,-1,82,-1,84,86,-1,88,-1,-1,-1,-1,-1,-1,-1,-1,-1,-1,-1,-1,-1,-1,-1,-1,-1,-1,-1,-1,-1,-1,-1,-1,-1,-1,-1,-1,-1,-1,-1,-1,-1,-1],"split_conditions":[1.5E0,2.9975E1,1.485E2,5E-1,5E-1,2.5E0,2.0455E3,1.5E0,1.0984375E2,5E-1,2.5E0,3.025575E6,5.35E1,1.2011719E1,5E-1,1.84E2,5E-1,1.5E0,1.5E0,9.5E0,9.43396E1,9.5E0,4.25E1,1.855E2,7.2117096E1,2.755E2,-2.2208576E-1,1.5993497E-1,-1.17621236E-1,3.0463585E6,-1.6720754E-1,1.55E1,2.812975E1,3.5E0,5E-1,5E-1,1.2951E4,1.5E0,7.5E0,-1.7244409E-1,5.525E1,1.38575E4,2.5E0,2.6125E2,-1.6430913E-1,-1.957865E-1,-1.6143431E-1,1.495E2,-1.7924717E-1,3.0572135E6,-1.8490446E-1,6.5E0,5.545E2,-1.5508609E-1,3.055708E6,-7.8901075E-2,2.59061E-2,1.1595185E-1,-1.730424E-1,-1.6009967E-1,6.060034E-2,9.031522E-2,1.5315369E-1,-1.0747498E-1,-3.7992716E-2,-3.1045873E-3,-1.19096614E-1,1.9713476E-2,1.6538785E-1,6.6729315E-2,-5.7163585E-2,1.6474913E-1,-1.4995103E-1,2.255287E-2,-1.8592809E-1,-1.2688497E-1,1.3325533E-1,5.3762566E-2,1.1236041E-1,-1.8225102E-1,1.1267503E-1,-7.633956E-2,6.568608E-2,1.4759211E-1,-2.1518011E-1,1.0960161E-1,-1.9095933E-1,1.6020347E-1,-1.400237E-1],"split_indices":[25,220,29,27,120,14,4,14,2,38,18,0,13,2,31,6,17,186,3,32,209,188,26,31,210,26,0,0,0,0,0,13,210,3,226,25,4,15,29,0,215,4,68,220,0,0,0,6,0,0,0,60,5,0,0,0,0,0,0,0,0,0,0,0,0,0,0,0,0,0,0,0,0,0,0,0,0,0,0,0,0,0,0,0,0,0,0,0,0],"split_type":[0,0,0,0,0,0,0,0,0,0,0,0,0,0,0,0,0,0,0,0,0,0,0,0,0,0,0,0,0,0,0,0,0,0,0,0,0,0,0,0,0,0,0,0,0,0,0,0,0,0,0,0,0,0,0,0,0,0,0,0,0,0,0,0,0,0,0,0,0,0,0,0,0,0,0,0,0,0,0,0,0,0,0,0,0,0,0,0,0],"sum_hessian":[4.4681645E4,3.7327004E4,7.354641E3,2.9704312E4,7.622691E3,7.1801177E3,1.7452345E2,4.375593E3,2.532872E4,9.934487E2,6.629242E3,8.6791315E2,6.3122046E3,2.064517E1,1.5387828E2,2.7653274E3,1.6102655E3,1.6520701E4,8.808019E3,1.49089E2,8.4435974E2,6.498484E3,1.307583E2,5.346064E2,3.3330676E2,6.2939443E3,1.8260391E1,1.8054901E1,2.5902703E0,3.792726E1,1.1595102E2,1.9544464E3,8.1088086E2,1.2199534E2,1.4882701E3,1.474848E4,1.7722203E3,1.3309581E3,7.4770605E3,1.6493507E1,1.3259549E2,5.1807245E2,3.2628726E2,6.4173667E3,8.111698E1,4.357001E1,8.7188286E1,5.189326E2,1.5673764E1,2.7775433E2,5.555243E1,4.7570903E3,1.5368536E3,1.327215E1,2.4655111E1,3.5681293E2,1.5976335E3,7.9529486E2,1.5585959E1,1.4986783E1,1.0700855E2,1.3572461E2,1.3525455E3,1.3167533E4,1.5809473E3,1.4089052E3,3.6331512E2,6.629582E2,6.679999E2,7.124025E2,6.764658E3,1.2729672E2,5.298766E0,4.462087E2,7.1863754E1,3.0729056E2,1.8996712E1,2.279791E3,4.1375757E3,1.3447841E1,5.0548474E2,8.826939E1,1.8948495E2,4.7518584E3,5.2321296E0,1.5089019E3,2.7951857E1,1.9204308E1,5.4508038E0],"tree_param":{"num_deleted":"0","num_feature":"227","num_nodes":"89","size_leaf_vector":"0"}},{"base_weights":[6.194765E-4,-2.5046572E-1,9.745137E-1,-4.555832E-1,6.7377955E-1,3.2554384E-2,1.1814834E0,6.2671083E-1,-6.3631874E-1,7.5814945E-1,-1.342926E0,6.57144E-1,-5.047456E-1,1.2274985E0,-1.1581807E0,3.4101084E-1,1.2612339E0,3.5778457E-1,-7.1850216E-1,3.3573133E-1,1.0483447E0,3.7567967E-1,-1.5504899E0,7.772897E-1,-1.2045733E0,-1.0026354E0,2.1254535E-1,1.3511403E0,8.214219E-1,-1.5203524E0,3.458268E-1,4.021846E-2,1.0407254E0,3.5994984E-2,1.3454994E0,6.5404326E-1,-1.6465656E-1,-8.1316817E-1,-1.6094267E-1,-7.249099E-1,5.496389E-1,1.00188226E-1,1.2186947E0,1.2195343E0,-1.4163994E0,-1.0491472E0,9.051604E-1,1.0639099E0,-1.9017385E0,-1.1848335E0,6.577712E-1,4.7337994E-1,-1.6399462E0,1.3651036E0,-1.4979033E0,1.230274E0,3.783903E-1,1.274454E0,-1.380994E0,-4.3551987E-1,3.7505847E-1,1.0883584E0,-1.5497458E0,-7.091961E-1,1.5307856E0,1.3689886E0,-2.0279515E0,7.146934E-1,-2.0005853E0,-5.232196E-1,6.16538E-1,-9.034156E-1,-2.0899123E-2,1.4876363E0,-3.108251E-1,1.3299717E-1,-1.5345883E0,1.8884166E-1,1.005923E0,4.9471006E-1,-2.0566132E0,1.2500343E0,-1.9955012E0,1.4315393E0,-1.0727746E0,-1.6957366E0,8.5685414E-1,1.048379E0,-1.8800814E-1,1.4914938E0,-1.0946758E0,1.3288335E0,-1.2975565E0,1.3877418E0,-1.6355512E0,7.057134E-1,-1.6822613E0,9.607387E-1,1.4167134E0,1.269682E0,-1.9911903E0,-1.7522355E0,4.7769204E-1],"categories":[],"categories_nodes":[],"categories_segments":[],"categories_sizes":[],"default_left":[1,1,1,1,1,1,1,1,1,1,1,1,1,1,1,1,1,1,1,1,1,1,0,1,1,1,1,1,1,0,1,1,1,1,1,1,1,1,1,1,1,1,1,1,0,1,1,1,0,1,1,1,0,1,0,1,1,0,0,0,0,0,0,0,0,0,0,0,0,0,0,0,0,0,0,0,0,0,0,0,0,0,0,0,0,0,0,0,0,0,0,0,0,0,0,0,0,0,0,0,0,0,0],"id":4,"left_children":[1,3,5,7,9,11,13,15,17,19,21,23,25,27,29,31,33,35,37,39,41,43,-1,45,47,49,51,53,55,-1,57,59,61,63,65,67,69,71,73,75,77,79,81,83,-1,85,87,89,-1,91,93,95,-1,97,-1,99,101,-1,-1,-1,-1,-1,-1,-1,-1,-1,-1,-1,-1,-1,-1,-1,-1,-1,-1,-1,-1,-1,-1,-1,-1,-1,-1,-1,-1,-1,-1,-1,-1,-1,-1,-1,-1,-1,-1,-1,-1,-1,-1,-1,-1,-1,-1],"loss_changes":[1.0739085E4,6.6195347E3,1.7549141E3,5.5898467E3,1.0800745E3,5.448683E2,7.959668E2,7.4091675E2,2.0007471E3,7.4591406E2,9.15535E1,1.688711E2,3.119265E2,3.623086E2,7.8344574E1,5.9372595E2,1.3099792E2,2.8960217E2,1.193626E3,5.631924E2,5.8267065E2,4.4502884E1,0E0,1.6580716E2,7.462566E1,1.5669403E2,1.7397377E2,2.2272656E2,3.0602026E2,0E0,4.752647E1,3.1462247E2,1.0633746E2,9.320998E1,9.6878174E1,1.9362985E2,1.9013087E2,1.3823574E3,8.1189465E2,2.896896E2,3.3973633E2,4.695475E2,3.105918E2,1.11425705E1,0E0,5.8943554E1,1.035647E2,1.2185183E1,0E0,1.3341803E2,8.865835E1,1.5893716E2,0E0,1.1385156E2,0E0,1.1418445E2,1.7295691E2,0E0,0E0,0E0,0E0,0E0,0E0,0E0,0E0,0E0,0E0,0E0,0E0,0E0,0E0,0E0,0E0,0E0,0E0,0E0,0E0,0E0,0E0,0E0,0E0,0E0,0E0,0E0,0E0,0E0,0E0,0E0,0E0,0E0,0E0,0E0,0E0,0E0,0E0,0E0,0E0,0E0,0E0,0E0,0E0,0E0,0E0],"parents":[2147483647,0,0,1,1,2,2,3,3,4,4,5,5,6,6,7,7,8,8,9,9,10,10,11,11,12,12,13,13,14,14,15,15,16,16,17,17,18,18,19,19,20,20,21,21,23,23,24,24,25,25,26,26,27,27,28,28,30,30,31,31,32,32,33,33,34,34,35,35,36,36,37,37,38,38,39,39,40,40,41,41,42,42,43,43,45,45,46,46,47,47,49,49,50,50,51,51,53,53,55,55,56,56],"right_children":[2,4,6,8,10,12,14,16,18,20,22,24,26,28,30,32,34,36,38,40,42,44,-1,46,48,50,52,54,56,-1,58,60,62,64,66,68,70,72,74,76,78,80,82,84,-1,86,88,90,-1,92,94,96,-1,98,-1,100,102,-1,-1,-1,-1,-1,-1,-1,-1,-1,-1,-1,-1,-1,-1,-1,-1,-1,-1,-1,-1,-1,-1,-1,-1,-1,-1,-1,-1,-1,-1,-1,-1,-1,-1,-1,-1,-1,-1,-1,-1,-1,-1,-1,-1,-1,-1],"split_conditions":[1.5E0,6.6731E1,2.5E0,5E-1,4.25E1,1.5E0,1.39E2,1.5E0,4.5E0,5E-1,2.5E0,5.465E2,2.5E0,2.755E2,1.5E0,1.84E2,5E-1,3.0346685E6,2.24625E2,5E-1,3.03E2,4.346875E1,-1.55049E-1,3.0085938E1,2.385E3,1.9E2,1.4202E4,1.9E1,5.5E0,-1.5203524E-1,5E-1,1.05625E2,1.91807E1,2.5E0,6.5E2,3.135E2,1.5E0,1.81E2,1.5E0,5E-1,2.5E0,5E-1,1.5E0,5E-1,-1.4163993E-1,4.65E1,3.064228E6,3.0200365E6,-1.9017385E-1,2.9876895E6,1.5E0,2.5E0,-1.6399463E-1,3.5E0,-1.4979033E-1,6.765625E1,4.385E2,1.274454E-1,-1.380994E-1,-4.355199E-2,3.7505846E-2,1.0883584E-1,-1.5497458E-1,-7.091961E-2,1.5307856E-1,1.3689886E-1,-2.0279515E-1,7.1469344E-2,-2.0005853E-1,-5.232196E-2,6.16538E-2,-9.034156E-2,-2.0899123E-3,1.4876364E-1,-3.1082511E-2,1.3299718E-2,-1.5345883E-1,1.8884165E-2,1.0059231E-1,4.9471006E-2,-2.0566133E-1,1.2500344E-1,-1.9955012E-1,1.4315394E-1,-1.0727747E-1,-1.6957366E-1,8.568542E-2,1.04837894E-1,-1.8800816E-2,1.4914939E-1,-1.0946758E-1,1.3288336E-1,-1.2975566E-1,1.3877419E-1,-1.6355513E-1,7.057134E-2,-1.6822614E-1,9.607387E-2,1.4167134E-1,1.269682E-1,-1.9911903E-1,-1.7522356E-1,4.7769204E-2],"split_indices":[21,220,14,27,26,26,29,14,29,40,33,5,21,26,81,6,226,0,2,119,5,2,0,2,4,217,4,33,32,0,115,2,223,15,2,35,24,6,3,188,15,41,130,120,0,30,0,0,0,0,3,17,0,14,0,213,26,0,0,0,0,0,0,0,0,0,0,0,0,0,0,0,0,0,0,0,0,0,0,0,0,0,0,0,0,0,0,0,0,0,0,0,0,0,0,0,0,0,0,0,0,0,0],"split_type":[0,0,0,0,0,0,0,0,0,0,0,0,0,0,0,0,0,0,0,0,0,0,0,0,0,0,0,0,0,0,0,0,0,0,0,0,0,0,0,0,0,0,0,0,0,0,0,0,0,0,0,0,0,0,0,0,0,0,0,0,0,0,0,0,0,0,0,0,0,0,0,0,0,0,0,0,0,0,0,0,0,0,0,0,0,0,0,0,0,0,0,0,0,0,0,0,0,0,0,0,0,0,0],"sum_hessian":[4.3915168E4,3.4914426E4,9.000743E3,2.85736E4,6.3408237E3,1.6216149E3,7.3791284E3,4.0884385E3,2.4485162E4,6.0868037E3,2.5402043E2,7.497905E2,8.718244E2,7.237265E3,1.4186311E2,2.8201682E3,1.26827E3,1.8693885E3,2.2615773E4,2.479588E3,3.6072156E3,2.7285944E1,2.267345E2,7.048834E2,4.490707E1,5.143814E2,3.5744296E2,5.54623E3,1.6910354E3,1.143228E2,2.7540306E1,1.9730525E3,8.4711584E2,8.1703995E1,1.186566E3,1.1927618E3,6.766267E2,1.933286E4,3.2829146E3,4.1574844E2,2.0638394E3,5.496254E2,3.0575903E3,1.8767965E1,8.517978E0,4.564926E1,6.592342E2,1.0433099E1,3.4473972E1,4.637771E2,5.060432E1,3.139786E2,4.3464363E1,5.519698E3,2.6531654E1,8.785177E2,8.125177E2,1.807964E1,9.460668E0,8.149197E2,1.1581328E3,8.323899E2,1.47259655E1,5.4873642E1,2.683035E1,1.1789513E3,7.6147776E0,1.166834E3,2.5927828E1,4.6398907E2,2.1263762E2,1.7355725E4,1.977134E3,2.728518E2,3.0100627E3,2.0226802E2,2.1348042E2,1.1533027E3,9.105367E2,4.6528598E2,8.433942E1,3.0286707E3,2.891961E1,1.7522861E1,1.2451043E0,3.416835E1,1.1480908E1,5.8290717E2,7.632701E1,8.96609E0,1.4670086E0,1.9441996E1,4.443351E2,3.86855E1,1.191882E1,2.8403784E2,2.9940773E1,6.269701E2,4.892728E3,8.6849927E2,1.0018451E1,3.5441277E1,7.770764E2],"tree_param":{"num_deleted":"0","num_feature":"227","num_nodes":"103","size_leaf_vector":"0"}},{"base_weights":[8.579662E-4,-1.9983877E-1,1.0577537E0,-4.0055087E-1,5.8375454E-1,1.1046726E0,-8.6491823E-1,6.314158E-1,-5.7664937E-1,6.4755654E-1,-1.0298994E0,4.655623E-1,1.196783E0,1.103151E0,-1.1350026E0,3.0397898E-1,1.226048E0,-7.868831E-1,-1.8706223E-1,-4.030677E-1,7.425422E-1,4.1709504E-1,-1.3210547E0,8.4177345E-1,-1.2950157E-1,1.307452E0,8.679578E-1,1.4479243E0,-1.0444546E0,4.8547067E-2,-1.5259862E0,5.6404773E-2,9.409451E-1,2.019578E-1,1.3146065E0,-8.8669884E-1,-2.2515781E-1,8.157837E-1,-3.6421326E-1,1.1276781E-1,-1.5879166E0,7.807659E-1,-1.5053134E0,1.2390434E0,-1.7395347E0,1.1070032E0,-1.5545554E0,-1.74565E0,9.1914654E-1,1.809146E-1,-1.6935227E0,1.3129103E0,-1.8944896E0,1.0290898E0,-8.91153E-2,-1.4143019E0,8.408569E-1,1.3441755E-1,-1.7744024E0,1.0061479E0,-1.6781447E0,4.285933E-1,-2.142228E0,-2.1693883E0,1.3236018E0,-9.744714E-1,-2.3682922E-1,5.6880377E-2,-7.7411896E-1,1.952281E-1,1.4628916E0,1.7628154E-1,-5.494686E-1,7.574579E-1,-9.8749954E-1,-1.9753584E0,1.3479056E0,4.6003094E-1,1.0042635E0,-1.4861562E0,1.7176493E0,-1.3379384E0,1.5147083E0,-1.7280979E0,3.4051934E-1,9.9694556E-1,-1.647782E0,4.8756915E-1,-1.1354887E0,9.158652E-1,1.35428E0,1.2708585E0,6.66907E-1,-5.4531E-1,1.0833316E0,1.457943E0,-1.2713146E0],"categories":[],"categories_nodes":[],"categories_segments":[],"categories_sizes":[],"default_left":[1,1,1,1,1,1,1,1,1,1,1,1,1,1,1,1,1,1,1,1,1,1,1,1,1,1,1,0,0,1,0,1,1,1,1,1,1,1,1,1,1,1,0,1,0,1,1,0,1,1,0,1,0,1,1,0,1,0,0,0,0,0,0,0,0,0,0,0,0,0,0,0,0,0,0,0,0,0,0,0,0,0,0,0,0,0,0,0,0,0,0,0,0,0,0,0,0],"id":5,"left_children":[1,3,5,7,9,11,13,15,17,19,21,23,25,27,29,31,33,35,37,39,41,43,45,47,49,51,53,-1,-1,55,-1,57,59,61,63,65,67,69,71,73,75,77,-1,79,-1,81,83,-1,85,87,-1,89,-1,91,93,-1,95,-1,-1,-1,-1,-1,-1,-1,-1,-1,-1,-1,-1,-1,-1,-1,-1,-1,-1,-1,-1,-1,-1,-1,-1,-1,-1,-1,-1,-1,-1,-1,-1,-1,-1,-1,-1,-1,-1,-1,-1],"loss_changes":[9.125627E3,5.6867573E3,6.203174E2,5.2312314E3,7.597595E2,3.940205E2,8.848682E1,8.166666E2,2.0137812E3,7.081677E2,1.1886124E2,1.8949358E2,2.1203223E2,1.65516E1,6.708197E1,4.2690692E2,1.3484961E2,8.9523535E2,1.5316022E3,3.6002853E2,5.601367E2,8.68877E1,1.3440024E2,1.0539087E2,1.598109E2,7.904932E1,2.2802295E2,0E0,0E0,4.3988136E1,0E0,2.7885666E2,1.310882E2,6.454396E1,4.5839844E1,7.7325586E2,3.7333243E2,5.1948016E2,7.3366486E2,2.9237155E2,2.0586633E2,4.5812524E2,0E0,4.8455532E1,0E0,2.3074326E1,7.0937195E1,0E0,1.0229852E2,1.11579735E2,0E0,7.060254E1,0E0,1.0993091E2,1.1499792E2,0E0,3.3891106E1,0E0,0E0,0E0,0E0,0E0,0E0,0E0,0E0,0E0,0E0,0E0,0E0,0E0,0E0,0E0,0E0,0E0,0E0,0E0,0E0,0E0,0E0,0E0,0E0,0E0,0E0,0E0,0E0,0E0,0E0,0E0,0E0,0E0,0E0,0E0,0E0,0E0,0E0,0E0,0E0],"parents":[2147483647,0,0,1,1,2,2,3,3,4,4,5,5,6,6,7,7,8,8,9,9,10,10,11,11,12,12,13,13,14,14,15,15,16,16,17,17,18,18,19,19,20,20,21,21,22,22,23,23,24,24,25,25,26,26,29,29,31,31,32,32,33,33,34,34,35,35,36,36,37,37,38,38,39,39,40,40,41,41,43,43,45,45,46,46,48,48,49,49,51,51,53,53,54,54,56,56],"right_children":[2,4,6,8,10,12,14,16,18,20,22,24,26,28,30,32,34,36,38,40,42,44,46,48,50,52,54,-1,-1,56,-1,58,60,62,64,66,68,70,72,74,76,78,-1,80,-1,82,84,-1,86,88,-1,90,-1,92,94,-1,96,-1,-1,-1,-1,-1,-1,-1,-1,-1,-1,-1,-1,-1,-1,-1,-1,-1,-1,-1,-1,-1,-1,-1,-1,-1,-1,-1,-1,-1,-1,-1,-1,-1,-1,-1,-1,-1,-1,-1,-1],"split_conditions":[1.5E0,2.7977E1,1.485E2,5E-1,5E-1,2.5E0,2.0455E3,1.5E0,1.0984375E2,1.3E1,5E-1,3.025575E6,2.755E2,1.2011719E1,5E-1,1.84E2,5E-1,5E-1,1.5E0,4.2425E2,9.5E0,3.01372E6,1.515E3,1.04453125E1,7.2117096E1,5.35E1,5.06E2,1.4479242E-1,-1.0444546E-1,3.0463585E6,-1.5259862E-1,3.0745875E6,1.84811E1,5.1E1,5E0,1.81E2,3.55E1,1.5E0,1.15E1,7.535E3,1.8259E4,2.9075E2,-1.5053134E-1,8E0,-1.7395347E-1,1.476E3,1.77595E4,-1.74565E-1,1.855E2,5.5E0,-1.6935228E-1,3.5E0,-1.8944897E-1,3.5E0,7.15E1,-1.4143018E-1,3.055708E6,1.3441755E-2,-1.7744024E-1,1.00614786E-1,-1.6781448E-1,4.285933E-2,-2.1422279E-1,-2.1693884E-1,1.3236019E-1,-9.744714E-2,-2.3682922E-2,5.6880377E-3,-7.74119E-2,1.952281E-2,1.4628915E-1,1.7628154E-2,-5.494686E-2,7.574579E-2,-9.874996E-2,-1.9753584E-1,1.3479057E-1,4.6003096E-2,1.0042635E-1,-1.4861563E-1,1.7176494E-1,-1.3379385E-1,1.5147083E-1,-1.728098E-1,3.4051936E-2,9.969456E-2,-1.647782E-1,4.8756916E-2,-1.13548875E-1,9.158652E-2,1.35428E-1,1.2708585E-1,6.6690706E-2,-5.4531004E-2,1.0833316E-1,1.457943E-1,-1.2713146E-1],"split_indices":[25,220,29,27,135,14,4,14,2,13,34,0,26,2,31,6,17,40,3,211,188,0,4,2,210,13,5,0,0,0,0,0,210,35,30,6,28,15,34,4,4,220,0,32,0,4,4,0,31,28,0,14,0,32,35,0,0,0,0,0,0,0,0,0,0,0,0,0,0,0,0,0,0,0,0,0,0,0,0,0,0,0,0,0,0,0,0,0,0,0,0,0,0,0,0,0,0],"split_type":[0,0,0,0,0,0,0,0,0,0,0,0,0,0,0,0,0,0,0,0,0,0,0,0,0,0,0,0,0,0,0,0,0,0,0,0,0,0,0,0,0,0,0,0,0,0,0,0,0,0,0,0,0,0,0,0,0,0,0,0,0,0,0,0,0,0,0,0,0,0,0,0,0,0,0,0,0,0,0,0,0,0,0,0,0,0,0,0,0,0,0,0,0,0,0,0,0],"sum_hessian":[4.3019973E4,3.615518E4,6.864793E3,2.878308E4,7.372101E3,6.7016772E3,1.631155E2,4.195305E3,2.4587773E4,7.0922793E3,2.7982175E2,8.449592E2,5.8567183E3,1.9311401E1,1.438041E2,2.7064812E3,1.4888242E3,1.5969239E4,8.618535E3,5.8777136E2,6.504508E3,4.6800133E1,2.330216E2,5.1742096E2,3.275383E2,4.3797104E3,1.4770073E3,1.6920765E1,2.390637E0,3.5926502E1,1.0787759E2,1.9497473E3,7.567338E2,1.1876043E2,1.3700637E3,1.3559252E4,2.4099873E3,1.2933455E3,7.32519E3,4.1012448E2,1.7764687E2,6.396393E3,1.0811482E2,3.4193546E1,1.2606586E1,2.0114988E1,2.1290662E2,1.4397419E1,5.0302353E2,2.740342E2,5.35041E1,4.372846E3,6.864338E0,1.2641079E3,2.1289952E2,1.2346328E1,2.3580175E1,1.8709506E3,7.879675E1,7.3895325E2,1.7780558E1,1.0903601E2,9.724417E0,2.9097533E0,1.367154E3,1.1945387E4,1.6138651E3,1.5926383E3,8.173489E2,6.608824E2,6.3246313E2,1.8698436E3,5.455346E3,2.5879678E2,1.513277E2,1.5722496E2,2.0421896E1,2.6280347E3,3.7683584E3,4.7935762E0,2.9399971E1,2.5487728E0,1.7566216E1,1.9512596E2,1.7780657E1,4.888199E2,1.42036295E1,2.2276987E2,5.126435E1,4.148133E2,3.958033E3,7.565665E2,5.0754135E2,1.5364984E2,5.924968E1,1.8488398E1,5.091777E0],"tree_param":{"num_deleted":"0","num_feature":"227","num_nodes":"97","size_leaf_vector":"0"}},{"base_weights":[1.0514903E-3,-1.983035E-1,9.264922E-1,-3.839031E-1,5.181118E-1,9.989094E-1,-8.797637E-1,5.638699E-1,-5.4264474E-1,5.8592045E-1,-1.0701591E0,2.0950778E-1,1.1063375E0,2.3091307E-1,-1.254308E0,2.8725144E-1,1.1391655E0,4.0051052E-1,-6.128007E-1,2.3877515E-1,8.796308E-1,-1.2549888E0,1.3682065E0,8.5321885E-1,-1.023942E0,1.2414312E0,7.103832E-1,-1.4297986E0,5.598479E-1,-3.9902E-1,-1.3858056E0,-6.172577E-1,4.4094315E-1,1.1689194E0,-1.9590356E0,4.6115226E-1,-1.8268936E0,-7.895894E-1,-3.0389237E-1,-9.661214E-2,6.283976E-1,4.3210108E-2,1.0517349E0,1.08462E0,-1.3734965E0,-1.1340249E0,1.8586988E0,9.453776E-1,-1.6322056E0,-1.2567582E0,2.3334038E-1,1.2509055E0,-1.3544627E0,1.0887334E0,3.2341564E-1,-1.4758232E0,8.55063E-1,1.0335112E0,-1.3972188E0,-3.450231E-1,-1.4998497E0,1.59344E-1,-1.3913186E0,5.830859E-1,-7.5752854E-1,3.6842975E-1,1.2437665E0,3.5876647E-2,7.5909686E-1,-4.3072882E-1,-1.0082755E0,1.4914505E-1,-8.49578E-1,1.2023624E-1,-1.0454181E0,7.7242494E-1,-2.0076158E0,3.8900438E-1,-1.8947395E0,1.0819863E0,-1.8462651E0,1.9337835E0,-1.1749171E0,1.3205616E0,-1.4747908E0,2.190449E0,1.2765388E0,9.950043E-1,-1.9421237E0,-1.4874871E0,4.536633E-1,9.665845E-1,-1.5977308E0,1.2565917E0,-2.0100725E0,1.190781E0,-1.9356759E-1,4.0836886E-1,-1.8698682E0,1.1249068E0,-1.1952204E0,1.6856635E0,-1.0985581E0,1.0505568E0,-1.4335563E0],"categories":[],"categories_nodes":[],"categories_segments":[],"categories_sizes":[],"default_left":[1,1,1,1,1,1,1,1,1,1,1,1,1,1,1,1,1,1,1,1,1,1,1,1,1,1,1,0,1,1,1,1,1,1,0,1,0,1,1,1,1,1,1,1,1,0,1,1,0,1,1,1,0,1,1,0,1,1,0,1,0,0,0,0,0,0,0,0,0,0,0,0,0,0,0,0,0,0,0,0,0,0,0,0,0,0,0,0,0,0,0,0,0,0,0,0,0,0,0,0,0,0,0,0,0],"id":6,"left_children":[1,3,5,7,9,11,13,15,17,19,21,23,25,27,29,31,33,35,37,39,41,43,45,47,49,51,53,-1,55,57,59,61,63,65,-1,67,-1,69,71,73,75,77,79,81,83,-1,85,87,-1,89,91,93,-1,95,97,-1,99,101,-1,103,-1,-1,-1,-1,-1,-1,-1,-1,-1,-1,-1,-1,-1,-1,-1,-1,-1,-1,-1,-1,-1,-1,-1,-1,-1,-1,-1,-1,-1,-1,-1,-1,-1,-1,-1,-1,-1,-1,-1,-1,-1,-1,-1,-1,-1],"loss_changes":[7.7705854E3,4.608011E3,9.77334E2,4.141337E3,7.686105E2,6.0846826E2,1.2021593E2,6.281262E2,1.5602207E3,6.9715015E2,1.3346457E2,6.8451886E2,3.3705908E2,4.0975445E1,2.371109E1,3.7118967E2,1.2046521E2,2.2140063E2,1.1981592E3,4.098554E2,5.332283E2,7.697519E1,2.7974735E1,1.3125925E2,8.685419E1,1.1751221E2,2.352945E2,0E0,3.858441E1,4.45624E1,2.1629547E1,2.3342596E2,3.8905917E2,7.565588E1,0E0,2.0148932E2,0E0,1.0948057E3,1.9751482E3,3.470485E2,5.5237244E2,4.2507776E2,2.7134253E2,2.8528343E1,7.278201E1,0E0,6.8027496E-1,8.0272766E1,0E0,9.9205475E1,6.471045E1,8.954004E1,0E0,1.066673E2,1.4928706E2,0E0,3.1702812E1,1.9868607E1,0E0,3.1471102E1,0E0,0E0,0E0,0E0,0E0,0E0,0E0,0E0,0E0,0E0,0E0,0E0,0E0,0E0,0E0,0E0,0E0,0E0,0E0,0E0,0E0,0E0,0E0,0E0,0E0,0E0,0E0,0E0,0E0,0E0,0E0,0E0,0E0,0E0,0E0,0E0,0E0,0E0,0E0,0E0,0E0,0E0,0E0,0E0,0E0],"parents":[2147483647,0,0,1,1,2,2,3,3,4,4,5,5,6,6,7,7,8,8,9,9,10,10,11,11,12,12,13,13,14,14,15,15,16,16,17,17,18,18,19,19,20,20,21,21,22,22,23,23,24,24,25,25,26,26,28,28,29,29,30,30,31,31,32,32,33,33,35,35,37,37,38,38,39,39,40,40,41,41,42,42,43,43,44,44,46,46,47,47,49,49,50,50,51,51,53,53,54,54,56,56,57,57,59,59],"right_children":[2,4,6,8,10,12,14,16,18,20,22,24,26,28,30,32,34,36,38,40,42,44,46,48,50,52,54,-1,56,58,60,62,64,66,-1,68,-1,70,72,74,76,78,80,82,84,-1,86,88,-1,90,92,94,-1,96,98,-1,100,102,-1,104,-1,-1,-1,-1,-1,-1,-1,-1,-1,-1,-1,-1,-1,-1,-1,-1,-1,-1,-1,-1,-1,-1,-1,-1,-1,-1,-1,-1,-1,-1,-1,-1,-1,-1,-1,-1,-1,-1,-1,-1,-1,-1,-1,-1,-1],"split_conditions":[1.5E0,1.0404949E1,1.18E2,5E-1,4.25E1,2.5E0,5E-1,1.5E0,4.5E0,5E-1,5.045E2,1.5E0,2.755E2,3.5E0,1.875E2,1.55E1,5.135E2,3.135E2,1.5E0,2.5E0,3.03E2,4.6485E1,4.05E2,4.5E0,2.625E2,1.9E1,5.5E0,-1.4297986E-1,7.35E1,1.72E2,5E-1,1.5E0,3.55E1,5E-1,-1.9590357E-1,5.996875E1,-1.8268935E-1,4.5E0,5E-1,3.26E2,2.26875E2,5E-1,1.5E0,3E0,1.9199219E0,-1.13402486E-1,3.077328E6,5.25E1,-1.6322057E-1,1.5E0,6.38E3,5.5E0,-1.3544628E-1,2.6929688E1,3.0668435E6,-1.4758232E-1,2.415E2,3.75E1,-1.3972189E-1,9.5E1,-1.4998497E-1,1.59344E-2,-1.3913186E-1,5.830859E-2,-7.5752854E-2,3.6842976E-2,1.24376655E-1,3.5876648E-3,7.590969E-2,-4.3072883E-2,-1.0082755E-1,1.4914505E-2,-8.49578E-2,1.2023624E-2,-1.04541816E-1,7.724249E-2,-2.0076159E-1,3.890044E-2,-1.8947396E-1,1.08198635E-1,-1.846265E-1,1.9337836E-1,-1.17491715E-1,1.3205616E-1,-1.4747909E-1,2.1904491E-1,1.2765388E-1,9.950043E-2,-1.9421236E-1,-1.4874871E-1,4.536633E-2,9.665845E-2,-1.5977308E-1,1.2565917E-1,-2.0100725E-1,1.190781E-1,-1.935676E-2,4.0836886E-2,-1.8698682E-1,1.1249068E-1,-1.19522035E-1,1.6856635E-1,-1.0985581E-1,1.0505568E-1,-1.4335564E-1],"split_indices":[17,220,29,27,26,14,35,14,29,40,35,26,26,26,10,13,2,35,15,15,5,210,5,185,2,33,32,0,11,5,31,3,13,17,0,2,0,33,74,10,174,41,130,15,2,0,0,28,0,62,4,185,0,213,0,0,31,2,0,35,0,0,0,0,0,0,0,0,0,0,0,0,0,0,0,0,0,0,0,0,0,0,0,0,0,0,0,0,0,0,0,0,0,0,0,0,0,0,0,0,0,0,0,0,0],"split_type":[0,0,0,0,0,0,0,0,0,0,0,0,0,0,0,0,0,0,0,0,0,0,0,0,0,0,0,0,0,0,0,0,0,0,0,0,0,0,0,0,0,0,0,0,0,0,0,0,0,0,0,0,0,0,0,0,0,0,0,0,0,0,0,0,0,0,0,0,0,0,0,0,0,0,0,0,0,0,0,0,0,0,0,0,0,0,0,0,0,0,0,0,0,0,0,0,0,0,0,0,0,0,0,0,0],"sum_hessian":[4.2116996E4,3.465297E4,7.464028E3,2.7523104E4,7.1298643E3,7.1767417E3,2.87286E2,3.9481255E3,2.3574979E4,6.838535E3,2.9132904E2,8.6003015E2,6.316712E3,7.2544716E1,2.1474127E2,2.6671724E3,1.280953E3,1.631873E3,2.1943105E4,3.134998E3,3.703537E3,2.712532E2,2.0075844E1,5.653134E2,2.9471674E2,4.708206E3,1.6085055E3,1.1440031E1,6.1104687E1,2.9153734E1,1.8558754E2,3.8693863E2,2.280234E3,1.269385E3,1.15679865E1,1.5893943E3,4.2478767E1,1.3955055E4,7.9880513E3,1.6851615E3,1.4498364E3,6.3221967E2,3.0713174E3,1.2684308E1,2.5856888E2,3.075297E0,1.7000546E1,5.456987E2,1.9614706E1,2.486699E2,4.6046818E1,4.6916016E3,1.6604786E1,8.1239154E2,7.9611395E2,7.2326236E0,5.3872063E1,1.1957688E1,1.7196047E1,1.8725086E1,1.6686246E2,1.9354872E2,1.933899E2,2.0389241E3,2.4130974E2,1.09047264E2,1.1603378E3,6.552434E2,9.3415094E2,5.2851597E3,8.6698955E3,4.3649355E3,3.623116E3,1.3723793E3,3.1278223E2,1.3753942E3,7.444227E1,5.3717004E2,9.504962E1,3.0402083E3,3.110916E1,9.324287E0,3.3600204E0,8.933499E0,2.4963538E2,9.069545E0,7.931001E0,5.3712274E2,8.575973E0,2.1922736E2,2.944254E1,3.3217243E1,1.2829575E1,4.6840483E3,7.5530424E0,7.52572E2,5.9819523E1,7.6721106E2,2.8902843E1,4.800529E1,5.8667736E0,9.317156E0,2.6405325E0,8.220582E0,1.0504504E1],"tree_param":{"num_deleted":"0","num_feature":"227","num_nodes":"105","size_leaf_vector":"0"}},{"base_weights":[1.1451041E-3,-1.9619325E-1,8.1503814E-1,-3.4637696E-1,5.823443E-1,1.9992797E-2,1.001842E0,4.811773E-1,-4.832163E-1,6.4784676E-1,-1.1521345E0,1.9798279E-1,-1.2277017E0,1.0412257E0,-1.0398202E0,-1.372547E-1,7.106182E-1,2.5003332E-1,-5.6000984E-1,7.2052497E-1,-4.3541995E-1,4.792452E-1,-1.3778305E0,4.8291183E-1,-7.9363924E-1,-1.3393028E0,7.34851E-2,1.2129554E0,7.3071104E-1,-1.3605312E0,2.8927553E-1,-5.8723325E-1,6.579835E-1,-8.854793E-1,7.975836E-1,3.9145115E-1,-7.632437E-1,-6.320321E-1,1.0579857E-2,7.651892E-1,-8.914113E-1,-8.3229646E-2,-1.9152175E0,1.1491563E0,-1.2177808E0,5.551717E-1,-1.5440235E0,-1.2788348E0,-2.1639888E-1,-4.8621035E-1,-1.5129343E0,1.2924001E0,-1.3120481E0,1.2239109E0,-2.1481786E0,-1.6907898E0,8.0579585E-1,1.090512E0,-1.2156222E0,-1.3448936E0,1.9217882E-1,-1.822293E0,7.956026E-1,-1.4135803E0,1.0619076E0,5.852732E-1,1.172732E0,6.703781E-1,-9.804444E-2,-1.2474493E0,7.6918805E-1,-7.3201245E-1,-1.54138E-1,-3.0319098E-1,7.3995686E-1,7.8757507E-1,-2.082456E0,1.1777022E0,-1.2216415E0,3.2145244E-1,-1.2353048E0,-1.4280927E0,-2.0346801E0,1.3497766E0,8.3620864E-1,-1.7517252E0,6.1660576E-1,-1.5911423E0,2.6048655E-2,-1.6663682E0,3.153047E-1,8.5286576E-1,-1.3897278E0,8.3198965E-1,1.2861774E0,-2.049079E0,1.1900936E0,5.1137793E-1,1.2277755E0],"categories":[],"categories_nodes":[],"categories_segments":[],"categories_sizes":[],"default_left":[1,1,1,1,1,1,1,1,1,1,1,1,1,1,1,1,1,1,1,1,1,1,0,1,1,1,1,1,1,0,1,1,1,1,1,1,1,1,1,1,1,1,1,1,0,1,0,1,1,1,0,0,0,1,0,1,1,0,0,0,0,0,0,0,0,0,0,0,0,0,0,0,0,0,0,0,0,0,0,0,0,0,0,0,0,0,0,0,0,0,0,0,0,0,0,0,0,0,0],"id":7,"left_children":[1,3,5,7,9,11,13,15,17,19,21,23,25,27,29,31,33,35,37,39,41,43,-1,45,47,49,51,53,55,-1,57,59,61,63,65,67,69,71,73,75,77,79,81,83,-1,85,-1,87,89,91,-1,-1,-1,93,-1,95,97,-1,-1,-1,-1,-1,-1,-1,-1,-1,-1,-1,-1,-1,-1,-1,-1,-1,-1,-1,-1,-1,-1,-1,-1,-1,-1,-1,-1,-1,-1,-1,-1,-1,-1,-1,-1,-1,-1,-1,-1,-1,-1],"loss_changes":[6.612482E3,3.8746055E3,1.19321E3,3.1459082E3,6.09577E2,3.399319E2,5.241919E2,5.594443E2,1.3423926E3,4.0691138E2,7.259515E1,3.788472E2,2.7849121E1,3.394873E2,5.308719E1,3.8240863E2,3.9983228E2,3.2422012E2,8.8675146E2,3.4915137E2,1.6939337E2,2.923647E1,0E0,1.5334883E2,8.3565475E1,2.5342804E1,2.8791265E1,1.5391699E2,4.1509912E2,0E0,3.1295872E1,4.0318878E2,1.3329248E2,1.54787E2,2.1654419E2,2.7099258E2,2.0663692E2,9.153262E2,5.539146E2,3.0190015E2,9.0920425E1,1.2340245E2,7.312317E-1,5.8231354E-3,0E0,1.4365756E2,0E0,6.624075E1,1.0685124E2,3.899049E1,0E0,0E0,0E0,9.888086E1,0E0,7.3412E1,2.736648E2,0E0,0E0,0E0,0E0,0E0,0E0,0E0,0E0,0E0,0E0,0E0,0E0,0E0,0E0,0E0,0E0,0E0,0E0,0E0,0E0,0E0,0E0,0E0,0E0,0E0,0E0,0E0,0E0,0E0,0E0,0E0,0E0,0E0,0E0,0E0,0E0,0E0,0E0,0E0,0E0,0E0,0E0],"parents":[2147483647,0,0,1,1,2,2,3,3,4,4,5,5,6,6,7,7,8,8,9,9,10,10,11,11,12,12,13,13,14,14,15,15,16,16,17,17,18,18,19,19,20,20,21,21,23,23,24,24,25,25,26,26,27,27,28,28,30,30,31,31,32,32,33,33,34,34,35,35,36,36,37,37,38,38,39,39,40,40,41,41,42,42,43,43,45,45,47,47,48,48,49,49,53,53,55,55,56,56],"right_children":[2,4,6,8,10,12,14,16,18,20,22,24,26,28,30,32,34,36,38,40,42,44,-1,46,48,50,52,54,56,-1,58,60,62,64,66,68,70,72,74,76,78,80,82,84,-1,86,-1,88,90,92,-1,-1,-1,94,-1,96,98,-1,-1,-1,-1,-1,-1,-1,-1,-1,-1,-1,-1,-1,-1,-1,-1,-1,-1,-1,-1,-1,-1,-1,-1,-1,-1,-1,-1,-1,-1,-1,-1,-1,-1,-1,-1,-1,-1,-1,-1,-1,-1],"split_conditions":[1.5E0,1.08975E2,2.5E0,5E-1,4.25E1,2.205E2,1.39E2,5E-1,7.5E0,5E-1,2.5E0,1.22705E4,3.07905E6,8.5E0,1.5E0,5E-1,5E-1,5E-1,2.74875E2,5E-1,5.581281E2,4.346875E1,-1.3778305E-1,5.63E2,1.74E2,1.87E2,3.0790975E6,1.78E2,7.5E0,-1.3605313E-1,5E-1,1.6025E2,2.996741E6,1.71265E4,1.5E0,3.036048E6,2.75E1,5E-1,1.5E0,1.3815E3,1.515E3,2.25E2,5E-1,8.5E0,-1.21778086E-1,1.495E2,-1.5440236E-1,1.771E4,-7.5E0,5E-1,-1.5129344E-1,1.2924002E-1,-1.3120481E-1,3.5E0,-2.1481787E-1,1.36E2,1.5E0,1.09051205E-1,-1.2156222E-1,-1.3448936E-1,1.9217882E-2,-1.8222931E-1,7.9560265E-2,-1.4135803E-1,1.0619076E-1,5.852732E-2,1.17273204E-1,6.703781E-2,-9.804444E-3,-1.2474493E-1,7.69188E-2,-7.320125E-2,-1.54138E-2,-3.0319098E-2,7.399569E-2,7.875751E-2,-2.0824562E-1,1.1777022E-1,-1.2216415E-1,3.2145243E-2,-1.23530485E-1,-1.4280927E-1,-2.0346801E-1,1.3497767E-1,8.362087E-2,-1.7517252E-1,6.1660577E-2,-1.5911423E-1,2.6048655E-3,-1.6663682E-1,3.153047E-2,8.528658E-2,-1.3897279E-1,8.3198965E-2,1.2861775E-1,-2.049079E-1,1.1900937E-1,5.1137794E-2,1.22777544E-1],"split_indices":[21,220,14,27,26,28,29,17,29,23,33,4,0,26,81,40,7,18,2,135,210,2,0,5,6,10,0,32,24,0,115,2,0,4,14,0,12,40,19,174,4,8,119,13,0,6,0,4,225,19,0,0,0,14,0,29,89,0,0,0,0,0,0,0,0,0,0,0,0,0,0,0,0,0,0,0,0,0,0,0,0,0,0,0,0,0,0,0,0,0,0,0,0,0,0,0,0,0,0],"split_type":[0,0,0,0,0,0,0,0,0,0,0,0,0,0,0,0,0,0,0,0,0,0,0,0,0,0,0,0,0,0,0,0,0,0,0,0,0,0,0,0,0,0,0,0,0,0,0,0,0,0,0,0,0,0,0,0,0,0,0,0,0,0,0,0,0,0,0,0,0,0,0,0,0,0,0,0,0,0,0,0,0,0,0,0,0,0,0,0,0,0,0,0,0,0,0,0,0,0,0],"sum_hessian":[4.1168457E4,3.3135184E4,8.033273E3,2.7777354E4,5.357832E3,1.5285985E3,6.504675E3,3.941016E3,2.3836338E4,5.163461E3,1.9437115E2,1.3384965E3,1.9010205E2,6.3820547E3,1.2261974E2,1.0665779E3,2.8744382E3,2.2595142E3,2.1576824E4,4.8391304E3,3.2433078E2,2.3485983E1,1.7088518E2,1.0401395E3,2.983569E2,1.7505823E2,1.5043827E1,4.1075005E3,2.2745544E3,9.876426E1,2.3855484E1,6.813203E2,3.8525757E2,1.4805035E2,2.7263877E3,1.9833253E3,2.7618875E2,1.9158453E4,2.4183696E3,4.709172E3,1.2995833E2,2.6283304E2,6.149775E1,1.7070244E1,6.4157395E0,1.0050363E3,3.510326E1,1.6144226E2,1.3691464E2,3.0247133E1,1.448111E2,8.038883E0,7.0049443E0,4.0947893E3,1.2710999E1,6.776008E1,2.2067944E3,1.5746893E1,8.10859E0,3.451131E2,3.362072E2,1.9608936E1,3.6564865E2,1.166821E2,3.1368254E1,1.7426932E3,9.836945E2,1.2631698E3,7.2015546E2,2.1001566E2,6.617311E1,1.5843334E4,3.3151199E3,1.6913512E3,7.270184E2,4.6731587E3,3.601324E1,1.7533417E1,1.1242491E2,1.9504263E2,6.77904E1,1.4662753E1,4.6834995E1,8.383044E0,8.687199E0,2.5356737E1,9.7967957E2,1.3008795E2,3.1354305E1,3.6163048E1,1.0075159E2,1.2208839E1,1.8038294E1,5.6334045E2,3.531449E3,6.0521843E1,7.238234E0,1.3011709E3,9.056236E2],"tree_param":{"num_deleted":"0","num_feature":"227","num_nodes":"99","size_leaf_vector":"0"}},{"base_weights":[1.288891E-3,-1.5777917E-1,8.9930254E-1,-2.9415438E-1,5.465225E-1,9.3990004E-1,-7.7299124E-1,4.8207036E-1,-4.2270556E-1,6.602347E-1,-3.3789986E-1,-1.1231242E0,9.675304E-1,3.086337E-1,-1.1997976E0,2.1971455E-1,1.0336286E0,-6.014991E-1,-1.4522655E-1,-3.039574E-1,7.4774456E-1,-8.01069E-1,9.996859E-1,-1.9215126E0,3.8940963E-1,7.7666926E-1,1.2020787E0,-1.258868E0,9.088166E-1,1.1645894E0,-1.3833596E0,-1.5141881E-2,8.4727097E-1,1.02274686E-1,1.1272596E0,-2.5417444E-1,-8.419343E-1,2.833504E-1,-6.5420455E-1,6.780128E-2,-2.1618726E0,4.904788E-1,1.0270437E0,-1.1922593E0,1.3330793E0,1.2683091E0,-1.5392513E0,-1.6226354E0,-2.1775599E0,-1.8805182E0,1.1593865E0,1.0472907E0,3.68464E-1,1.2085968E0,-1.852879E0,-1.0360429E0,1.1284635E0,-4.163824E-1,2.888238E-1,9.8841023E-1,-2.1336961E-1,1.0187916E0,-4.0055558E-1,1.1455493E0,-2.1734698E0,1.3257706E-1,-4.9205905E-1,-1.945095E-1,-9.308069E-1,-5.7871175E-1,5.248997E-1,1.1937086E-1,-7.901916E-1,-2.1073222E0,2.2136408E-1,-1.6306865E0,-2.6707714E0,5.382906E-1,-1.8561177E0,1.0771612E0,-2.6137757E0,1.510017E0,-1.4609512E0,1.4048893E0,-8.603409E-1,-1.7699944E0,1.3740473E0,1.0573788E0,-1.8576899E0,6.777714E-2,9.685632E-1,1.2131416E0,-1.8446095E0,-8.4656876E-1,1.288031E0],"categories":[],"categories_nodes":[],"categories_segments":[],"categories_sizes":[],"default_left":[1,1,1,1,1,1,1,1,1,1,1,1,1,1,1,1,1,1,1,1,1,1,1,1,1,1,1,0,1,0,0,1,1,1,1,1,1,1,1,1,1,1,1,1,1,1,0,0,0,0,0,1,1,1,0,0,1,0,0,0,0,0,0,0,0,0,0,0,0,0,0,0,0,0,0,0,0,0,0,0,0,0,0,0,0,0,0,0,0,0,0,0,0,0,0],"id":8,"left_children":[1,3,5,7,9,11,13,15,17,19,21,23,25,27,29,31,33,35,37,39,41,43,45,47,49,51,53,-1,55,-1,-1,57,59,61,63,65,67,69,71,73,75,77,79,81,83,85,-1,-1,-1,-1,-1,87,89,91,-1,-1,93,-1,-1,-1,-1,-1,-1,-1,-1,-1,-1,-1,-1,-1,-1,-1,-1,-1,-1,-1,-1,-1,-1,-1,-1,-1,-1,-1,-1,-1,-1,-1,-1,-1,-1,-1,-1,-1,-1],"loss_changes":[5.7473335E3,3.2831465E3,4.1176855E2,2.85765E3,5.5789087E2,3.380498E2,6.686845E1,5.8859125E2,1.2187676E3,4.1482764E2,3.9258102E2,9.565114E1,2.6022363E2,4.0236504E1,4.6528336E1,4.066128E2,1.1423999E2,1.247458E3,2.1005032E3,2.8303476E2,3.2320825E2,3.9421066E2,1.131889E2,4.1583252E-1,5.108816E1,3.5524548E2,5.432202E1,0E0,1.4253117E1,0E0,0E0,2.450782E2,1.1267804E2,5.6120945E1,7.441809E1,5.6249097E2,5.0778955E2,1.0888873E3,4.6313513E2,1.14784424E2,1.4112762E1,2.6431873E2,3.967937E2,2.91159E2,1.2757614E1,4.9992935E1,0E0,0E0,0E0,0E0,0E0,5.868091E1,2.3179219E2,3.8462402E1,0E0,0E0,9.91436E0,0E0,0E0,0E0,0E0,0E0,0E0,0E0,0E0,0E0,0E0,0E0,0E0,0E0,0E0,0E0,0E0,0E0,0E0,0E0,0E0,0E0,0E0,0E0,0E0,0E0,0E0,0E0,0E0,0E0,0E0,0E0,0E0,0E0,0E0,0E0,0E0,0E0,0E0],"parents":[2147483647,0,0,1,1,2,2,3,3,4,4,5,5,6,6,7,7,8,8,9,9,10,10,11,11,12,12,13,13,14,14,15,15,16,16,17,17,18,18,19,19,20,20,21,21,22,22,23,23,24,24,25,25,26,26,28,28,31,31,32,32,33,33,34,34,35,35,36,36,37,37,38,38,39,39,40,40,41,41,42,42,43,43,44,44,45,45,51,51,52,52,53,53,56,56],"right_children":[2,4,6,8,10,12,14,16,18,20,22,24,26,28,30,32,34,36,38,40,42,44,46,48,50,52,54,-1,56,-1,-1,58,60,62,64,66,68,70,72,74,76,78,80,82,84,86,-1,-1,-1,-1,-1,88,90,92,-1,-1,94,-1,-1,-1,-1,-1,-1,-1,-1,-1,-1,-1,-1,-1,-1,-1,-1,-1,-1,-1,-1,-1,-1,-1,-1,-1,-1,-1,-1,-1,-1,-1,-1,-1,-1,-1,-1,-1,-1],"split_conditions":[1.5E0,1.1278225E2,1.485E2,5E-1,2.05E1,1.495E2,5E-1,1.5E0,1.5E0,5E-1,5E-1,1.5E0,1.5E0,3.0463585E6,1.4255E3,1.84E2,5E-1,8.5E0,5E-1,5.685E2,2.5E0,1.5E0,6.5E0,2.5E0,2.25E1,1.5E0,5.35E1,-1.258868E-1,1.5E0,1.16458945E-1,-1.3833596E-1,1.05625E2,1.5094E4,4.1775E3,3.214505E1,1.5E0,5E-1,1.5E0,1.5E0,1.30213E2,5E-1,2.5E0,3.0125E2,1.1495E2,6.358E3,1.26105E4,-1.5392514E-1,-1.6226354E-1,-2.1775599E-1,-1.8805182E-1,1.15938656E-1,5.35E1,1.5E0,4.1578125E1,-1.8528791E-1,-1.03604294E-1,3.8E1,-4.163824E-2,2.8882382E-2,9.884103E-2,-2.1336962E-2,1.0187916E-1,-4.0055558E-2,1.14554934E-1,-2.1734698E-1,1.3257707E-2,-4.9205907E-2,-1.9450951E-2,-9.308069E-2,-5.7871174E-2,5.2489974E-2,1.19370865E-2,-7.901916E-2,-2.1073222E-1,2.2136409E-2,-1.6306865E-1,-2.6707715E-1,5.3829063E-2,-1.8561177E-1,1.0771612E-1,-2.6137757E-1,1.510017E-1,-1.4609513E-1,1.4048894E-1,-8.603409E-2,-1.7699943E-1,1.3740472E-1,1.0573788E-1,-1.8576899E-1,6.7777145E-3,9.685632E-2,1.2131416E-1,-1.8446095E-1,-8.465688E-2,1.288031E-1],"split_indices":[25,220,29,26,26,6,31,14,15,98,184,130,89,0,4,6,17,33,18,220,15,119,19,14,14,9,13,0,27,0,0,2,4,4,220,9,105,14,9,220,120,192,218,220,4,4,0,0,0,0,0,13,111,214,0,0,30,0,0,0,0,0,0,0,0,0,0,0,0,0,0,0,0,0,0,0,0,0,0,0,0,0,0,0,0,0,0,0,0,0,0,0,0,0,0],"split_type":[0,0,0,0,0,0,0,0,0,0,0,0,0,0,0,0,0,0,0,0,0,0,0,0,0,0,0,0,0,0,0,0,0,0,0,0,0,0,0,0,0,0,0,0,0,0,0,0,0,0,0,0,0,0,0,0,0,0,0,0,0,0,0,0,0,0,0,0,0,0,0,0,0,0,0,0,0,0,0,0,0,0,0,0,0,0,0,0,0,0,0,0,0,0,0],"sum_hessian":[4.023268E4,3.4179227E4,6.0534526E3,2.8635137E4,5.5440903E3,5.9104067E3,1.4304622E2,4.0681094E3,2.4567027E4,4.9127056E3,6.313845E2,7.75887E1,5.832818E3,4.0552868E1,1.0249335E2,2.7577488E3,1.3103606E3,1.4939559E4,9.627469E3,4.085697E2,4.5041357E3,4.692851E2,1.6209943E2,5.0606014E1,2.6982687E1,3.2182842E3,2.6145337E3,1.0924307E1,2.962856E1,6.9989038E0,9.5494446E1,2.0074553E3,7.5029333E2,1.1989089E2,1.1904697E3,6.1121753E3,8.827384E3,5.2267817E3,4.400687E3,3.412508E2,6.731892E1,2.3459814E3,2.1581545E3,3.9696295E2,7.232213E1,1.4704257E2,1.5056859E1,2.6735556E1,2.387046E1,6.4691186E0,2.0513569E1,1.9343397E3,1.2839443E3,2.60957E3,4.9635E0,2.629433E0,2.6999126E1,8.6511597E2,1.1423395E3,6.622376E2,8.805573E1,4.211007E1,7.778082E1,1.1845588E3,5.910815E0,2.3279116E3,3.7842637E3,1.0658674E3,7.761516E3,1.1436891E3,4.0830928E3,6.5795715E2,3.7427297E3,2.1664434E1,3.1958636E2,3.4995316E1,3.23236E1,2.2998918E3,4.608959E1,2.1295444E3,2.8609974E1,3.548319E1,3.6147977E2,7.037755E1,1.944583E0,4.415897E0,1.4262666E2,1.9282794E3,6.060309E0,8.560988E2,4.2784558E2,2.6062932E3,3.2768638E0,1.6964228E0,2.5302704E1],"tree_param":{"num_deleted":"0","num_feature":"227","num_nodes":"95","size_leaf_vector":"0"}},{"base_weights":[1.3716052E-3,-1.4489058E-1,8.4935045E-1,-5.465249E-3,-7.605229E-1,3.4424543E-1,9.878066E-1,-2.771982E-1,4.2512065E-1,-2.6866788E-1,-9.095565E-1,5.4559344E-1,-1.1763654E0,1.1922768E0,6.9445693E-1,1.0019701E-1,-5.343047E-1,5.3562564E-1,-5.77906E-1,-5.9319234E-1,8.607332E-1,-7.8998446E-1,-1.230225E0,-1.315124E0,6.349017E-1,8.0684537E-1,-1.4916574E0,1.1958296E0,-2.3489945E0,3.6545658E-1,1.128348E0,-5.323004E-2,6.958243E-1,-5.897432E-1,9.312074E-1,-5.5041596E-2,6.680994E-1,-1.3205768E0,-1.9476261E-2,-1.0090295E0,-1.824146E-1,1.4845117E0,-7.085539E-1,-8.2788604E-1,6.177489E-1,-1.2562991E0,1.6949294E0,-1.7284926E0,1.1527095E0,6.8989736E-1,-2.0178044E0,-1.2692388E0,1.2214079E0,-4.9106815E-1,-1.8218488E0,1.2165037E0,7.1691924E-1,-1.2992991E0,4.5004448E-1,1.1447133E0,-2.068192E0,5.0201213E-1,-2.3395623E-1,-1.5068655E0,7.904612E-1,-6.6474897E-1,6.001213E-1,1.0421418E0,-1.6230491E0,6.9643945E-1,-3.8298228E-1,9.5397905E-2,8.123734E-1,-1.396815E0,1.909614E0,-8.386736E-1,7.2342086E-1,-5.860149E-1,-1.4719921E0,3.5178673E-1,-9.961342E-1,-1.3639609E0,1.6613249E0,1.1895157E0,-1.4309323E0,-8.7378764E-1,4.2240503E-1,2.029037E0,-1.4437956E0,3.156089E-1,-1.3012197E0,2.4372835E0,-1.1757268E0,-1.856478E0,7.444807E-1,-1.5777632E0,8.6389375E-1,-2.1607459E0,-1.4466088E0,1.2190069E0,-1.681053E0,-1.8077793E0,1.146668E0,7.275362E-1,-2.2679305E0,1.15598254E-1,8.858067E-1,1.159547E0,-1.7103479E0],"categories":[],"categories_nodes":[],"categories_segments":[],"categories_sizes":[],"default_left":[1,1,1,1,1,1,1,1,1,1,1,1,1,1,1,1,1,1,1,1,1,1,1,1,1,1,1,1,0,1,1,1,1,1,1,1,1,1,1,1,1,1,1,1,1,1,1,0,0,1,0,0,0,1,1,1,1,1,1,1,0,0,0,0,0,0,0,0,0,0,0,0,0,0,0,0,0,0,0,0,0,0,0,0,0,0,0,0,0,0,0,0,0,0,0,0,0,0,0,0,0,0,0,0,0,0,0,0,0],"id":9,"left_children":[1,3,5,7,9,11,13,15,17,19,21,23,25,27,29,31,33,35,37,39,41,43,45,47,49,51,53,55,-1,57,59,61,63,65,67,69,71,73,75,77,79,81,83,85,87,89,91,-1,-1,93,-1,-1,-1,95,97,99,101,103,105,107,-1,-1,-1,-1,-1,-1,-1,-1,-1,-1,-1,-1,-1,-1,-1,-1,-1,-1,-1,-1,-1,-1,-1,-1,-1,-1,-1,-1,-1,-1,-1,-1,-1,-1,-1,-1,-1,-1,-1,-1,-1,-1,-1,-1,-1,-1,-1,-1,-1],"loss_changes":[4.87752E3,2.878975E3,4.042505E2,3.2000066E3,4.5375806E2,3.8218658E2,2.714922E2,1.6270376E3,1.1731831E3,5.2890894E2,1.8126587E2,1.8382056E2,9.2515945E1,3.645117E1,2.6612335E2,6.210269E2,8.108491E2,7.45907E2,4.3568665E2,1.9121143E2,3.1644638E2,1.8537329E2,1.0045068E2,5.3770325E1,1.5477658E2,1.934934E1,4.0850067E1,2.5582275E1,0E0,1.5033218E2,4.446521E1,5.424272E2,2.9134766E2,8.581052E2,1.0480951E2,4.3083356E2,6.432483E2,1.13707275E2,3.6617807E2,1.0813928E2,2.459009E2,1.1854654E2,1.2828445E2,1.9402246E2,2.6888315E2,9.0671875E1,2.8043781E1,0E0,0E0,1.4465005E2,0E0,0E0,0E0,4.953966E1,8.908447E0,2.0615967E1,1.2468207E2,1.0310614E2,1.4749223E2,3.5918457E1,0E0,0E0,0E0,0E0,0E0,0E0,0E0,0E0,0E0,0E0,0E0,0E0,0E0,0E0,0E0,0E0,0E0,0E0,0E0,0E0,0E0,0E0,0E0,0E0,0E0,0E0,0E0,0E0,0E0,0E0,0E0,0E0,0E0,0E0,0E0,0E0,0E0,0E0,0E0,0E0,0E0,0E0,0E0,0E0,0E0,0E0,0E0,0E0,0E0],"parents":[2147483647,0,0,1,1,2,2,3,3,4,4,5,5,6,6,7,7,8,8,9,9,10,10,11,11,12,12,13,13,14,14,15,15,16,16,17,17,18,18,19,19,20,20,21,21,22,22,23,23,24,24,25,25,26,26,27,27,29,29,30,30,31,31,32,32,33,33,34,34,35,35,36,36,37,37,38,38,39,39,40,40,41,41,42,42,43,43,44,44,45,45,46,46,49,49,53,53,54,54,55,55,56,56,57,57,58,58,59,59],"right_children":[2,4,6,8,10,12,14,16,18,20,22,24,26,28,30,32,34,36,38,40,42,44,46,48,50,52,54,56,-1,58,60,62,64,66,68,70,72,74,76,78,80,82,84,86,88,90,92,-1,-1,94,-1,-1,-1,96,98,100,102,104,106,108,-1,-1,-1,-1,-1,-1,-1,-1,-1,-1,-1,-1,-1,-1,-1,-1,-1,-1,-1,-1,-1,-1,-1,-1,-1,-1,-1,-1,-1,-1,-1,-1,-1,-1,-1,-1,-1,-1,-1,-1,-1,-1,-1,-1,-1,-1,-1,-1,-1],"split_conditions":[1.5E0,5E-1,3.5E0,1.5E0,9.5E0,1.295E2,8.5E0,2.75E1,2.085E2,2.5E0,1.7E1,1.81E2,5E-1,4.5E0,1.5E0,3.109375E1,1.5E0,1.5E0,9.796875E1,2.09875E2,5.5E0,1.5E0,1.5695349E3,2.5E0,1.6099E4,5E-1,5E-1,1.5E0,-2.3489945E-1,1.85E1,2.45E1,5E-1,5E-1,2.5E0,2.4E1,3.00304E6,5E-1,3.0812115E6,3.005E2,3.215E2,5E-1,3.4515625E1,1.5E0,1.5E0,5.3953125E1,2.5E0,1.650095E3,-1.7284927E-1,1.1527095E-1,1.05625E1,-2.0178044E-1,-1.2692389E-1,1.2214079E-1,3.0672005E6,9.55E1,3.5E0,5.5E0,-1.75E1,5.5E0,5.495E2,-2.068192E-1,5.0201215E-2,-2.3395624E-2,-1.5068655E-1,7.904612E-2,-6.64749E-2,6.0012132E-2,1.04214184E-1,-1.6230492E-1,6.9643945E-2,-3.829823E-2,9.53979E-3,8.123734E-2,-1.396815E-1,1.909614E-1,-8.386736E-2,7.234209E-2,-5.8601495E-2,-1.4719921E-1,3.5178673E-2,-9.961342E-2,-1.363961E-1,1.661325E-1,1.18951574E-1,-1.4309323E-1,-8.737876E-2,4.2240504E-2,2.029037E-1,-1.4437956E-1,3.156089E-2,-1.3012198E-1,2.4372835E-1,-1.1757268E-1,-1.856478E-1,7.444807E-2,-1.5777633E-1,8.638938E-2,-2.1607459E-1,-1.4466088E-1,1.2190069E-1,-1.681053E-1,-1.8077794E-1,1.146668E-1,7.275362E-2,-2.2679305E-1,1.1559825E-2,8.858067E-2,1.159547E-1,-1.710348E-1],"split_indices":[25,114,14,15,34,31,26,35,29,19,13,6,136,60,89,215,39,14,2,2,19,81,222,67,4,205,39,66,0,14,13,26,64,197,31,0,57,0,33,5,41,2,9,134,2,29,209,0,0,2,0,0,0,0,28,70,21,225,31,5,0,0,0,0,0,0,0,0,0,0,0,0,0,0,0,0,0,0,0,0,0,0,0,0,0,0,0,0,0,0,0,0,0,0,0,0,0,0,0,0,0,0,0,0,0,0,0,0,0],"split_type":[0,0,0,0,0,0,0,0,0,0,0,0,0,0,0,0,0,0,0,0,0,0,0,0,0,0,0,0,0,0,0,0,0,0,0,0,0,0,0,0,0,0,0,0,0,0,0,0,0,0,0,0,0,0,0,0,0,0,0,0,0,0,0,0,0,0,0,0,0,0,0,0,0,0,0,0,0,0,0,0,0,0,0,0,0,0,0,0,0,0,0,0,0,0,0,0,0,0,0,0,0,0,0,0,0,0,0,0,0],"sum_hessian":[3.932421E4,3.3539957E4,5.784253E3,2.7347453E4,6.192505E3,1.245178E3,4.539075E3,1.6766717E4,1.0580736E4,1.4406699E3,4.751835E3,1.100146E3,1.4503198E2,2.672929E3,1.866146E3,6.7942896E3,9.972428E3,9.531142E3,1.0495944E3,1.119473E3,3.2119693E2,3.46373E3,1.288105E3,4.9756416E1,1.0503896E3,1.9680578E1,1.25351395E2,2.6709116E3,2.0173235E0,1.0624098E3,8.0373615E2,5.4033555E3,1.3909343E3,9.609509E3,3.629185E2,1.7461381E3,7.785004E3,4.49898E2,5.996963E2,5.5558673E2,5.638862E2,2.2987683E2,9.132009E1,3.373319E3,9.0410805E1,1.27729E3,1.0814964E1,4.2874428E1,6.8819876E0,1.0297802E3,2.0609388E1,2.9326332E0,1.6747946E1,3.1719133E1,9.363226E1,2.5589065E3,1.1200527E2,5.0677475E1,1.01173236E3,8.002808E2,3.4553049E0,1.3264247E3,4.0769307E3,5.6683876E1,1.3342504E3,9.040088E3,5.69421E2,3.4837994E2,1.4538551E1,5.3015533E2,1.2159827E3,1.566878E3,6.218126E3,4.4007895E2,9.819065E0,2.851408E2,3.1455548E2,2.9150284E2,2.6408392E2,3.4075235E2,2.231339E2,1.30427685E1,2.1683406E2,2.4995928E1,6.6324165E1,3.2541514E3,1.1916762E2,5.3679066E1,3.6731743E1,3.5319668E1,1.2419703E3,8.712794E0,2.10217E0,2.0918056E1,1.0088621E3,1.751082E1,1.4208313E1,4.6698406E1,4.6933857E1,2.5572766E3,1.6299021E0,1.5825667E1,9.617961E1,1.6467848E1,3.4209625E1,5.731255E2,4.3860687E2,7.9673517E2,3.545642E0],"tree_param":{"num_deleted":"0","num_feature":"227","num_nodes":"109","size_leaf_vector":"0"}},{"base_weights":[1.2796943E-3,-1.3305423E-1,8.046611E-1,-5.0099883E-3,-7.0754766E-1,3.1717685E-1,9.4242394E-1,-1.8164773E-1,5.670338E-1,-2.4711776E-1,-8.501496E-1,5.0309765E-1,-1.0950165E0,1.152187E0,6.5048194E-1,-3.694174E-1,2.0387286E-1,7.004888E-1,-7.027299E-1,-5.471623E-1,7.605012E-1,-7.3450446E-1,-1.1661153E0,6.682532E-1,-3.6941922E-1,7.5793165E-1,-1.385387E0,1.1558386E0,-2.0649264E0,3.3525786E-1,1.0860579E0,-5.0704914E-1,3.0193394E-1,-4.8408583E-1,3.9845496E-1,7.755763E-1,-8.778868E-1,-1.2462232E0,-9.257019E-2,-1.1076157E0,-2.6257944E-1,1.2151964E0,-9.062713E-1,-1.0808734E0,-5.880241E-1,-1.1917374E0,1.4809861E0,7.331905E-1,-2.0115492E0,5.085559E-1,-1.0901273E0,-1.2079163E0,1.1555502E0,-4.550186E-1,-1.6954472E0,1.1769614E0,6.782393E-1,1.8614963E-1,1.2575642E0,1.1024419E0,-1.8809339E0,-7.250007E-1,2.9292915E-2,8.867648E-1,1.07892E-2,-9.544097E-1,6.2341535E-1,5.535004E-1,-5.4061204E-1,1.0819427E0,4.057198E-1,-1.07474715E-1,-1.8459179E0,-1.437663E0,1.7160099E0,3.1851158E-1,-1.6207682E0,-4.4297814E-1,-1.4094114E0,-7.394467E-1,3.0266201E-1,1.3893508E0,-1.4183011E0,-1.383413E0,1.587778E0,-1.1396681E0,1.2553039E0,1.7433847E-1,-7.2094685E-1,2.8382537E-1,-1.2362806E0,2.1147978E0,-1.1153771E0,-1.5375519E0,7.939039E-1,7.2780126E-1,-2.2651644E0,-1.369494E0,1.4550035E0,7.5881517E-1,-1.5200756E0,-1.8995464E0,-1.308456E0,1.1796821E0,-1.4461489E0,-1.5050944E0,1.1084921E0,-1.7451566E-2,9.3162245E-1,-2.3816872E0,1.3583103E0,1.1144384E0,-2.283685E0],"categories":[],"categories_nodes":[],"categories_segments":[],"categories_sizes":[],"default_left":[1,1,1,1,1,1,1,1,1,1,1,1,1,1,1,1,1,1,1,1,1,1,1,1,1,1,1,1,0,1,1,1,1,1,1,1,1,1,1,1,1,1,1,1,1,1,1,1,0,1,1,0,0,1,1,1,1,1,1,1,0,0,0,0,0,0,0,0,0,0,0,0,0,0,0,0,0,0,0,0,0,0,0,0,0,0,0,0,0,0,0,0,0,0,0,0,0,0,0,0,0,0,0,0,0,0,0,0,0,0,0,0,0],"id":10,"left_children":[1,3,5,7,9,11,13,15,17,19,21,23,25,27,29,31,33,35,37,39,41,43,45,47,49,51,53,55,-1,57,59,61,63,65,67,69,71,73,75,77,79,81,83,85,87,89,91,93,-1,95,97,-1,-1,99,101,103,105,107,109,111,-1,-1,-1,-1,-1,-1,-1,-1,-1,-1,-1,-1,-1,-1,-1,-1,-1,-1,-1,-1,-1,-1,-1,-1,-1,-1,-1,-1,-1,-1,-1,-1,-1,-1,-1,-1,-1,-1,-1,-1,-1,-1,-1,-1,-1,-1,-1,-1,-1,-1,-1,-1,-1],"loss_changes":[4.1528584E3,2.42513E3,3.6991016E2,2.7242783E3,3.943103E2,3.198484E2,2.6242163E2,1.491301E3,1.0784032E3,4.3042603E2,1.6676611E2,1.5520111E2,7.734123E1,3.1749023E1,2.4665497E2,1.2801913E3,9.034844E2,6.829226E2,2.0066925E2,1.746034E2,2.4875185E2,1.6988635E2,8.501465E1,1.5887952E2,1.0925756E2,1.6916601E1,3.469252E1,2.4394287E1,0E0,1.4350174E2,3.877014E1,1.3439648E3,4.0140063E2,7.757773E2,7.662328E2,6.22281E2,1.9511166E2,1.8402002E2,1.8038728E2,7.338608E1,1.966072E2,1.1991342E2,8.62231E1,1.3847229E2,2.397055E2,8.0288574E1,2.2456072E1,1.2307358E2,0E0,4.9159966E1,6.9300644E1,0E0,0E0,4.2648132E1,4.7685547E0,1.8762451E1,1.03240585E2,1.3675272E2,5.6501556E1,3.30672E1,0E0,0E0,0E0,0E0,0E0,0E0,0E0,0E0,0E0,0E0,0E0,0E0,0E0,0E0,0E0,0E0,0E0,0E0,0E0,0E0,0E0,0E0,0E0,0E0,0E0,0E0,0E0,0E0,0E0,0E0,0E0,0E0,0E0,0E0,0E0,0E0,0E0,0E0,0E0,0E0,0E0,0E0,0E0,0E0,0E0,0E0,0E0,0E0,0E0,0E0,0E0,0E0,0E0],"parents":[2147483647,0,0,1,1,2,2,3,3,4,4,5,5,6,6,7,7,8,8,9,9,10,10,11,11,12,12,13,13,14,14,15,15,16,16,17,17,18,18,19,19,20,20,21,21,22,22,23,23,24,24,25,25,26,26,27,27,29,29,30,30,31,31,32,32,33,33,34,34,35,35,36,36,37,37,38,38,39,39,40,40,41,41,42,42,43,43,44,44,45,45,46,46,47,47,49,49,50,50,53,53,54,54,55,55,56,56,57,57,58,58,59,59],"right_children":[2,4,6,8,10,12,14,16,18,20,22,24,26,28,30,32,34,36,38,40,42,44,46,48,50,52,54,56,-1,58,60,62,64,66,68,70,72,74,76,78,80,82,84,86,88,90,92,94,-1,96,98,-1,-1,100,102,104,106,108,110,112,-1,-1,-1,-1,-1,-1,-1,-1,-1,-1,-1,-1,-1,-1,-1,-1,-1,-1,-1,-1,-1,-1,-1,-1,-1,-1,-1,-1,-1,-1,-1,-1,-1,-1,-1,-1,-1,-1,-1,-1,-1,-1,-1,-1,-1,-1,-1,-1,-1,-1,-1,-1,-1],"split_conditions":[1.5E0,5E-1,3.5E0,2.5E0,9.5E0,1.295E2,8.5E0,1.308125E2,2.005E2,2.5E0,1.7E1,1.505E4,5E-1,4.5E0,1.5E0,1.5E0,1.35E1,5E-1,5E-1,1.0778125E2,6.5E0,2.5E0,1.5695349E3,8.5E0,5E-1,5E-1,5E-1,1.5E0,-2.0649265E-1,1.5E0,2.45E1,5E-1,5E-1,1.5E0,5.25E1,6.5E0,3.17523E1,1.7275E3,1.735E2,5E-1,1.45E1,1.745E2,3.065E2,1.549E3,2.9964795E6,2.5E0,1.650095E3,1.495E2,-2.0115493E-1,2.5E0,1.65E1,-1.2079163E-1,1.15555026E-1,2.5E0,1.445E2,5.35E1,5.5E0,1.5E0,5E-1,3.5E0,-1.880934E-1,-7.250007E-2,2.9292915E-3,8.867648E-2,1.07892E-3,-9.544098E-2,6.2341537E-2,5.5350043E-2,-5.4061204E-2,1.0819427E-1,4.057198E-2,-1.0747472E-2,-1.845918E-1,-1.437663E-1,1.7160098E-1,3.1851158E-2,-1.6207682E-1,-4.4297814E-2,-1.4094114E-1,-7.394467E-2,3.0266201E-2,1.3893507E-1,-1.4183012E-1,-1.383413E-1,1.587778E-1,-1.13966815E-1,1.2553039E-1,1.7433848E-2,-7.209469E-2,2.8382538E-2,-1.2362806E-1,2.1147978E-1,-1.1153771E-1,-1.5375519E-1,7.939039E-2,7.2780125E-2,-2.2651644E-1,-1.369494E-1,1.4550035E-1,7.588152E-2,-1.5200756E-1,-1.8995464E-1,-1.3084559E-1,1.1796822E-1,-1.4461489E-1,-1.5050945E-1,1.1084922E-1,-1.7451566E-3,9.3162246E-2,-2.3816872E-1,1.3583104E-1,1.1144384E-1,-2.283685E-1],"split_indices":[25,114,14,15,34,31,26,2,29,19,13,4,136,60,89,39,13,116,41,2,22,7,222,15,83,205,39,66,0,168,13,40,26,15,35,26,210,12,211,93,12,28,2,2,0,29,209,6,0,14,15,0,0,15,29,13,21,111,146,185,0,0,0,0,0,0,0,0,0,0,0,0,0,0,0,0,0,0,0,0,0,0,0,0,0,0,0,0,0,0,0,0,0,0,0,0,0,0,0,0,0,0,0,0,0,0,0,0,0,0,0,0,0],"split_type":[0,0,0,0,0,0,0,0,0,0,0,0,0,0,0,0,0,0,0,0,0,0,0,0,0,0,0,0,0,0,0,0,0,0,0,0,0,0,0,0,0,0,0,0,0,0,0,0,0,0,0,0,0,0,0,0,0,0,0,0,0,0,0,0,0,0,0,0,0,0,0,0,0,0,0,0,0,0,0,0,0,0,0,0,0,0,0,0,0,0,0,0,0,0,0,0,0,0,0,0,0,0,0,0,0,0,0,0,0,0,0,0,0],"sum_hessian":[3.8478418E4,3.2966844E4,5.5115728E3,2.6959146E4,6.007699E3,1.2151113E3,4.2964614E3,2.0599148E4,6.3599966E3,1.421317E3,4.5863823E3,1.074317E3,1.4079431E2,2.4983945E3,1.7980668E3,1.3852342E4,6.7468076E3,5.7555264E3,6.044702E2,1.0955466E3,3.2577032E2,3.359948E3,1.2264341E3,9.03526E2,1.7079105E2,1.8856247E1,1.2193806E2,2.496202E3,2.1926482E0,1.0441733E3,7.5389343E2,1.1495855E4,2.3564863E3,1.4872043E3,5.259603E3,5.4946406E3,2.6088596E2,3.1914905E2,2.8532114E2,3.679733E2,7.2757336E2,2.5616068E2,6.960965E1,9.967189E2,2.3632292E3,1.2152214E3,1.1212691E1,8.828589E2,2.0667122E1,7.7127625E1,9.366342E1,2.8294446E0,1.6026802E1,3.1096695E1,9.084136E1,2.3890757E3,1.0712622E2,8.9989087E2,1.442825E2,7.503782E2,3.5152466E0,8.1739014E3,3.3219536E3,7.825366E2,1.5739497E3,1.04399E3,4.4321432E2,4.514623E3,7.4498E2,3.0042117E3,2.490429E3,1.4588986E2,1.1499609E2,3.0025894E2,1.8890114E1,2.2546355E2,5.98576E1,1.1568057E2,2.5229274E2,3.944698E2,3.3310355E2,2.4071454E2,1.5446123E1,5.8804882E1,1.08047695E1,9.7274976E2,2.3969105E1,3.5082166E2,2.0124076E3,3.5451862E1,1.1797695E3,9.161666E0,2.0510256E0,2.2357098E1,8.605018E2,7.216133E1,4.966296E0,8.4815544E1,8.847875E0,1.466766E1,1.6429035E1,5.6915585E1,3.392578E1,2.3871501E3,1.9256204E0,1.722404E1,8.990218E1,7.0760785E2,1.9228305E2,3.2767322E0,1.4100577E2,7.483976E2,1.9805655E0],"tree_param":{"num_deleted":"0","num_feature":"227","num_nodes":"113","size_leaf_vector":"0"}},{"base_weights":[1.1909108E-3,-1.2178348E-1,7.713819E-1,-4.3214536E-3,-6.591875E-1,8.244894E-1,-6.196372E-1,-2.3053892E-1,3.6297965E-1,-2.1041287E-1,-7.9118216E-1,9.7232157E-1,4.4496465E-1,-7.108454E-2,-1.3241434E0,-3.3934414E-1,5.0013274E-1,7.469843E-1,1.1602407E-1,-4.6426004E-1,6.7351145E-1,-8.162352E-1,1.1524326E0,6.572416E-1,1.1081187E0,-1.7987822E0,5.070876E-1,4.4181544E-1,-9.265661E-1,2.3509549E-1,-4.895718E-1,-2.2976357E-1,7.438156E-1,5.3525466E-1,1.2762568E0,-6.0844064E-1,2.644467E-1,-1.2890089E0,-2.757674E-1,1.4344525E0,-2.4526663E-1,-6.7435724E-1,-1.142575E0,2.6510866E0,-1.3176776E0,7.742851E-1,-1.7217971E0,1.1155168E0,-2.2040367E0,6.04825E-1,-9.452367E-1,-1.2692854E0,7.468856E-1,-1.2727237E0,1.0445349E0,-5.3621024E-1,3.682291E-1,-1.9065037E-1,-7.3398316E-1,-8.421134E-1,1.0972513E0,9.9424887E-1,-3.3025903E-1,-5.9620726E-1,6.613853E-1,1.3120737E0,-1.9802442E0,7.9618275E-1,-8.6739457E-1,5.897859E-1,-6.8089336E-2,-1.4853165E0,-6.9318795E-1,-8.579853E-1,1.3982666E-1,1.6127782E0,-1.4257108E0,1.2141634E0,-7.553361E-1,-9.7382784E-1,-3.457006E-1,-1.194959E0,1.3207047E0,2.8861954E0,-9.2340904E-1,9.182942E-1,-4.8757547E-1,7.620249E-1,-2.1177835E0,1.1196754E0,-1.6922332E0,-1.90242E0,6.494254E-1,1.2069393E0,-2.082326E0,9.149136E-1,-1.1661195E0],"categories":[],"categories_nodes":[],"categories_segments":[],"categories_sizes":[],"default_left":[1,1,1,1,1,1,1,1,1,1,1,1,1,1,0,1,1,1,1,1,1,1,1,1,1,0,1,1,1,1,1,1,1,1,1,1,1,1,1,1,1,1,1,1,0,1,1,1,0,1,1,0,1,0,0,0,0,0,0,0,0,0,0,0,0,0,0,0,0,0,0,0,0,0,0,0,0,0,0,0,0,0,0,0,0,0,0,0,0,0,0,0,0,0,0,0,0],"id":11,"left_children":[1,3,5,7,9,11,13,15,17,19,21,23,25,27,-1,29,31,33,35,37,39,41,43,45,47,-1,49,51,53,55,57,59,61,63,65,67,69,71,73,75,77,79,81,83,-1,85,87,89,-1,91,93,-1,95,-1,-1,-1,-1,-1,-1,-1,-1,-1,-1,-1,-1,-1,-1,-1,-1,-1,-1,-1,-1,-1,-1,-1,-1,-1,-1,-1,-1,-1,-1,-1,-1,-1,-1,-1,-1,-1,-1,-1,-1,-1,-1,-1,-1],"loss_changes":[3.5647312E3,2.0486987E3,3.833225E2,2.2131455E3,3.44667E2,2.7964014E2,7.377269E1,1.3106218E3,9.626531E2,2.9748743E2,2.1996167E2,1.52948E2,1.9622159E2,4.802534E1,0E0,1.2382703E3,3.8023645E2,4.4457446E2,6.646512E2,1.596926E2,2.0722426E2,2.0486328E2,2.16923E2,3.032322E2,6.3924805E1,0E0,1.9421817E2,3.671654E1,2.930318E1,3.0569308E2,8.308147E2,4.3615646E2,4.3130396E2,4.056551E2,1.349336E2,3.8300516E2,5.550037E2,2.133963E1,2.0319511E2,8.492435E1,1.0133845E2,3.045725E2,1.750481E2,3.3100723E1,0E0,1.883565E2,5.1922638E1,3.112622E1,0E0,1.442374E2,2.1397653E2,0E0,1.9961952E1,0E0,0E0,0E0,0E0,0E0,0E0,0E0,0E0,0E0,0E0,0E0,0E0,0E0,0E0,0E0,0E0,0E0,0E0,0E0,0E0,0E0,0E0,0E0,0E0,0E0,0E0,0E0,0E0,0E0,0E0,0E0,0E0,0E0,0E0,0E0,0E0,0E0,0E0,0E0,0E0,0E0,0E0,0E0,0E0],"parents":[2147483647,0,0,1,1,2,2,3,3,4,4,5,5,6,6,7,7,8,8,9,9,10,10,11,11,12,12,13,13,15,15,16,16,17,17,18,18,19,19,20,20,21,21,22,22,23,23,24,24,26,26,27,27,28,28,29,29,30,30,31,31,32,32,33,33,34,34,35,35,36,36,37,37,38,38,39,39,40,40,41,41,42,42,43,43,45,45,46,46,47,47,49,49,50,50,52,52],"right_children":[2,4,6,8,10,12,14,16,18,20,22,24,26,28,-1,30,32,34,36,38,40,42,44,46,48,-1,50,52,54,56,58,60,62,64,66,68,70,72,74,76,78,80,82,84,-1,86,88,90,-1,92,94,-1,96,-1,-1,-1,-1,-1,-1,-1,-1,-1,-1,-1,-1,-1,-1,-1,-1,-1,-1,-1,-1,-1,-1,-1,-1,-1,-1,-1,-1,-1,-1,-1,-1,-1,-1,-1,-1,-1,-1,-1,-1,-1,-1,-1,-1],"split_conditions":[2.5E0,5E-1,1.485E2,1.5E0,5E-1,2.755E2,2.6585E0,8.875E1,1.5E0,2.5E0,3.225E2,4.5E0,4.385E2,3.125E2,-1.3241434E-1,5E-1,2.235E2,3.5E0,1.5E0,6.0175E3,3.5E0,1.845E2,5E-1,1.415E2,6.5E0,-1.7987822E-1,3.043044E6,3.023072E6,4.885E2,1.5E1,5.5E0,1.60725E4,1.0264E4,5E-1,5.35E1,2.994468E6,2.5E0,5.25E1,1.5975E2,3.0581565E6,5E-1,7.55E1,1.5E0,2.95E1,-1.3176776E-1,2.5E0,5E-1,5.5E0,-2.2040367E-1,1.495E2,-5.75E1,-1.2692855E-1,2.25E2,-1.2727237E-1,1.044535E-1,-5.3621024E-2,3.682291E-2,-1.9065037E-2,-7.3398314E-2,-8.421134E-2,1.0972513E-1,9.942489E-2,-3.30259E-2,-5.9620727E-2,6.613853E-2,1.3120738E-1,-1.9802442E-1,7.9618275E-2,-8.673946E-2,5.8978587E-2,-6.808934E-3,-1.4853166E-1,-6.931879E-2,-8.579853E-2,1.3982666E-2,1.6127782E-1,-1.4257108E-1,1.21416345E-1,-7.553361E-2,-9.7382784E-2,-3.457006E-2,-1.19495906E-1,1.3207047E-1,2.8861955E-1,-9.234091E-2,9.182942E-2,-4.875755E-2,7.620249E-2,-2.1177836E-1,1.1196754E-1,-1.6922332E-1,-1.90242E-1,6.494254E-2,1.2069394E-1,-2.082326E-1,9.1491364E-2,-1.1661195E-1],"split_indices":[21,114,29,14,34,26,210,217,27,19,32,24,26,28,0,27,8,14,15,4,19,31,63,31,60,0,0,0,30,13,33,4,4,226,28,0,30,13,2,0,32,28,153,28,0,27,83,185,0,6,225,0,8,0,0,0,0,0,0,0,0,0,0,0,0,0,0,0,0,0,0,0,0,0,0,0,0,0,0,0,0,0,0,0,0,0,0,0,0,0,0,0,0,0,0,0,0],"split_type":[0,0,0,0,0,0,0,0,0,0,0,0,0,0,0,0,0,0,0,0,0,0,0,0,0,0,0,0,0,0,0,0,0,0,0,0,0,0,0,0,0,0,0,0,0,0,0,0,0,0,0,0,0,0,0,0,0,0,0,0,0,0,0,0,0,0,0,0,0,0,0,0,0,0,0,0,0,0,0,0,0,0,0,0,0,0,0,0,0,0,0,0,0,0,0,0,0],"sum_hessian":[3.763489E4,3.2453902E4,5.180988E3,2.6633537E4,5.820365E3,4.9908506E3,1.9013763E2,1.648249E4,1.0151047E4,1.3234163E3,4.4969487E3,3.5906587E3,1.4001917E3,1.07519875E2,8.261775E1,1.4346649E4,2.1358416E3,3.9722908E3,6.178756E3,1.0285189E3,2.9489734E2,4.440294E3,5.665502E1,1.0832092E3,2.5074495E3,3.696971E1,1.3632219E3,6.7521324E1,3.9998547E1,2.9740256E3,1.1372624E4,5.346066E2,1.601235E3,2.838708E3,1.1335828E3,1.0500864E3,5.1286694E3,1.9024855E2,8.382703E2,1.6099689E2,1.3390045E2,3.0969463E3,1.3433475E3,3.521579E1,2.143923E1,1.0330596E3,5.0149723E1,2.502523E3,4.9264784E0,1.2778123E3,8.540972E1,9.738522E0,5.7782803E1,3.4324852E1,5.673696E0,4.373314E2,2.536694E3,5.116631E3,6.255993E3,3.6605588E2,1.6855075E2,1.2985394E3,3.026956E2,2.8433542E2,2.5543726E3,1.1218412E3,1.1741575E1,1.6313443E2,8.8695197E2,2.591996E3,2.536673E3,1.4197768E2,4.8270878E1,3.4870074E2,4.895696E2,1.5195868E2,9.038209E0,3.4320618E1,9.9579834E1,1.619396E3,1.4775504E3,1.315879E3,2.7468544E1,3.322313E1,1.9926596E0,9.274833E2,1.05576256E2,6.7687054E0,4.338102E1,2.4994224E3,3.1006727E0,2.1605165E1,1.256207E3,2.9504652E1,5.590507E1,5.359688E1,4.1859207E0],"tree_param":{"num_deleted":"0","num_feature":"227","num_nodes":"97","size_leaf_vector":"0"}},{"base_weights":[1.1571548E-3,-1.1194277E-1,7.321923E-1,-3.880461E-3,-6.142301E-1,7.8267974E-1,-5.914663E-1,-2.1093023E-1,3.3281952E-1,-6.698516E-1,4.028695E-1,9.3155664E-1,4.1226146E-1,-6.95474E-2,-1.2840171E0,-3.2219294E-1,3.9811003E-1,6.926117E-1,1.05492085E-1,-5.648136E-1,-9.6983665E-1,-3.23905E-1,1.4637194E0,6.1301434E-1,1.0740478E0,1.9464207E-1,1.0044638E0,4.0188536E-1,-8.968548E-1,2.1377587E-1,-4.6908873E-1,-3.8459536E-2,6.6337186E-1,3.9833188E-1,1.0699766E0,-7.851598E-2,6.1978585E-1,-5.871848E-1,2.3031816E0,-1.0539086E0,6.449748E-1,3.9371666E-1,-1.42943E0,1.6863451E0,-1.2476496E0,7.2273964E-1,-1.5791874E0,1.0815363E0,-1.9472116E0,-7.950857E-2,1.0228835E0,1.0556167E0,-2.7828393E0,-1.2226257E0,6.788755E-1,-1.2350426E0,1.0146885E0,2.2028899E-2,7.2816443E-1,-2.0220698E-1,-6.836829E-1,-1.2146012E0,1.9903097E-1,9.2278886E-1,-3.502165E-1,-8.5382897E-1,5.402459E-1,1.1136488E0,-1.7358445E0,-2.265088E-1,6.551886E-1,7.6591057E-1,-1.7130709E0,-9.164933E-1,-3.8275412E-1,3.3254306E0,-1.184096E0,-1.1039666E0,1.1069503E0,2.18888E0,-1.3144612E0,9.114672E-1,-1.494329E0,-1.2943683E0,1.8958206E0,8.6187905E-1,-4.3287387E-1,7.2063166E-1,-1.937683E0,1.0926749E0,-1.4527108E-1,1.4439529E-2,-3.0950873E0,1.0817952E0,-2.6662302E0,1.0871369E0,-2.123569E0,1.1698867E0,-2.283967E-2],"categories":[],"categories_nodes":[],"categories_segments":[],"categories_sizes":[],"default_left":[1,1,1,1,1,1,1,1,1,1,1,1,1,1,0,1,1,1,1,1,1,1,1,1,1,1,1,1,1,1,1,1,1,1,1,1,1,1,1,1,1,1,0,1,0,1,1,1,0,1,1,1,0,0,1,0,0,0,0,0,0,0,0,0,0,0,0,0,0,0,0,0,0,0,0,0,0,0,0,0,0,0,0,0,0,0,0,0,0,0,0,0,0,0,0,0,0,0,0],"id":12,"left_children":[1,3,5,7,9,11,13,15,17,19,21,23,25,27,-1,29,31,33,35,37,39,41,43,45,47,49,51,53,55,57,59,61,63,65,67,69,71,73,75,77,79,81,-1,83,-1,85,87,89,-1,91,93,95,-1,-1,97,-1,-1,-1,-1,-1,-1,-1,-1,-1,-1,-1,-1,-1,-1,-1,-1,-1,-1,-1,-1,-1,-1,-1,-1,-1,-1,-1,-1,-1,-1,-1,-1,-1,-1,-1,-1,-1,-1,-1,-1,-1,-1,-1,-1],"loss_changes":[3.0411133E3,1.7289575E3,3.2980127E2,1.8276086E3,3.1932056E2,2.614248E2,6.55633E1,1.1001587E3,8.164055E2,1.6795483E2,2.2641208E2,1.5301416E2,1.7544217E2,4.1169758E1,0E0,1.0808031E3,2.904606E2,4.2878235E2,5.7907477E2,2.5563098E2,1.8876843E2,1.3918008E2,7.412889E1,2.5340207E2,5.5000732E1,2.266589E2,7.384195E1,3.1132671E1,2.6006662E1,2.912924E2,6.1689966E2,2.6527573E2,4.1054333E2,3.8662546E2,2.0936743E2,4.8955023E2,5.509616E2,2.6444177E2,1.1401257E2,1.4370886E2,2.1216362E2,1.056983E2,0E0,7.156909E1,0E0,1.6107172E2,4.287021E1,3.203589E1,0E0,2.127055E2,5.6832153E1,3.8568115E1,0E0,0E0,2.007138E1,0E0,0E0,0E0,0E0,0E0,0E0,0E0,0E0,0E0,0E0,0E0,0E0,0E0,0E0,0E0,0E0,0E0,0E0,0E0,0E0,0E0,0E0,0E0,0E0,0E0,0E0,0E0,0E0,0E0,0E0,0E0,0E0,0E0,0E0,0E0,0E0,0E0,0E0,0E0,0E0,0E0,0E0,0E0,0E0],"parents":[2147483647,0,0,1,1,2,2,3,3,4,4,5,5,6,6,7,7,8,8,9,9,10,10,11,11,12,12,13,13,15,15,16,16,17,17,18,18,19,19,20,20,21,21,22,22,23,23,24,24,25,25,26,26,27,27,28,28,29,29,30,30,31,31,32,32,33,33,34,34,35,35,36,36,37,37,38,38,39,39,40,40,41,41,43,43,45,45,46,46,47,47,49,49,50,50,51,51,54,54],"right_children":[2,4,6,8,10,12,14,16,18,20,22,24,26,28,-1,30,32,34,36,38,40,42,44,46,48,50,52,54,56,58,60,62,64,66,68,70,72,74,76,78,80,82,-1,84,-1,86,88,90,-1,92,94,96,-1,-1,98,-1,-1,-1,-1,-1,-1,-1,-1,-1,-1,-1,-1,-1,-1,-1,-1,-1,-1,-1,-1,-1,-1,-1,-1,-1,-1,-1,-1,-1,-1,-1,-1,-1,-1,-1,-1,-1,-1,-1,-1,-1,-1,-1,-1],"split_conditions":[2.5E0,5E-1,1.485E2,1.5E0,5.82E2,2.755E2,2.6585E0,5.490625E1,1.5E0,1.845E2,1.45E1,4.5E0,1.5E0,3.125E2,-1.2840171E-1,5E-1,2.25E2,2.5E0,2.9075E2,1.825E2,3.225E2,3.0261595E6,2.5E1,1.415E2,6.5E0,1.5E0,2.7507812E1,3.023072E6,4.885E2,1.84E2,5.5E0,4.475E1,1.0751E4,5E-1,4.5E0,6.5E0,3.29E2,5.9984375E1,2.9957285E6,1.5E0,5E-1,3.03E2,-1.4294301E-1,5E-1,-1.2476496E-1,2.5E0,5E-1,4.845E2,-1.9472116E-1,9.8E1,1.7E2,2.5E0,-2.7828392E-1,-1.22262575E-1,1.5E0,-1.2350426E-1,1.0146885E-1,2.2028899E-3,7.281645E-2,-2.0220699E-2,-6.836829E-2,-1.2146012E-1,1.9903097E-2,9.227889E-2,-3.502165E-2,-8.53829E-2,5.402459E-2,1.1136488E-1,-1.7358445E-1,-2.265088E-2,6.551886E-2,7.659106E-2,-1.7130709E-1,-9.164933E-2,-3.8275413E-2,3.3254308E-1,-1.184096E-1,-1.1039666E-1,1.1069503E-1,2.18888E-1,-1.3144612E-1,9.114672E-2,-1.494329E-1,-1.2943684E-1,1.8958206E-1,8.618791E-2,-4.328739E-2,7.206317E-2,-1.9376831E-1,1.0926749E-1,-1.4527108E-2,1.4439529E-3,-3.0950874E-1,1.08179525E-1,-2.6662302E-1,1.0871369E-1,-2.1235691E-1,1.16988674E-1,-2.2839669E-3],"split_indices":[21,114,29,14,5,26,210,217,27,31,12,24,131,28,0,27,8,14,220,31,32,0,31,31,60,87,213,0,30,6,33,215,4,226,26,14,35,2,0,153,63,2,0,126,0,27,83,10,0,31,35,185,0,0,25,0,0,0,0,0,0,0,0,0,0,0,0,0,0,0,0,0,0,0,0,0,0,0,0,0,0,0,0,0,0,0,0,0,0,0,0,0,0,0,0,0,0,0,0],"split_type":[0,0,0,0,0,0,0,0,0,0,0,0,0,0,0,0,0,0,0,0,0,0,0,0,0,0,0,0,0,0,0,0,0,0,0,0,0,0,0,0,0,0,0,0,0,0,0,0,0,0,0,0,0,0,0,0,0,0,0,0,0,0,0,0,0,0,0,0,0,0,0,0,0,0,0,0,0,0,0,0,0,0,0,0,0,0,0,0,0,0,0,0,0,0,0,0,0,0,0],"sum_hessian":[3.677973E4,3.1852596E4,4.927133E3,2.6213928E4,5.6386675E3,4.7464985E3,1.8063402E2,1.6232385E4,9.981544E3,5.3466216E3,2.9204587E2,3.384643E3,1.3618557E3,1.0363398E2,7.700004E1,1.3725423E4,2.506962E3,3.8639717E3,6.117572E3,3.9621733E3,1.3844484E3,1.7372429E2,1.1832159E2,1.0477269E3,2.336916E3,9.968626E2,3.649931E2,6.63432E1,3.729078E1,2.9524744E3,1.0772948E4,9.4784595E2,1.559116E3,2.1721348E3,1.6918368E3,4.5061675E3,1.6114045E3,3.9322957E3,2.9877722E1,1.316267E3,6.81814E1,1.0573388E2,6.799042E1,1.0969294E2,8.628645E0,9.984236E2,4.930333E1,2.3317786E3,5.1375523E0,7.49635E2,2.4722763E2,3.6084073E2,4.152387E0,9.166849E0,5.7176353E1,3.1985798E1,5.304982E0,2.1515068E3,8.009675E2,4.8023765E3,5.970572E3,1.5854712E2,7.892988E2,1.2414658E3,3.176502E2,2.2060828E2,1.9515266E3,1.666501E3,2.5335762E1,3.7503828E3,7.557845E2,1.5170516E3,9.435293E1,1.5047981E3,2.4274973E3,2.3140734E1,6.736987E0,1.286943E3,2.9323992E1,3.80687E1,3.01127E1,8.338485E1,2.2349022E1,6.8626323E0,1.0283031E2,8.9135583E2,1.07067795E2,6.5127306E0,4.2790596E1,2.3109065E3,2.0871922E1,7.279514E2,2.168357E1,2.4403735E2,3.1902893E0,3.5794986E2,2.8908656E0,3.3245968E1,2.3930387E1],"tree_param":{"num_deleted":"0","num_feature":"227","num_nodes":"99","size_leaf_vector":"0"}},{"base_weights":[1.194541E-3,-1.0288041E-1,6.948388E-1,-1.9965479E-1,3.8741872E-1,7.427906E-1,-5.636223E-1,3.9236048E-1,-2.9651245E-1,4.247168E-1,-1.5067188E0,8.9300436E-1,3.8166824E-1,-6.642889E-2,-1.2492498E0,1.8199861E-1,9.399733E-1,2.650567E-1,-3.643021E-1,3.3737752E-1,1.1038934E0,-2.1164227E0,-1.4003909E0,5.718972E-1,1.0421759E0,5.536991E-1,-3.244903E-1,3.6595088E-1,-8.704168E-1,2.7785483E-1,-7.744213E-1,9.657853E-1,-2.1883204E0,4.8827398E-1,-1.1817168E-1,-4.9068925E-1,-1.2657589E-1,6.4656794E-1,9.585112E-2,1.2442856E0,-1.0316527E0,-2.3213797E0,-1.026382E0,9.1797704E-1,-6.5966226E-2,1.0497226E0,-1.7566849E0,-1.664004E0,6.1851513E-1,1.8301018E-1,-1.5822737E0,-1.1811007E0,6.163251E-1,-1.2021343E0,9.869135E-1,-4.9993205E-1,4.2756042E-1,-6.475017E-2,-1.5668737E0,9.8505396E-1,-1.7516598E0,6.035684E-1,-4.8771897E-1,-5.068632E-1,5.119624E-1,-3.539489E-1,-8.7596124E-1,6.6354585E-1,-2.3475832E-1,-1.2586841E-1,8.5708463E-1,-3.7783405E-1,2.7573505E-1,-1.6731219E0,1.3203586E0,-2.2030654E0,1.1624589E0,9.7394305E-1,-1.7946897E0,5.193782E-1,-1.2781986E0,1.0613385E0,-1.3021769E-1,6.59797E-1,-1.7833263E0,-1.3256676E0,1.1625651E0,-2.2294023E0,3.063381E-1,7.8469396E-1,-1.1195617E0],"categories":[],"categories_nodes":[],"categories_segments":[],"categories_sizes":[],"default_left":[1,1,1,1,1,1,1,1,1,1,1,1,1,1,0,1,1,1,1,1,1,1,0,1,1,1,1,1,1,1,1,1,0,1,1,1,1,1,1,1,1,0,0,1,1,1,0,0,1,1,1,0,1,0,0,0,0,0,0,0,0,0,0,0,0,0,0,0,0,0,0,0,0,0,0,0,0,0,0,0,0,0,0,0,0,0,0,0,0,0,0],"id":13,"left_children":[1,3,5,7,9,11,13,15,17,19,21,23,25,27,-1,29,31,33,35,37,39,41,-1,43,45,47,49,51,53,55,57,59,-1,61,63,65,67,69,71,73,75,-1,-1,77,79,81,-1,-1,83,85,87,-1,89,-1,-1,-1,-1,-1,-1,-1,-1,-1,-1,-1,-1,-1,-1,-1,-1,-1,-1,-1,-1,-1,-1,-1,-1,-1,-1,-1,-1,-1,-1,-1,-1,-1,-1,-1,-1,-1,-1],"loss_changes":[2.594913E3,1.4831013E3,2.8341455E2,1.4969486E3,3.6465668E2,2.447356E2,5.8788597E1,4.2268518E2,8.541356E2,2.9941534E2,3.5009766E0,1.5220264E2,1.6162285E2,3.5485443E1,0E0,2.4345963E2,8.43551E1,2.0681737E2,6.01396E2,3.3445142E2,1.7380005E2,4.8876572E-1,0E0,2.2391608E2,4.7823975E1,1.5468948E2,1.668693E2,2.6481592E1,2.3165657E1,2.8109583E2,1.3597069E2,5.46557E1,0E0,1.7218661E2,2.1835522E2,6.882124E2,5.942106E2,3.1953345E2,2.1449458E2,1.22136536E2,9.519441E1,0E0,0E0,1.0156067E2,2.5441142E2,2.990332E1,0E0,0E0,1.0423245E2,2.7765295E2,9.2502396E1,0E0,1.7796148E1,0E0,0E0,0E0,0E0,0E0,0E0,0E0,0E0,0E0,0E0,0E0,0E0,0E0,0E0,0E0,0E0,0E0,0E0,0E0,0E0,0E0,0E0,0E0,0E0,0E0,0E0,0E0,0E0,0E0,0E0,0E0,0E0,0E0,0E0,0E0,0E0,0E0,0E0],"parents":[2147483647,0,0,1,1,2,2,3,3,4,4,5,5,6,6,7,7,8,8,9,9,10,10,11,11,12,12,13,13,15,15,16,16,17,17,18,18,19,19,20,20,21,21,23,23,24,24,25,25,26,26,27,27,28,28,29,29,30,30,31,31,33,33,34,34,35,35,36,36,37,37,38,38,39,39,40,40,43,43,44,44,45,45,48,48,49,49,50,50,52,52],"right_children":[2,4,6,8,10,12,14,16,18,20,22,24,26,28,-1,30,32,34,36,38,40,42,-1,44,46,48,50,52,54,56,58,60,-1,62,64,66,68,70,72,74,76,-1,-1,78,80,82,-1,-1,84,86,88,-1,90,-1,-1,-1,-1,-1,-1,-1,-1,-1,-1,-1,-1,-1,-1,-1,-1,-1,-1,-1,-1,-1,-1,-1,-1,-1,-1,-1,-1,-1,-1,-1,-1,-1,-1,-1,-1,-1,-1],"split_conditions":[2.5E0,1.47202E1,1.485E2,5E-1,8.5E0,2.755E2,2.6585E0,1.5E0,7.5E0,2.5E0,1.45E1,4.5E0,5.06E2,3.125E2,-1.2492498E-1,3.55E1,8.05E1,3.035282E6,1.0996875E2,1.5E0,1.13E2,9.5E0,-1.4003909E-1,1.5E0,6.5E0,3.625E2,3.0390275E6,3.023072E6,4.885E2,1.55E1,5E-1,6.5E2,-2.1883205E-1,5E-1,1.5E0,1.3109E4,1.5E0,5E-1,3.075E2,5.95E1,2E0,-2.3213796E-1,-1.026382E-1,2.5E0,9.0065E3,4.845E2,-1.756685E-1,-1.664004E-1,3.0671615E6,3.035826E6,5E-1,-1.18110076E-1,1.4202E4,-1.2021343E-1,9.869135E-2,-4.9993206E-2,4.2756043E-2,-6.4750174E-3,-1.5668736E-1,9.85054E-2,-1.7516598E-1,6.0356837E-2,-4.87719E-2,-5.068632E-2,5.1196244E-2,-3.539489E-2,-8.7596126E-2,6.635459E-2,-2.3475831E-2,-1.2586841E-2,8.570846E-2,-3.7783407E-2,2.7573505E-2,-1.6731219E-1,1.3203587E-1,-2.2030655E-1,1.1624589E-1,9.739431E-2,-1.7946897E-1,5.193782E-2,-1.2781987E-1,1.06133856E-1,-1.3021769E-2,6.5979704E-2,-1.7833263E-1,-1.3256676E-1,1.1625651E-1,-2.2294024E-1,3.063381E-2,7.8469396E-2,-1.1195617E-1],"split_indices":[21,177,29,27,143,26,210,14,29,199,26,24,5,28,0,13,31,0,2,9,217,188,0,27,60,21,0,0,30,13,31,2,0,18,24,4,3,226,5,174,100,0,0,99,4,10,0,0,0,0,199,0,4,0,0,0,0,0,0,0,0,0,0,0,0,0,0,0,0,0,0,0,0,0,0,0,0,0,0,0,0,0,0,0,0,0,0,0,0,0,0],"split_type":[0,0,0,0,0,0,0,0,0,0,0,0,0,0,0,0,0,0,0,0,0,0,0,0,0,0,0,0,0,0,0,0,0,0,0,0,0,0,0,0,0,0,0,0,0,0,0,0,0,0,0,0,0,0,0,0,0,0,0,0,0,0,0,0,0,0,0,0,0,0,0,0,0,0,0,0,0,0,0,0,0,0,0,0,0,0,0,0,0,0,0],"sum_hessian":[3.594312E4,3.1254518E4,4.6886016E3,2.6102955E4,5.1515625E3,4.516902E3,1.7169995E2,3.669727E3,2.2433229E4,5.0528413E3,9.872139E1,3.1889436E3,1.3279579E3,1.0016247E2,7.153748E1,2.6522246E3,1.0175023E3,2.4160203E3,2.0017209E4,4.4784307E3,5.744108E2,1.1852467E1,8.686893E1,1.0130601E3,2.1758835E3,1.0679944E3,2.5996353E2,6.548817E1,3.46743E1,2.4112673E3,2.4095737E2,1.0098611E3,7.641247E0,1.5265712E3,8.8944916E2,1.3068353E4,6.9488555E3,1.9633578E3,2.5150728E3,5.393696E2,3.504119E1,9.025756E0,2.826711E0,6.5645435E2,3.5660574E2,2.1706558E3,5.2278585E0,2.962692E1,1.0383674E3,1.858356E2,7.412794E1,8.604428E0,5.6883736E1,2.9719236E1,4.955065E0,3.888225E2,2.0224448E3,1.27688866E2,1.1326851E2,1.0033839E3,6.4772167E0,1.3656304E3,1.609408E2,5.5023694E2,3.392122E2,9.646533E3,3.4218198E3,8.3622974E2,6.1126255E3,4.2057373E2,1.542784E3,6.9192865E2,1.823144E3,1.3173435E1,5.261962E2,2.2842007E1,1.2199184E1,6.438126E2,1.2641762E1,2.4086975E2,1.15735985E2,2.1495945E3,2.1061308E1,1.02153503E3,1.6832428E1,7.301972E1,1.1281588E2,5.507587E1,1.9052067E1,5.235375E1,4.529989E0],"tree_param":{"num_deleted":"0","num_feature":"227","num_nodes":"91","size_leaf_vector":"0"}},{"base_weights":[1.341346E-3,-1.2735094E-1,5.072531E-1,-2.5094277E-1,3.2591316E-1,8.2218844E-1,1.2539512E-1,-4.4621664E-1,1.0680043E-1,3.643663E-1,-1.3302082E0,8.382061E-1,-1.4414886E0,-1.6519512E-1,8.835957E-1,-5.7206136E-1,-6.901567E-2,9.38815E-1,-5.954227E-2,1.0155E-1,5.992714E-1,-3.8166025E-1,-2.2024264E0,9.774667E-1,6.2090063E-1,-1.9254724E0,9.4125056E-1,9.90794E-2,-7.258166E-1,9.1598094E-1,-1.8036722E0,-6.792577E-1,-1.720525E-1,5.1674706E-1,-3.4311527E-1,1.0765208E-1,1.1718225E0,3.9743358E-1,-2.2847669E-1,-3.843E-2,9.319227E-1,-1.6845356E-1,7.885913E-1,-9.2643875E-1,1.1330844E0,-2.2805293E0,-1.1811008E0,1.0058562E0,-1.4540296E0,-2.3600934E0,6.5119654E-1,-7.7266717E-1,4.3432134E-1,-1.2741448E-1,-1.0193087E0,1.0111816E0,2.2831406E-1,-4.623145E-1,-8.1404644E-1,7.4981324E-2,-9.68968E-1,6.9521475E-1,-1.4263744E0,-4.6169597E-1,7.8615916E-1,5.5597174E-1,-1.5884575E0,-1.6749717E0,1.206237E0,-5.8209723E-1,5.2112144E-1,-6.738315E-2,-9.3360126E-1,-2.9334986E-1,4.306376E-1,1.0851429E0,-2.0523968E0,3.7362862E-1,-1.3194726E0,8.8170016E-1,-4.2444986E-1,7.6732373E-1,-1.7292616E0,-7.471874E-1,1.3405557E0,-2.3056011E0,-8.571959E-1,2.2360334E-1,1.0593677E0,-1.9369968E0,9.377179E-1,3.9070132E-1,9.070807E-1,-9.387522E-1,1.0127665E0,-7.435612E-1,6.1450726E-1,-4.6564567E-1,1.0871006E0,-1.134588E0,1.4980556E0,1.0460659E0,-6.628457E-1,-1.1691003E0,9.1812E-1],"categories":[],"categories_nodes":[],"categories_segments":[],"categories_sizes":[],"default_left":[1,1,1,1,1,1,1,1,1,1,1,1,1,1,1,1,1,1,1,1,1,1,1,1,1,0,0,1,1,1,0,1,1,1,1,1,1,1,1,1,1,1,1,1,1,1,0,1,1,0,1,1,1,1,1,1,1,0,0,0,0,0,0,0,0,0,0,0,0,0,0,0,0,0,0,0,0,0,0,0,0,0,0,0,0,0,0,0,0,0,0,0,0,0,0,0,0,0,0,0,0,0,0,0,0],"id":14,"left_children":[1,3,5,7,9,11,13,15,17,19,21,23,25,27,29,31,33,35,37,39,41,43,45,47,49,-1,-1,51,53,55,-1,57,59,61,63,65,67,69,71,73,75,77,79,81,83,85,-1,87,89,-1,91,93,95,97,99,101,103,-1,-1,-1,-1,-1,-1,-1,-1,-1,-1,-1,-1,-1,-1,-1,-1,-1,-1,-1,-1,-1,-1,-1,-1,-1,-1,-1,-1,-1,-1,-1,-1,-1,-1,-1,-1,-1,-1,-1,-1,-1,-1,-1,-1,-1,-1,-1,-1],"loss_changes":[2.2937642E3,1.5734651E3,8.590969E2,1.5417632E3,3.8372498E2,1.4316748E2,7.118711E2,6.7765674E2,1.0786893E3,3.6308545E2,1.123176E2,1.1706055E2,3.395972E1,3.4618982E2,7.9558716E1,4.5890845E2,5.737958E2,2.5137122E2,5.0157635E2,3.228631E2,4.5154773E2,5.6114864E1,2.9735413E0,1.6491797E2,1.389328E2,0E0,0E0,4.6459296E2,1.313364E2,5.7719482E1,0E0,2.4648608E2,4.4573834E2,3.9607092E2,3.2635464E2,2.179313E2,1.0137866E2,2.1276895E2,5.387406E2,2.8443445E2,1.8544669E2,3.8434848E2,2.817876E2,6.881136E1,8.062845E0,3.404541E-1,0E0,9.776416E1,3.3856445E1,0E0,1.0008563E2,1.3189713E2,2.4410458E2,1.02162605E2,1.4740607E2,4.6083313E1,1.0608136E2,0E0,0E0,0E0,0E0,0E0,0E0,0E0,0E0,0E0,0E0,0E0,0E0,0E0,0E0,0E0,0E0,0E0,0E0,0E0,0E0,0E0,0E0,0E0,0E0,0E0,0E0,0E0,0E0,0E0,0E0,0E0,0E0,0E0,0E0,0E0,0E0,0E0,0E0,0E0,0E0,0E0,0E0,0E0,0E0,0E0,0E0,0E0,0E0],"parents":[2147483647,0,0,1,1,2,2,3,3,4,4,5,5,6,6,7,7,8,8,9,9,10,10,11,11,12,12,13,13,14,14,15,15,16,16,17,17,18,18,19,19,20,20,21,21,22,22,23,23,24,24,27,27,28,28,29,29,31,31,32,32,33,33,34,34,35,35,36,36,37,37,38,38,39,39,40,40,41,41,42,42,43,43,44,44,45,45,47,47,48,48,50,50,51,51,52,52,53,53,54,54,55,55,56,56],"right_children":[2,4,6,8,10,12,14,16,18,20,22,24,26,28,30,32,34,36,38,40,42,44,46,48,50,-1,-1,52,54,56,-1,58,60,62,64,66,68,70,72,74,76,78,80,82,84,86,-1,88,90,-1,92,94,96,98,100,102,104,-1,-1,-1,-1,-1,-1,-1,-1,-1,-1,-1,-1,-1,-1,-1,-1,-1,-1,-1,-1,-1,-1,-1,-1,-1,-1,-1,-1,-1,-1,-1,-1,-1,-1,-1,-1,-1,-1,-1,-1,-1,-1,-1,-1,-1,-1,-1,-1],"split_conditions":[1.785E2,2.9975E1,1.5E0,1.389375E2,1.5E0,1.92E2,1.5E0,2.5E0,1.5E0,5E-1,5E-1,1.75E1,2.5E0,1.37275E4,3.5E0,5E-1,8.5E0,5E-1,1.15E1,1.5E0,3.05E2,3.465E2,2.5E0,2.39E2,1.59E2,-1.9254725E-1,9.4125055E-2,5.795E3,1.8632812E1,1.2358E4,-1.8036722E-1,3.0229265E6,3.55E1,2.645E2,1.5E0,-2.5E0,5E-1,1.55E1,5E-1,2.5E0,1.735E2,1.5E0,5.535E2,7.35E1,1.5E0,9.5E0,-1.1811008E-1,1.45E1,4.865E2,-2.3600934E-1,3.5E0,1.5E0,1.24E2,1.5E0,2.5E0,3.0760295E6,8E0,-4.623145E-2,-8.140465E-2,7.4981325E-3,-9.68968E-2,6.952148E-2,-1.4263745E-1,-4.6169598E-2,7.861592E-2,5.5597175E-2,-1.5884575E-1,-1.6749717E-1,1.206237E-1,-5.8209725E-2,5.2112143E-2,-6.738315E-3,-9.3360126E-2,-2.9334987E-2,4.306376E-2,1.0851429E-1,-2.0523968E-1,3.7362862E-2,-1.3194726E-1,8.8170014E-2,-4.2444985E-2,7.6732375E-2,-1.7292617E-1,-7.4718736E-2,1.3405557E-1,-2.3056011E-1,-8.571959E-2,2.2360334E-2,1.05936766E-1,-1.9369969E-1,9.377179E-2,3.9070133E-2,9.070807E-2,-9.387522E-2,1.0127665E-1,-7.4356124E-2,6.1450727E-2,-4.6564568E-2,1.08710065E-1,-1.13458805E-1,1.4980556E-1,1.0460659E-1,-6.628457E-2,-1.1691003E-1,9.181201E-2],"split_indices":[6,220,9,2,130,6,88,15,3,40,56,13,67,4,185,40,26,17,34,131,5,217,18,35,10,0,0,4,2,4,0,0,28,35,82,225,7,13,135,24,174,19,5,11,15,188,0,13,35,0,14,167,5,91,130,0,14,0,0,0,0,0,0,0,0,0,0,0,0,0,0,0,0,0,0,0,0,0,0,0,0,0,0,0,0,0,0,0,0,0,0,0,0,0,0,0,0,0,0,0,0,0,0,0,0],"split_type":[0,0,0,0,0,0,0,0,0,0,0,0,0,0,0,0,0,0,0,0,0,0,0,0,0,0,0,0,0,0,0,0,0,0,0,0,0,0,0,0,0,0,0,0,0,0,0,0,0,0,0,0,0,0,0,0,0,0,0,0,0,0,0,0,0,0,0,0,0,0,0,0,0,0,0,0,0,0,0,0,0,0,0,0,0,0,0,0,0,0,0,0,0,0,0,0,0,0,0,0,0,0,0,0,0],"sum_hessian":[3.5228723E4,2.8085234E4,7.1434883E3,2.2068303E4,6.016932E3,3.9141562E3,3.229332E3,1.4275683E4,7.79262E3,5.8811587E3,1.3577339E2,3.8872795E3,2.6876495E1,2.3351409E3,8.9419104E2,1.0704012E4,3.571671E3,1.2976046E3,6.4950156E3,2.776354E3,3.1048044E3,6.572942E1,7.0043976E1,2.3669297E3,1.5203499E3,2.2498493E1,4.378002E0,1.587584E3,7.4755695E2,8.8419446E2,9.996614E0,8.441199E3,2.2628127E3,1.1382648E3,2.4334062E3,2.844398E2,1.01316486E3,1.7526525E3,4.7423633E3,2.376662E3,3.996919E2,6.142054E2,2.490599E3,4.8628536E1,1.7100883E1,6.392276E1,6.121215E0,2.3401926E3,2.6737078E1,1.4522201E1,1.5058278E3,4.4059018E2,1.1469938E3,2.4646748E2,5.0108945E2,7.762588E2,1.0793569E2,3.2364868E3,5.2047124E3,1.728046E3,5.347667E2,1.0431023E3,9.516243E1,2.2027004E3,2.3070583E2,2.2550577E2,5.8934006E1,1.1532271E1,1.0016326E3,1.9608388E2,1.5565686E3,3.8613013E3,8.8106165E2,1.5400695E3,8.365927E2,3.8077844E2,1.8913439E1,4.1801367E2,1.9619168E2,2.3133105E3,1.7728854E2,1.5651618E1,3.2976917E1,1.4408991E0,1.5659985E1,6.2207127E1,1.7156316E0,1.5016711E2,2.1900256E3,2.2403297E1,4.3337803E0,7.474428E2,7.583849E2,4.0352737E2,3.7062794E1,1.5176608E2,9.952277E2,1.9326233E2,5.3205162E1,4.7967276E2,2.1416676E1,7.607803E2,1.5478477E1,3.544206E1,7.249363E1],"tree_param":{"num_deleted":"0","num_feature":"227","num_nodes":"105","size_leaf_vector":"0"}},{"base_weights":[1.3579963E-3,-1.8724488E-1,3.0143243E-1,-2.8169024E-1,2.295725E-1,5.5159205E-1,-3.115156E-1,2.5423223E-1,-4.203003E-1,-5.095659E-1,3.6602482E-1,6.225986E-1,-3.8979408E-1,7.719556E-1,-3.95866E-1,3.4138143E-1,-6.3986295E-1,2.502057E-1,-4.704259E-1,-1.1571714E-1,-1.6291398E0,4.201646E-1,-1.0788823E0,6.383067E-1,-2.0895772E0,-6.4429605E-1,1.2651521E0,5.099158E-1,2.4000864E0,-4.829057E-1,5.1651365E-1,5.696339E-1,9.348045E-3,1.7627802E-1,-1.5872926E0,-2.3877798E-1,8.4553635E-1,-8.7150806E-1,-3.9067572E-1,3.4826872E-1,-1.5459216E0,-1.7828795E0,7.0112664E-1,5.8937335E-1,-6.1121613E-2,4.588148E-1,-1.7150367E0,4.382598E-1,8.271547E-1,-1.8760223E0,-3.7304945E0,-1.1126747E0,2.2137506E-1,1.888281E0,-1.4288456E0,-1.3857981E0,7.491719E-1,3.8089256E0,1.4460588E0,-8.607484E-1,-3.160904E-1,8.940423E-1,-1.3422395E0,-3.695512E-1,7.3634607E-1,-1.1492668E0,2.600163E-1,-2.0889347E0,5.32634E-1,-3.090938E-1,-1.8338314E0,-7.692647E-1,3.021449E-1,-3.8105424E-2,1.1151023E0,-5.152514E-3,-9.633731E-1,-3.130023E-1,-7.8093594E-1,5.648543E-1,-2.1211438E0,-1.9789593E0,-1.468756E0,1.2358881E0,-1.1223493E0,-1.7331573E0,6.459123E-1,6.732072E-2,-1.7403871E0,-1.5106184E0,1.0146303E0,-1.4834529E0,-2.0761738E0,5.7945955E-1,-4.0077582E-1,1.0873692E0,3.704913E-1,-1.190818E0,1.1753407E0,-1.5576227E0,9.116722E-1,3.26189E0,1.1765699E0,9.2459494E-1,-1.3332171E0,-1.2483847E0,2.277207E0,1.8851856E0,-9.580634E-1,3.8191316E-1,-4.8520365E-1,1.1154994E0,-1.4184396E0],"categories":[],"categories_nodes":[],"categories_segments":[],"categories_sizes":[],"default_left":[1,1,1,1,1,1,1,1,1,1,1,1,1,1,1,1,1,1,1,1,1,1,1,1,1,1,1,1,1,1,1,1,1,1,1,1,1,1,1,1,0,1,1,1,1,1,1,1,1,0,0,1,1,1,0,0,1,0,1,1,1,1,0,0,0,0,0,0,0,0,0,0,0,0,0,0,0,0,0,0,0,0,0,0,0,0,0,0,0,0,0,0,0,0,0,0,0,0,0,0,0,0,0,0,0,0,0,0,0,0,0,0,0],"id":15,"left_children":[1,3,5,7,9,11,13,15,17,19,21,23,25,27,29,31,33,35,37,39,41,43,45,47,49,51,53,55,57,59,61,63,65,67,69,71,73,75,77,79,-1,81,83,85,87,89,91,93,95,-1,-1,97,99,101,-1,-1,103,-1,105,107,109,111,-1,-1,-1,-1,-1,-1,-1,-1,-1,-1,-1,-1,-1,-1,-1,-1,-1,-1,-1,-1,-1,-1,-1,-1,-1,-1,-1,-1,-1,-1,-1,-1,-1,-1,-1,-1,-1,-1,-1,-1,-1,-1,-1,-1,-1,-1,-1,-1,-1,-1,-1],"loss_changes":[1.9521896E3,8.338958E2,2.0414938E3,1.2829136E3,3.9487628E2,6.3223584E2,3.5300076E2,2.7677234E2,4.612627E2,2.6890845E2,2.5892117E2,3.7589722E2,2.8037384E2,1.1784274E2,2.8463568E2,2.4514017E2,2.4429118E2,2.7821893E2,4.080183E2,3.0083908E2,5.8119354E1,2.594536E2,1.1779167E2,3.2989893E2,1.0824478E1,2.3376624E2,1.5177472E2,1.10646996E2,4.61317E1,2.0581909E2,2.2039438E2,3.0040515E2,3.8330518E2,1.3868924E2,4.5485474E1,1.5091988E2,1.0268356E2,1.6845435E2,3.2261768E2,1.8438202E2,0E0,6.2829895E0,1.1667306E1,3.106186E2,1.7903525E2,4.0711857E1,4.013794E0,5.0341486E2,5.3383203E2,0E0,0E0,6.824921E1,2.507636E2,6.7091E1,0E0,0E0,7.985589E1,0E0,5.7754414E1,2.6925598E2,2.6812515E2,1.3484952E2,0E0,0E0,0E0,0E0,0E0,0E0,0E0,0E0,0E0,0E0,0E0,0E0,0E0,0E0,0E0,0E0,0E0,0E0,0E0,0E0,0E0,0E0,0E0,0E0,0E0,0E0,0E0,0E0,0E0,0E0,0E0,0E0,0E0,0E0,0E0,0E0,0E0,0E0,0E0,0E0,0E0,0E0,0E0,0E0,0E0,0E0,0E0,0E0,0E0,0E0,0E0],"parents":[2147483647,0,0,1,1,2,2,3,3,4,4,5,5,6,6,7,7,8,8,9,9,10,10,11,11,12,12,13,13,14,14,15,15,16,16,17,17,18,18,19,19,20,20,21,21,22,22,23,23,24,24,25,25,26,26,27,27,28,28,29,29,30,30,31,31,32,32,33,33,34,34,35,35,36,36,37,37,38,38,39,39,41,41,42,42,43,43,44,44,45,45,46,46,47,47,48,48,51,51,52,52,53,53,56,56,58,58,59,59,60,60,61,61],"right_children":[2,4,6,8,10,12,14,16,18,20,22,24,26,28,30,32,34,36,38,40,42,44,46,48,50,52,54,56,58,60,62,64,66,68,70,72,74,76,78,80,-1,82,84,86,88,90,92,94,96,-1,-1,98,100,102,