{"learner":{"attributes":{"best_iteration":"99","best_ntree_limit":"100","scikit_learn":"{\"use_label_encoder\": null, \"n_estimators\": 100, \"objective\": \"binary:logistic\", \"max_depth\": 6, \"max_leaves\": null, \"max_bin\": null, \"grow_policy\": null, \"learning_rate\": 0.1, \"verbosity\": null, \"booster\": null, \"tree_method\": null, \"gamma\": null, \"min_child_weight\": null, \"max_delta_step\": null, \"subsample\": null, \"sampling_method\": null, \"colsample_bytree\": null, \"colsample_bylevel\": null, \"colsample_bynode\": null, \"reg_alpha\": null, \"reg_lambda\": null, \"scale_pos_weight\": 27.46, \"base_score\": null, \"missing\": NaN, \"num_parallel_tree\": null, \"random_state\": 42, \"n_jobs\": -1, \"monotone_constraints\": null, \"interaction_constraints\": null, \"importance_type\": null, \"gpu_id\": null, \"validate_parameters\": null, \"predictor\": null, \"enable_categorical\": false, \"feature_types\": null, \"max_cat_to_onehot\": null, \"max_cat_threshold\": null, \"eval_metric\": \"logloss\", \"early_stopping_rounds\": null, \"callbacks\": null, \"classes_\": [0, 1], \"n_classes_\": 2, \"_estimator_type\": \"classifier\"}"},"feature_names":["TransactionID","TransactionDT","TransactionAmt","ProductCD","card1","card2","card3","card4","card5","card6","addr1","addr2","dist1","P_emaildomain","C1","C2","C3","C4","C5","C6","C7","C8","C9","C10","C11","C12","C13","C14","D1","D2","D3","D4","D5","D10","D11","D15","M1","M2","M3","M4","M5","M6","M7","M8","M9","V1","V2","V3","V4","V5","V6","V7","V8","V9","V10","V11","V12","V13","V14","V15","V16","V17","V18","V19","V20","V21","V22","V23","V24","V25","V26","V27","V28","V29","V30","V31","V32","V33","V34","V35","V36","V37","V38","V39","V40","V41","V42","V43","V44","V45","V46","V47","V48","V49","V50","V51","V52","V53","V54","V55","V56","V57","V58","V59","V60","V61","V62","V63","V64","V65","V66","V67","V68","V69","V70","V71","V72","V73","V74","V75","V76","V77","V78","V79","V80","V81","V82","V83","V84","V85","V86","V87","V88","V89","V90","V91","V92","V93","V94","V95","V96","V97","V98","V99","V100","V101","V102","V103","V104","V105","V106","V107","V108","V109","V110","V111","V112","V113","V114","V115","V116","V117","V118","V119","V120","V121","V122","V123","V124","V125","V126","V127","V128","V129","V130","V131","V132","V133","V134","V135","V136","V137","V279","V280","V281","V282","V283","V284","V285","V286","V287","V288","V289","V290","V291","V292","V293","V294","V295","V296","V297","V298","V299","V300","V301","V302","V303","V304","V305","V306","V307","V308","V309","V310","V311","V312","V313","V314","V315","V316","V317","V318","V319","V320","V321","id_01","id_12"],"feature_types":["int","int","float","int","int","float","float","int","float","int","float","float","float","int","float","float","float","float","float","float","float","float","float","float","float","float","float","float","float","float","float","float","float","float","float","float","int","int","int","int","int","int","int","int","int","float","float","float","float","float","float","float","float","float","float","float","float","float","float","float","float","float","float","float","float","float","float","float","float","float","float","float","float","float","float","float","float","float","float","float","float","float","float","float","float","float","float","float","float","float","float","float","float","float","float","float","float","float","float","float","float","float","float","float","float","float","float","float","float","float","float","float","float","float","float","float","float","float","float","float","float","float","float","float","float","float","float","float","float","float","float","float","float","float","float","float","float","float","float","float","float","float","float","float","float","float","float","float","float","float","float","float","float","float","float","float","float","float","float","float","float","float","float","float","float","float","float","float","float","float","float","float","float","float","float","float","float","float","float","float","float","float","float","float","float","float","float","float","float","float","float","float","float","float","float","float","float","float","float","float","float","float","float","float","float","float","float","float","float","float","float","float","float","float","float","float","float","float","float","float","float","float","float","float","float","float","int"],"gradient_booster":{"model":{"gbtree_model_param":{"num_parallel_tree":"1","num_trees":"100","size_leaf_vector":"0"},"tree_info":[0,0,0,0,0,0,0,0,0,0,0,0,0,0,0,0,0,0,0,0,0,0,0,0,0,0,0,0,0,0,0,0,0,0,0,0,0,0,0,0,0,0,0,0,0,0,0,0,0,0,0,0,0,0,0,0,0,0,0,0,0,0,0,0,0,0,0,0,0,0,0,0,0,0,0,0,0,0,0,0,0,0,0,0,0,0,0,0,0,0,0,0,0,0,0,0,0,0,0,0],"trees":[{"base_weights":[-5.3694548E-5,3.4094012E-1,-1.3775675E0,4.420791E-2,1.5573788E0,-1.448052E0,1.9803075E-1,1.2470398E0,-2.5248632E-1,6.781368E-1,1.8117092E0,-1.4897903E0,-4.785601E-1,6.8107694E-1,-6.035487E-1,9.1644514E-1,1.7483975E0,-6.136102E-1,8.0624276E-1,1.4520682E0,-1.2620005E-1,1.9040586E0,9.949268E-1,-1.550134E0,-1.0421951E0,-1.3615912E-2,-1.9320203E0,8.306822E-1,-1.6051732E0,-1.2103156E0,6.328409E-1,1.4614403E0,6.005005E-1,1.8196414E0,6.2631E-1,5.3928494E-1,-7.47465E-1,4.445397E-1,1.1881477E0,1.5026352E0,-4.442579E-1,-5.783768E-1,1.1599014E0,1.462502E0,1.9389579E0,-1.5235326E0,1.1629461E0,-1.6088912E0,-1.169937E0,-1.1314152E0,8.617629E-1,4.40655E-1,-1.0594363E0,-1.9952438E0,1.2477458E-1,5.6343406E-1,1.7398311E0,5.921689E-1,-1.9688716E0,-1.3892691E0,9.855846E-1,1.1111984E0,-1.9473684E0,3.30156E-1,1.5705423E0,-3.297857E-1,8.712332E-1,1.3560863E0,1.8927001E0,1.0048988E0,-5.369234E-1,-3.1879742E-3,9.416567E-1,1.5019639E-1,-8.5384977E-1,4.9493507E-1,-1.4456892E0,1.8560827E-1,1.2995211E0,1.544001E0,-3.8633075E-1,-1.5422978E0,1.1785511E0,-8.557464E-1,2.862015E-1,1.4156427E0,-1.6569033E0,1.7451596E0,-2.2386394E-1,1.9406189E0,-1.8139535E0,-1.9868852E0,1.2967377E0,1.2340729E0,-1.9662447E0,-1.6318475E0,-6.075711E-1,-1.285915E0,-5.201722E-1,-6.125334E-1,-1.3652773E0,-1.9515152E0,1.49764E0,6.36457E-1,-1.9719298E0,-1.2168751E0,1.5761814E0,1.7457088E0,-1.7142857E0,5.2247122E-2,1.1114149E0,-1.75E0,1.8443269E0,-1.5555556E0,1.7457088E0,1.2028848E0,-1.5457426E0,1.612403E0,-1.7333333E0,1.4128579E0,-1.8947369E0],"categories":[],"categories_nodes":[],"categories_segments":[],"categories_sizes":[],"default_left":[1,1,1,1,1,1,1,1,1,1,1,1,1,1,1,1,1,1,1,1,1,1,1,1,1,1,1,1,1,1,1,1,1,1,1,1,1,1,1,1,1,1,1,1,1,1,1,1,1,1,1,1,1,0,1,1,1,1,0,1,1,1,0,0,0,0,0,0,0,0,0,0,0,0,0,0,0,0,0,0,0,0,0,0,0,0,0,0,0,0,0,0,0,0,0,0,0,0,0,0,0,0,0,0,0,0,0,0,0,0,0,0,0,0,0,0,0,0,0,0,0],"id":0,"left_children":[1,3,5,7,9,11,13,15,17,19,21,23,25,27,29,31,33,35,37,39,41,43,45,47,49,51,53,55,57,59,61,63,65,67,69,71,73,75,77,79,81,83,85,87,89,91,93,95,97,99,101,103,105,-1,107,109,111,113,-1,115,117,119,-1,-1,-1,-1,-1,-1,-1,-1,-1,-1,-1,-1,-1,-1,-1,-1,-1,-1,-1,-1,-1,-1,-1,-1,-1,-1,-1,-1,-1,-1,-1,-1,-1,-1,-1,-1,-1,-1,-1,-1,-1,-1,-1,-1,-1,-1,-1,-1,-1,-1,-1,-1,-1,-1,-1,-1,-1,-1,-1],"loss_changes":[1.0705585E5,6.594271E4,5.022578E3,5.2412434E4,8.0099453E3,1.7508984E3,7.505431E2,4.814758E3,4.504199E4,5.004727E3,2.094039E3,1.1192656E3,1.2083557E3,4.1496332E2,5.4766565E2,3.0147686E3,9.218672E2,1.3556652E4,4.138498E3,3.9355762E2,2.293811E3,3.8185156E2,1.1970298E3,8.150156E2,8.3899854E2,6.445739E2,5.660266E1,2.7496002E2,6.0795944E1,1.9367023E2,2.99183E2,7.9266113E2,2.792962E3,3.6509375E2,3.0477652E2,1.9947544E3,7.516457E3,1.4667761E3,1.6270449E3,3.1244922E2,1.9282051E2,7.000312E2,7.4149915E2,8.7390845E2,1.4771875E2,2.3400061E2,5.919182E2,7.27E2,3.684756E2,5.7105664E2,3.9897598E2,4.4809256E2,1.7240372E2,0E0,4.432415E1,2.4621835E2,9.713995E1,3.0872175E1,0E0,1.8555713E2,6.66367E1,1.8733592E2,0E0,0E0,0E0,0E0,0E0,0E0,0E0,0E0,0E0,0E0,0E0,0E0,0E0,0E0,0E0,0E0,0E0,0E0,0E0,0E0,0E0,0E0,0E0,0E0,0E0,0E0,0E0,0E0,0E0,0E0,0E0,0E0,0E0,0E0,0E0,0E0,0E0,0E0,0E0,0E0,0E0,0E0,0E0,0E0,0E0,0E0,0E0,0E0,0E0,0E0,0E0,0E0,0E0,0E0,0E0,0E0,0E0,0E0,0E0],"parents":[2147483647,0,0,1,1,2,2,3,3,4,4,5,5,6,6,7,7,8,8,9,9,10,10,11,11,12,12,13,13,14,14,15,15,16,16,17,17,18,18,19,19,20,20,21,21,22,22,23,23,24,24,25,25,26,26,27,27,28,28,29,29,30,30,31,31,32,32,33,33,34,34,35,35,36,36,37,37,38,38,39,39,40,40,41,41,42,42,43,43,44,44,45,45,46,46,47,47,48,48,49,49,50,50,51,51,52,52,54,54,55,55,56,56,57,57,59,59,60,60,61,61],"right_children":[2,4,6,8,10,12,14,16,18,20,22,24,26,28,30,32,34,36,38,40,42,44,46,48,50,52,54,56,58,60,62,64,66,68,70,72,74,76,78,80,82,84,86,88,90,92,94,96,98,100,102,104,106,-1,108,110,112,114,-1,116,118,120,-1,-1,-1,-1,-1,-1,-1,-1,-1,-1,-1,-1,-1,-1,-1,-1,-1,-1,-1,-1,-1,-1,-1,-1,-1,-1,-1,-1,-1,-1,-1,-1,-1,-1,-1,-1,-1,-1,-1,-1,-1,-1,-1,-1,-1,-1,-1,-1,-1,-1,-1,-1,-1,-1,-1,-1,-1,-1,-1],"split_conditions":[5E-1,1.5E0,2.009375E2,5E-1,3.5E0,5.82E2,8.95E1,1.5E0,8.18955E0,1.5E0,2.55E1,2.7589502E2,2.25E1,9.835E2,1.5E0,5E-1,3.5E0,6.5E0,6.790625E1,3.9E1,2.5E0,4.5E0,7.5E0,2.328125E2,4.5E0,3.12375E2,1.5E0,1.5E0,1.505E2,3.1045E2,1.55E1,1.5E0,3.1100925E6,5E-1,1.5E0,7.596875E1,1.5E0,1.025E2,2.5E0,3.5E0,2.5E0,3.3776545E6,5.305E2,2.5E0,9.5E0,1.6225E4,3.095E2,3.1960938E1,2.5E0,5E-1,9.49E3,2.655E2,4.14E2,-1.9952439E-1,3.8125E3,3.3311135E6,1.5E0,5E-1,-1.9688717E-1,2.5476562E1,4.2245E2,7.6E2,-1.9473684E-1,3.30156E-2,1.5705423E-1,-3.2978572E-2,8.712333E-2,1.3560863E-1,1.8927E-1,1.0048988E-1,-5.369234E-2,-3.1879742E-4,9.4165675E-2,1.5019639E-2,-8.538498E-2,4.9493507E-2,-1.4456892E-1,1.8560827E-2,1.2995212E-1,1.544001E-1,-3.8633075E-2,-1.5422979E-1,1.1785511E-1,-8.557464E-2,2.8620152E-2,1.4156428E-1,-1.6569033E-1,1.7451596E-1,-2.2386394E-2,1.9406189E-1,-1.8139535E-1,-1.9868852E-1,1.2967376E-1,1.234073E-1,-1.9662447E-1,-1.6318475E-1,-6.075711E-2,-1.2859151E-1,-5.201722E-2,-6.125334E-2,-1.3652773E-1,-1.9515152E-1,1.49764E-1,6.3645706E-2,-1.9719298E-1,-1.2168751E-1,1.5761815E-1,1.7457089E-1,-1.7142858E-1,5.224712E-3,1.11141495E-1,-1.75E-1,1.8443269E-1,-1.5555556E-1,1.7457089E-1,1.20288484E-1,-1.5457426E-1,1.6124031E-1,-1.7333333E-1,1.4128579E-1,-1.8947369E-1],"split_indices":[114,17,215,27,14,5,35,14,220,26,26,210,31,217,182,3,3,29,218,28,186,14,14,2,146,2,67,120,10,180,22,30,0,226,89,2,32,26,186,196,21,0,5,27,100,4,29,214,15,92,4,28,33,0,4,0,18,42,0,2,180,213,0,0,0,0,0,0,0,0,0,0,0,0,0,0,0,0,0,0,0,0,0,0,0,0,0,0,0,0,0,0,0,0,0,0,0,0,0,0,0,0,0,0,0,0,0,0,0,0,0,0,0,0,0,0,0,0,0,0,0],"split_type":[0,0,0,0,0,0,0,0,0,0,0,0,0,0,0,0,0,0,0,0,0,0,0,0,0,0,0,0,0,0,0,0,0,0,0,0,0,0,0,0,0,0,0,0,0,0,0,0,0,0,0,0,0,0,0,0,0,0,0,0,0,0,0,0,0,0,0,0,0,0,0,0,0,0,0,0,0,0,0,0,0,0,0,0,0,0,0,0,0,0,0,0,0,0,0,0,0,0,0,0,0,0,0,0,0,0,0,0,0,0,0,0,0,0,0,0,0,0,0,0,0],"sum_hessian":[2.2791038E5,1.82688E5,4.5222375E4,1.468638E5,3.5824215E4,4.328605E4,1.936325E3,2.9057639E4,1.1780616E5,8.0384097E3,2.7785805E4,4.1498914E4,1.787135E3,1.20832E3,7.28005E2,1.751265E4,1.1544989E4,8.784377E4,2.9962379E4,4.096225E3,3.942185E3,2.4962135E4,2.82367E3,3.6566637E4,4.93228E3,1.35477E3,4.32365E2,1.134705E3,7.3615E1,4.8836E2,2.3964499E2,6.4254E3,1.108725E4,1.0855149E4,6.8983997E2,9.137675E3,7.87061E4,1.53893E4,1.457308E4,3.990035E3,1.0619E2,2.917115E3,1.02507E3,1.831565E3,2.3130568E4,1.76095E2,2.647575E3,3.1669115E4,4.89752E3,4.711885E3,2.2039499E2,9.4491E2,4.0986E2,4.195E2,1.2865E1,8.7818E2,2.56525E2,1.0365E1,6.325E1,4.519E2,3.646E1,2.0264499E2,3.7E1,5.6552E2,5.85988E3,2.49923E3,8.58802E3,1.480565E3,9.374585E3,5.20555E2,1.69285E2,3.891795E3,5.24588E3,8.339345E3,7.036676E4,1.499038E4,3.9891998E2,1.45734E3,1.3115739E4,3.90471E3,8.5325E1,6.3364998E1,4.2824997E1,2.20858E3,7.08535E2,9.4020496E2,8.4865E1,1.56861E3,2.62955E2,2.3120818E4,9.75E0,1.515E2,2.4595E1,2.589325E3,5.825E1,3.0958725E4,7.1039E2,4.15492E3,7.426E2,1.46501E3,3.246875E3,4.025E1,1.8014499E2,8.7466E2,7.025E1,3.8726498E2,2.2595E1,6.865E0,6E0,4.5491E2,4.2327E2,7E0,2.49525E2,3.5E0,6.865E0,2.5345E1,4.26555E2,2.996E1,6.5E0,1.8464499E2,1.8E1],"tree_param":{"num_deleted":"0","num_feature":"227","num_nodes":"121","size_leaf_vector":"0"}},{"base_weights":[-5.0898343E-6,-2.9852545E-1,1.3080856E0,1.0154648E0,-5.242891E-1,2.3719026E-1,1.5864203E0,2.958293E-1,1.2971294E0,-8.4839976E-1,5.491356E-1,9.869952E-1,-4.657556E-1,1.6245556E0,-5.5977285E-1,4.772127E-1,-1.0984169E0,5.751136E-1,1.4607656E0,-6.060671E-1,-1.3424406E0,9.2864555E-1,5.8672085E-2,1.0642239E0,-1.0175076E0,-8.663583E-1,9.2012775E-1,1.6437308E0,-4.8593994E-2,3.3031294E-1,-1.9112717E0,1.5308151E0,3.770428E-1,-3.063745E-1,-1.2708175E0,9.328671E-1,-3.4845462E-1,1.2709191E0,1.6983458E0,1.5019412E-1,-7.205952E-1,-1.377646E0,-4.0524805E-1,1.0208081E0,-3.5576975E-1,-3.4113315E-1,7.324076E-1,1.134844E0,-3.7883928E-1,-1.7983446E0,8.653497E-1,-1.7078948E-1,-1.1113541E0,-1.9944036E0,1.1727825E0,1.6849563E0,8.559868E-1,8.872288E-1,-1.9142677E0,-1.6437558E0,1.0505599E0,1.5542755E0,-1.6756619E0,-2.2375794E-1,6.627852E-1,6.0611534E-1,-1.8531498E0,-1.8683617E0,-1.1310968E0,5.6022775E-1,1.5733725E0,-1.1112673E0,8.535615E-1,1.3775998E0,8.0305886E-1,1.7035232E0,-1.9554921E0,-3.5789795E-2,1.4686632E0,1.3306574E0,-7.5819355E-1,-1.4514629E0,-1.1199939E0,1.2819085E-1,-1.7541249E0,6.315463E-1,1.2506465E0,6.074173E-1,-1.1472535E0,-5.96845E-1,8.6433806E-2,8.241577E-1,-1.9402586E0,1.0225885E-1,1.2213615E0,1.4624038E0,-7.525541E-1,-9.386947E-2,-2.0451126E0,-1.8510342E0,1.5398563E0,3.550802E-1,-1.279921E0,-8.072138E-1,-1.5499666E0,1.291245E0,-1.991591E0,1.3527256E0,1.7630856E0,-7.6644707E-1,1.0641955E0,-1.9416655E0,1.3294743E0,-1.9343895E0,1.601935E0,-8.264862E-1,1.4618391E0],"categories":[],"categories_nodes":[],"categories_segments":[],"categories_sizes":[],"default_left":[1,1,1,1,1,1,1,1,1,1,1,1,1,1,1,1,1,1,1,1,1,1,1,1,1,1,1,1,1,1,0,1,1,1,1,1,1,1,1,1,1,1,1,1,1,1,1,1,1,1,1,1,1,0,1,1,1,1,0,1,1,0,0,0,0,0,0,0,0,0,0,0,0,0,0,0,0,0,0,0,0,0,0,0,0,0,0,0,0,0,0,0,0,0,0,0,0,0,0,0,0,0,0,0,0,0,0,0,0,0,0,0,0,0,0,0,0],"id":1,"left_children":[1,3,5,7,9,11,13,15,17,19,21,23,25,27,29,31,33,35,37,39,41,43,45,47,49,51,53,55,57,59,-1,61,63,65,67,69,71,73,75,77,79,81,83,85,87,89,91,93,95,97,99,101,103,-1,105,107,109,111,-1,113,115,-1,-1,-1,-1,-1,-1,-1,-1,-1,-1,-1,-1,-1,-1,-1,-1,-1,-1,-1,-1,-1,-1,-1,-1,-1,-1,-1,-1,-1,-1,-1,-1,-1,-1,-1,-1,-1,-1,-1,-1,-1,-1,-1,-1,-1,-1,-1,-1,-1,-1,-1,-1,-1,-1,-1,-1],"loss_changes":[8.865341E4,5.48354E4,1.2573266E4,5.493297E3,5.4880984E4,4.5877607E3,2.7412344E3,1.9289263E3,2.3005312E3,1.4504875E4,6.809535E3,6.5306494E2,2.4951064E3,1.0555234E3,7.046993E2,7.116273E2,1.195166E2,1.1900015E3,7.140508E2,7.0409023E3,1.3149922E3,2.4418242E3,4.299326E3,4.1376172E2,2.3201917E2,5.938286E2,7.4455334E2,1.0548047E3,6.5419073E2,5.046705E2,0E0,4.6652588E1,1.0582952E3,2.245328E2,5.806848E1,6.186218E2,9.234017E2,4.3962402E2,1.3669922E2,2.6219507E3,5.4458594E3,7.292422E2,1.0399438E3,1.7209395E3,1.0539426E3,1.0952495E3,1.4592107E3,3.4533203E2,1.3182191E2,4.6549988E1,8.828044E1,5.307247E2,3.4260547E2,0E0,3.505011E2,7.998281E2,5.478949E2,3.148028E2,0E0,9.2665955E1,2.0175803E2,0E0,0E0,0E0,0E0,0E0,0E0,0E0,0E0,0E0,0E0,0E0,0E0,0E0,0E0,0E0,0E0,0E0,0E0,0E0,0E0,0E0,0E0,0E0,0E0,0E0,0E0,0E0,0E0,0E0,0E0,0E0,0E0,0E0,0E0,0E0,0E0,0E0,0E0,0E0,0E0,0E0,0E0,0E0,0E0,0E0,0E0,0E0,0E0,0E0,0E0,0E0,0E0,0E0,0E0,0E0,0E0],"parents":[2147483647,0,0,1,1,2,2,3,3,4,4,5,5,6,6,7,7,8,8,9,9,10,10,11,11,12,12,13,13,14,14,15,15,16,16,17,17,18,18,19,19,20,20,21,21,22,22,23,23,24,24,25,25,26,26,27,27,28,28,29,29,31,31,32,32,33,33,34,34,35,35,36,36,37,37,38,38,39,39,40,40,41,41,42,42,43,43,44,44,45,45,46,46,47,47,48,48,49,49,50,50,51,51,52,52,54,54,55,55,56,56,57,57,59,59,60,60],"right_children":[2,4,6,8,10,12,14,16,18,20,22,24,26,28,30,32,34,36,38,40,42,44,46,48,50,52,54,56,58,60,-1,62,64,66,68,70,72,74,76,78,80,82,84,86,88,90,92,94,96,98,100,102,104,-1,106,108,110,112,-1,114,116,-1,-1,-1,-1,-1,-1,-1,-1,-1,-1,-1,-1,-1,-1,-1,-1,-1,-1,-1,-1,-1,-1,-1,-1,-1,-1,-1,-1,-1,-1,-1,-1,-1,-1,-1,-1,-1,-1,-1,-1,-1,-1,-1,-1,-1,-1,-1,-1,-1,-1,-1,-1,-1,-1,-1,-1],"split_conditions":[1.5E0,5E-1,2.5E0,5E-1,1.18975E2,1.5E0,2.405E2,5E-1,3.110352E6,5E-1,3.35E1,2.5E0,2.5E0,1.35E1,5E-1,5E-1,3.091825E6,3.0745905E6,1.5E0,2.5E0,5.82E2,5E-1,3.34975E2,3.85E1,2.5E0,1.7976562E1,1.495E2,2.755E2,5.5E0,4.5E0,-1.9112717E-1,9.15E1,1.1675E2,9.5185E3,6.008E3,1.5E0,5E-1,1.5E0,3.5E0,2.5E0,-4.85E1,1.599375E2,2.25E1,3.4275E2,1.5E0,5E-1,2.75E1,1.45E1,5E-1,-3.25E1,2.5E0,2.25E1,1.0095E4,-1.9944036E-1,3.5E0,4.5E0,4.265E2,3.216866E6,-1.9142677E-1,3.865E2,3.17629E6,1.5542756E-1,-1.675662E-1,-2.2375794E-2,6.627852E-2,6.0611535E-2,-1.8531498E-1,-1.8683617E-1,-1.13109685E-1,5.6022774E-2,1.5733725E-1,-1.11126736E-1,8.535615E-2,1.3775998E-1,8.030589E-2,1.7035232E-1,-1.9554922E-1,-3.5789795E-3,1.4686632E-1,1.3306575E-1,-7.581936E-2,-1.451463E-1,-1.1199939E-1,1.2819084E-2,-1.7541249E-1,6.315463E-2,1.2506466E-1,6.074173E-2,-1.1472535E-1,-5.9684496E-2,8.64338E-3,8.2415774E-2,-1.9402586E-1,1.0225886E-2,1.2213615E-1,1.4624038E-1,-7.525542E-2,-9.386947E-3,-2.0451127E-1,-1.8510342E-1,1.5398563E-1,3.5508018E-2,-1.2799211E-1,-8.072138E-2,-1.5499666E-1,1.291245E-1,-1.991591E-1,1.3527256E-1,1.7630856E-1,-7.664471E-2,1.06419556E-1,-1.9416656E-1,1.3294743E-1,-1.9343895E-1,1.601935E-1,-8.264862E-2,1.4618391E-1],"split_indices":[21,27,14,17,211,26,29,18,0,114,29,99,186,33,188,3,0,0,14,32,5,135,220,28,23,2,6,26,174,14,0,28,2,4,4,14,59,3,182,89,225,2,31,211,29,40,146,13,69,225,24,31,4,0,184,14,23,0,0,32,0,0,0,0,0,0,0,0,0,0,0,0,0,0,0,0,0,0,0,0,0,0,0,0,0,0,0,0,0,0,0,0,0,0,0,0,0,0,0,0,0,0,0,0,0,0,0,0,0,0,0,0,0,0,0,0,0],"split_type":[0,0,0,0,0,0,0,0,0,0,0,0,0,0,0,0,0,0,0,0,0,0,0,0,0,0,0,0,0,0,0,0,0,0,0,0,0,0,0,0,0,0,0,0,0,0,0,0,0,0,0,0,0,0,0,0,0,0,0,0,0,0,0,0,0,0,0,0,0,0,0,0,0,0,0,0,0,0,0,0,0,0,0,0,0,0,0,0,0,0,0,0,0,0,0,0,0,0,0,0,0,0,0,0,0,0,0,0,0,0,0,0,0,0,0,0,0],"sum_hessian":[2.2702819E5,1.8484527E5,4.218291E4,2.710209E4,1.5774319E5,8.702361E3,3.348055E4,7.624364E3,1.9477727E4,1.21160195E5,3.658299E4,4.2106357E3,4.491725E3,3.2896266E4,5.8428455E2,6.747244E3,8.771199E2,3.599609E3,1.5878117E4,8.1289164E4,3.9871027E4,2.0623828E4,1.595916E4,4.05488E3,1.5575568E2,3.484789E3,1.0069362E3,3.2523547E4,3.7271982E2,3.527331E2,2.3155147E2,5.845521E2,6.162692E3,1.5728746E2,7.198324E2,2.594567E3,1.00504193E3,8.829197E3,7.04892E3,1.0691283E4,7.059788E4,3.8427055E4,1.4439706E3,1.9243244E4,1.3805831E3,1.0016001E4,5.9431587E3,3.8659055E3,1.8897444E2,1.10129074E2,4.562659E1,9.081509E2,2.5766382E3,7.977603E1,9.271602E2,3.0905033E4,1.6185127E3,2.485643E2,1.2415552E2,9.3950165E1,2.5878293E2,5.808178E2,3.7343063E0,1.9863718E3,4.1763203E3,9.930975E1,5.7977707E1,1.340724E2,5.8576E2,1.6414584E3,9.531086E2,6.14897E2,3.9014493E2,7.1882095E3,1.640988E3,7.039479E3,9.4409485E0,9.370455E3,1.3208282E3,1.270111E3,6.932777E4,2.9865893E4,8.561164E3,1.035405E3,4.0856555E2,7.145368E3,1.2097877E4,6.22848E2,7.577351E2,6.2673423E3,3.748659E3,5.7465757E3,1.965829E2,2.990411E2,3.5668645E3,3.1392859E1,1.5758157E2,1.4102267E1,9.602681E1,8.728949E0,3.6897644E1,6.165212E2,2.916297E2,1.5232408E3,1.0533972E3,8.9427386E2,3.2886353E1,5.887563E3,2.501747E4,1.8377713E2,1.4347355E3,3.314656E1,2.1541774E2,8.6599655E1,7.350509E0,4.6329445E1,2.1245348E2],"tree_param":{"num_deleted":"0","num_feature":"227","num_nodes":"117","size_leaf_vector":"0"}},{"base_weights":[1.3882986E-4,-2.7082533E-1,1.1993604E0,9.25633E-1,-4.7535944E-1,2.1515693E-1,1.4584252E0,2.6743323E-1,1.1859776E0,-7.4443513E-1,6.1500454E-1,8.962134E-1,-4.2225122E-1,1.4936346E0,-5.1182544E-1,4.3118477E-1,-1.0006552E0,5.220684E-1,1.3377832E0,4.6136263E-1,-8.375094E-1,3.3693567E-1,1.0241183E0,1.0713522E0,1.15721E-1,-9.038877E-1,5.274036E-1,1.5114082E0,-4.5110874E-2,3.0145985E-1,-1.7528036E0,1.4046881E0,3.401318E-1,-7.499538E-1,-1.489166E0,7.580528E-2,1.1826706E0,1.1582558E0,1.5648175E0,-2.6940078E-2,8.144586E-1,-6.303911E-1,-1.2401909E0,9.4588566E-1,4.9658865E-2,-3.7660983E-1,1.1035026E0,1.1571089E0,-1.00335136E-1,3.5915193E-1,-1.4533666E0,-1.2432278E0,-4.7824642E-1,-1.8564614E0,7.9957885E-1,1.550347E0,7.7700466E-1,8.0711466E-1,-1.7543368E0,-1.4993653E0,9.5849335E-1,1.4266902E0,-1.539911E0,-1.0621688E-1,6.659942E-1,-1.4836069E0,-3.7327725E-1,-6.479147E-1,-1.7667571E0,7.1169966E-1,-7.4552727E-1,1.2386032E0,-2.052355E0,1.2574863E0,7.266912E-1,1.5696708E0,-1.7698317E0,4.8741812E-1,-3.4163198E-1,1.1375806E0,5.629245E-1,-2.3349689E-1,-8.232359E-1,-1.4079169E0,-1.0938841E0,1.0189912E0,-7.330345E-1,-8.0975965E-2,1.4018345E0,-1.3446945E0,7.033593E-1,1.1546907E0,-7.9983747E-1,6.374907E-1,1.2792155E0,9.1404206E-1,-6.8711376E-1,-2.0289512E0,4.425852E-1,1.5094818E0,-1.6749833E0,-1.3187E0,4.482182E-1,6.24019E-2,-1.2802808E0,1.04502E0,-8.0593204E-1,1.230526E0,1.6265768E0,-6.8829364E-1,9.673135E-1,-1.98117E0,1.1953028E0,-1.7681445E0,1.4599272E0,-1.7740693E0,1.1998732E0],"categories":[],"categories_nodes":[],"categories_segments":[],"categories_sizes":[],"default_left":[1,1,1,1,1,1,1,1,1,1,1,1,1,1,1,1,1,1,1,1,1,1,1,1,1,1,1,1,1,1,0,1,1,1,1,1,1,1,1,1,1,1,1,1,1,1,1,1,1,1,1,1,1,0,1,1,1,1,0,1,1,0,0,0,0,0,0,0,0,0,0,0,0,0,0,0,0,0,0,0,0,0,0,0,0,0,0,0,0,0,0,0,0,0,0,0,0,0,0,0,0,0,0,0,0,0,0,0,0,0,0,0,0,0,0,0,0],"id":2,"left_children":[1,3,5,7,9,11,13,15,17,19,21,23,25,27,29,31,33,35,37,39,41,43,45,47,49,51,53,55,57,59,-1,61,63,65,67,69,71,73,75,77,79,81,83,85,87,89,91,93,95,97,99,101,103,-1,105,107,109,111,-1,113,115,-1,-1,-1,-1,-1,-1,-1,-1,-1,-1,-1,-1,-1,-1,-1,-1,-1,-1,-1,-1,-1,-1,-1,-1,-1,-1,-1,-1,-1,-1,-1,-1,-1,-1,-1,-1,-1,-1,-1,-1,-1,-1,-1,-1,-1,-1,-1,-1,-1,-1,-1,-1,-1,-1,-1,-1],"loss_changes":[7.3078414E4,4.4892383E4,1.0568125E4,4.5889863E3,4.5964133E4,3.7502893E3,2.277E3,1.5769453E3,1.9334414E3,1.41025625E4,3.5273213E3,5.707678E2,2.0416792E3,8.816953E2,5.826964E2,5.955886E2,1.0525714E2,1.0532571E3,6.347871E2,1.5526167E3,9.728281E3,3.2297861E3,1.3956367E3,3.4284058E2,2.9331006E2,4.271377E2,9.762613E2,9.101328E2,5.3902185E2,4.14742E2,0E0,3.9439453E1,8.9468054E2,1.5862686E2,6.740808E1,1.1148434E3,2.631925E2,3.7275977E2,1.1434766E2,6.1199493E2,4.241062E2,5.89584E3,9.7071484E2,7.271162E2,2.216218E3,7.0531445E2,1.1578545E3,2.0084619E2,1.3963397E2,1.3327484E2,7.025668E1,2.1085571E2,5.7040424E2,0E0,5.324698E2,7.357969E2,4.4868524E2,2.6967422E2,0E0,7.7163605E1,1.7134071E2,0E0,0E0,0E0,0E0,0E0,0E0,0E0,0E0,0E0,0E0,0E0,0E0,0E0,0E0,0E0,0E0,0E0,0E0,0E0,0E0,0E0,0E0,0E0,0E0,0E0,0E0,0E0,0E0,0E0,0E0,0E0,0E0,0E0,0E0,0E0,0E0,0E0,0E0,0E0,0E0,0E0,0E0,0E0,0E0,0E0,0E0,0E0,0E0,0E0,0E0,0E0,0E0,0E0,0E0,0E0,0E0],"parents":[2147483647,0,0,1,1,2,2,3,3,4,4,5,5,6,6,7,7,8,8,9,9,10,10,11,11,12,12,13,13,14,14,15,15,16,16,17,17,18,18,19,19,20,20,21,21,22,22,23,23,24,24,25,25,26,26,27,27,28,28,29,29,31,31,32,32,33,33,34,34,35,35,36,36,37,37,38,38,39,39,40,40,41,41,42,42,43,43,44,44,45,45,46,46,47,47,48,48,49,49,50,50,51,51,52,52,54,54,55,55,56,56,57,57,59,59,60,60],"right_children":[2,4,6,8,10,12,14,16,18,20,22,24,26,28,30,32,34,36,38,40,42,44,46,48,50,52,54,56,58,60,-1,62,64,66,68,70,72,74,76,78,80,82,84,86,88,90,92,94,96,98,100,102,104,-1,106,108,110,112,-1,114,116,-1,-1,-1,-1,-1,-1,-1,-1,-1,-1,-1,-1,-1,-1,-1,-1,-1,-1,-1,-1,-1,-1,-1,-1,-1,-1,-1,-1,-1,-1,-1,-1,-1,-1,-1,-1,-1,-1,-1,-1,-1,-1,-1,-1,-1,-1,-1,-1,-1,-1,-1,-1,-1,-1,-1,-1],"split_conditions":[1.5E0,5E-1,2.5E0,5E-1,2.68116E1,1.5E0,2.405E2,5E-1,3.110352E6,3.5E0,3.5E0,1.5E0,1.5E0,1.35E1,5E-1,5E-1,1.122E4,1.735E2,1.5E0,7.596875E1,5E-1,1.5E0,2.5E0,4.55E1,2.5E0,2.5E0,1.495E2,2.755E2,5.5E0,4.5E0,-1.7528036E-1,9.15E1,1.4075E2,6.163E3,1.095E2,3.059012E6,1.827705E1,1.5E0,3.5E0,1.5E0,1.5E0,1.5E0,6.890625E1,1.975E2,1.5E0,1.5E0,5E-1,3.111093E6,5E-1,1.245E2,3.0020475E6,2.5E0,1.875E2,-1.8564615E-1,1.29815E4,4.5E0,4.265E2,5E-1,-1.7543368E-1,3.865E2,3.0542595E6,1.4266902E-1,-1.539911E-1,-1.0621688E-2,6.659942E-2,-1.483607E-1,-3.7327725E-2,-6.479147E-2,-1.7667572E-1,7.1169965E-2,-7.455273E-2,1.2386032E-1,-2.0523551E-1,1.2574863E-1,7.266912E-2,1.5696709E-1,-1.7698316E-1,4.8741814E-2,-3.41632E-2,1.13758065E-1,5.6292452E-2,-2.334969E-2,-8.2323596E-2,-1.407917E-1,-1.0938841E-1,1.01899125E-1,-7.330345E-2,-8.0975965E-3,1.4018345E-1,-1.3446945E-1,7.033593E-2,1.15469076E-1,-7.998375E-2,6.374907E-2,1.2792155E-1,9.140421E-2,-6.871138E-2,-2.0289512E-1,4.425852E-2,1.5094818E-1,-1.6749834E-1,-1.3187E-1,4.482182E-2,6.24019E-3,-1.2802808E-1,1.04502E-1,-8.0593206E-2,1.230526E-1,1.6265768E-1,-6.8829365E-2,9.673136E-2,-1.98117E-1,1.1953028E-1,-1.7681445E-1,1.4599273E-1,-1.7740694E-1,1.19987324E-1],"split_indices":[21,27,14,17,220,26,29,18,0,29,186,182,186,33,188,3,4,6,14,2,114,9,3,31,122,21,6,26,174,14,0,28,2,4,8,0,223,3,182,26,9,9,2,29,119,25,113,0,27,5,0,19,28,0,4,14,23,79,0,32,0,0,0,0,0,0,0,0,0,0,0,0,0,0,0,0,0,0,0,0,0,0,0,0,0,0,0,0,0,0,0,0,0,0,0,0,0,0,0,0,0,0,0,0,0,0,0,0,0,0,0,0,0,0,0,0,0],"split_type":[0,0,0,0,0,0,0,0,0,0,0,0,0,0,0,0,0,0,0,0,0,0,0,0,0,0,0,0,0,0,0,0,0,0,0,0,0,0,0,0,0,0,0,0,0,0,0,0,0,0,0,0,0,0,0,0,0,0,0,0,0,0,0,0,0,0,0,0,0,0,0,0,0,0,0,0,0,0,0,0,0,0,0,0,0,0,0,0,0,0,0,0,0,0,0,0,0,0,0,0,0,0,0,0,0,0,0,0,0,0,0,0,0,0,0,0,0],"sum_hessian":[2.2489202E5,1.8344367E5,4.1448336E4,2.678085E4,1.5666283E5,8.63714E3,3.2811195E4,7.591116E3,1.9189732E4,1.256546E5,3.1008227E4,4.1754053E3,4.461734E3,3.2235373E4,5.7582135E2,6.7235474E3,8.6756903E2,3.5720598E3,1.5617673E4,9.003845E3,1.1665076E5,1.8461814E4,1.2546412E4,3.409873E3,7.655322E2,2.9603708E3,1.5013632E3,3.1867303E4,3.6807108E2,3.4831036E2,2.2751099E2,5.738404E2,6.149707E3,5.750112E2,2.925578E2,2.132551E3,1.4395087E3,8.724712E3,6.892961E3,3.7788833E3,5.224961E3,7.703206E4,3.9618695E4,5.917021E3,1.2544793E4,6.727137E2,1.1873698E4,3.177334E3,2.3253908E2,6.633847E2,1.02147514E2,1.6461033E3,1.3142676E3,1.5325432E2,1.3481088E3,3.0261688E4,1.6056146E3,2.4596161E2,1.2210946E2,9.276743E1,2.5554292E2,5.7009607E2,3.7442906E0,2.595376E3,3.5543308E3,1.9407417E2,3.8093704E2,7.3412445E1,2.1914536E2,1.2020387E3,9.305124E2,1.4156497E3,2.3859034E1,7.092097E3,1.6326149E3,6.883472E3,9.488798E0,1.434185E3,2.3446982E3,2.2854885E3,2.9394724E3,2.5190225E4,5.184184E4,1.8454186E4,2.1164508E4,5.670502E3,2.4651895E2,1.1440461E4,1.1043325E3,3.5460263E2,3.1811102E2,1.1563115E4,3.1058255E2,6.057626E2,2.5715715E3,8.501465E1,1.4752443E2,2.1607147E1,6.417775E2,6.7043343E0,9.544318E1,1.5760026E3,7.010072E1,7.856118E2,5.2865576E2,1.1696488E3,1.7845996E2,5.827914E3,2.4433773E4,1.8426155E2,1.421353E3,2.9556812E1,2.164048E2,8.541233E1,7.3551025E0,2.022575E1,2.3531718E2],"tree_param":{"num_deleted":"0","num_feature":"227","num_nodes":"117","size_leaf_vector":"0"}},{"base_weights":[3.496275E-4,-2.465053E-1,1.1101114E0,7.922621E-3,-1.0538373E0,1.9600026E-1,1.3552798E0,9.044322E-1,-1.946819E-1,-1.136674E0,-3.7611908E-1,8.176084E-1,-3.845224E-1,1.3881408E0,-4.738358E-1,6.758771E-1,1.3407087E0,4.701535E-1,-5.6202084E-1,-1.2226819E0,-8.8973355E-1,4.968363E-1,-5.853021E-1,8.9730066E-1,-6.569624E-1,-7.192556E-1,7.8404146E-1,1.4262487E0,7.2626257E-1,2.768208E-1,-1.6315601E0,2.146703E-3,8.473785E-1,1.4130336E0,4.774752E-1,1.4008097E-1,8.6599296E-1,-1.770418E-1,-7.6888245E-1,-1.2475281E0,-3.268084E-1,-9.2116845E-1,2.6270622E-1,-1.104144E-1,1.1545728E0,-7.1078175E-1,1.4195057E0,1.2528849E0,6.465935E-1,-1.8781384E0,1.2135133E-1,-5.8106524E-1,-1.6514047E0,-1.673297E0,9.949098E-1,1.0732424E0,1.5143481E0,4.0518072E-1,1.4400227E0,-1.3887095E0,8.794003E-1,-3.245247E-1,8.8500375E-1,1.1285843E0,4.894961E-1,9.1287863E-1,1.4925902E0,8.1650776E-1,-5.472509E-1,6.5714204E-1,-5.394712E-2,5.439612E-1,1.0985706E0,3.9289778E-1,-6.571408E-1,-9.0188354E-1,-2.8847426E-1,-1.2734969E0,-6.572167E-1,2.4326664E-1,-1.6125126E0,-7.7338064E-1,-1.1662881E0,1.0134665E0,-9.5921934E-1,-1.0935405E0,3.6771175E-1,-1.1283102E0,1.3804032E0,-4.8260793E-1,-1.4362879E0,1.6464425E0,-1.6730111E0,1.290181E0,-4.823607E-1,1.2624216E-1,9.707734E-1,1.1265813E0,-1.150658E0,-3.1581542E-1,-1.2054348E0,-1.7120104E0,8.436159E-1,1.1034921E0,-1.8511142E0,1.2092905E0,-1.0415943E0,1.5169692E0,-1.8321213E0,-4.212592E-1,7.4539924E-1,-1.8253013E0,1.4834715E0,-1.6415199E0,1.3444295E0,1.1103388E0,-1.7035836E0],"categories":[],"categories_nodes":[],"categories_segments":[],"categories_sizes":[],"default_left":[1,1,1,1,1,1,1,1,1,1,1,1,1,1,1,1,1,1,1,1,1,1,1,1,1,1,1,1,1,1,0,1,1,1,1,1,1,1,1,1,1,1,1,1,1,1,1,1,1,0,1,1,1,0,1,1,1,1,1,1,1,0,0,0,0,0,0,0,0,0,0,0,0,0,0,0,0,0,0,0,0,0,0,0,0,0,0,0,0,0,0,0,0,0,0,0,0,0,0,0,0,0,0,0,0,0,0,0,0,0,0,0,0,0,0,0,0],"id":3,"left_children":[1,3,5,7,9,11,13,15,17,19,21,23,25,27,29,31,33,35,37,39,41,43,45,47,49,51,53,55,57,59,-1,61,63,65,67,69,71,73,75,77,79,81,83,85,87,89,91,93,95,-1,97,99,101,-1,103,105,107,109,111,113,115,-1,-1,-1,-1,-1,-1,-1,-1,-1,-1,-1,-1,-1,-1,-1,-1,-1,-1,-1,-1,-1,-1,-1,-1,-1,-1,-1,-1,-1,-1,-1,-1,-1,-1,-1,-1,-1,-1,-1,-1,-1,-1,-1,-1,-1,-1,-1,-1,-1,-1,-1,-1,-1,-1,-1,-1],"loss_changes":[6.077448E4,3.727686E4,9.046594E3,2.5064457E4,2.4409414E3,3.081416E3,1.9138789E3,2.5354688E3,2.748855E4,8.219219E2,8.654748E2,4.8515552E2,1.7278066E3,7.8765625E2,4.892974E2,1.9289312E3,5.452158E2,5.2336504E3,5.7734746E3,6.392617E2,3.6300684E2,3.6615186E2,9.626155E2,3.4798364E2,2.0173026E2,4.412611E2,5.11399E2,9.1785156E2,3.9001147E2,3.4455704E2,0E0,9.7749097E2,1.338624E3,3.196338E2,2.3580228E2,2.1915867E3,1.3635889E3,6.9343164E3,3.0129238E3,4.278086E2,5.6978625E2,3.5222656E2,2.4560536E2,2.2481029E2,2.2839978E2,5.9493225E2,1.6100555E2,1.0525903E2,3.873081E2,0E0,1.6805984E2,4.950243E2,6.83844E1,0E0,2.822057E2,1.7012202E3,2.1029688E2,3.3123157E2,7.767688E1,6.527475E1,1.5210745E2,0E0,0E0,0E0,0E0,0E0,0E0,0E0,0E0,0E0,0E0,0E0,0E0,0E0,0E0,0E0,0E0,0E0,0E0,0E0,0E0,0E0,0E0,0E0,0E0,0E0,0E0,0E0,0E0,0E0,0E0,0E0,0E0,0E0,0E0,0E0,0E0,0E0,0E0,0E0,0E0,0E0,0E0,0E0,0E0,0E0,0E0,0E0,0E0,0E0,0E0,0E0,0E0,0E0,0E0,0E0,0E0],"parents":[2147483647,0,0,1,1,2,2,3,3,4,4,5,5,6,6,7,7,8,8,9,9,10,10,11,11,12,12,13,13,14,14,15,15,16,16,17,17,18,18,19,19,20,20,21,21,22,22,23,23,24,24,25,25,26,26,27,27,28,28,29,29,31,31,32,32,33,33,34,34,35,35,36,36,37,37,38,38,39,39,40,40,41,41,42,42,43,43,44,44,45,45,46,46,47,47,48,48,50,50,51,51,52,52,54,54,55,55,56,56,57,57,58,58,59,59,60,60],"right_children":[2,4,6,8,10,12,14,16,18,20,22,24,26,28,30,32,34,36,38,40,42,44,46,48,50,52,54,56,58,60,-1,62,64,66,68,70,72,74,76,78,80,82,84,86,88,90,92,94,96,-1,98,100,102,-1,104,106,108,110,112,114,116,-1,-1,-1,-1,-1,-1,-1,-1,-1,-1,-1,-1,-1,-1,-1,-1,-1,-1,-1,-1,-1,-1,-1,-1,-1,-1,-1,-1,-1,-1,-1,-1,-1,-1,-1,-1,-1,-1,-1,-1,-1,-1,-1,-1,-1,-1,-1,-1,-1,-1,-1,-1,-1,-1,-1,-1],"split_conditions":[1.5E0,5E-1,2.5E0,5E-1,6.490625E1,1.5E0,2.405E2,1.5E0,3.5E0,1.599375E2,3.5E0,2.5E0,2.5E0,1.785E2,5E-1,3.1100925E6,3.5E0,6.715625E1,1.5E0,5.82E2,5E-1,2.5E0,3.69925E2,5E-1,5E-1,5.455E2,1.495E2,4.5E0,1.5E0,4.5E0,-1.6315602E-1,1.84E2,1.5E0,5E-1,1.5E0,1.5E0,3.4275E2,4.55E1,1.5E0,2.5475E1,2.25E1,1.12795E4,5.5E0,3.2558245E6,1.074375E2,9.5E0,6.9742505E2,3.8E1,1.5E0,-1.8781385E-1,1.875E2,1.25475E4,1.5E0,-1.6732971E-1,3.5E0,1.94E2,5.485E2,1.2025E3,1.35E2,3.865E2,1.45E1,-3.245247E-2,8.850037E-2,1.1285843E-1,4.894961E-2,9.1287866E-2,1.4925902E-1,8.165078E-2,-5.4725092E-2,6.57142E-2,-5.394712E-3,5.4396123E-2,1.0985706E-1,3.928978E-2,-6.571408E-2,-9.0188354E-2,-2.8847426E-2,-1.2734969E-1,-6.5721676E-2,2.4326665E-2,-1.6125126E-1,-7.733806E-2,-1.1662882E-1,1.0134665E-1,-9.592193E-2,-1.0935406E-1,3.6771175E-2,-1.1283102E-1,1.3804032E-1,-4.8260793E-2,-1.4362879E-1,1.6464426E-1,-1.673011E-1,1.2901811E-1,-4.823607E-2,1.2624216E-2,9.707734E-2,1.12658136E-1,-1.15065806E-1,-3.1581543E-2,-1.2054348E-1,-1.7120104E-1,8.436159E-2,1.10349216E-1,-1.8511142E-1,1.20929055E-1,-1.0415943E-1,1.5169692E-1,-1.8321213E-1,-4.212592E-2,7.453992E-2,-1.8253013E-1,1.4834715E-1,-1.64152E-1,1.3444296E-1,1.1103388E-1,-1.7035836E-1],"split_indices":[21,135,14,27,215,26,29,14,30,2,35,196,186,26,188,0,3,218,9,5,40,24,180,27,3,5,6,14,89,14,0,6,3,226,89,9,211,35,24,220,31,4,26,0,217,19,180,28,24,0,8,4,158,0,184,31,35,14,20,32,27,0,0,0,0,0,0,0,0,0,0,0,0,0,0,0,0,0,0,0,0,0,0,0,0,0,0,0,0,0,0,0,0,0,0,0,0,0,0,0,0,0,0,0,0,0,0,0,0,0,0,0,0,0,0,0,0],"split_type":[0,0,0,0,0,0,0,0,0,0,0,0,0,0,0,0,0,0,0,0,0,0,0,0,0,0,0,0,0,0,0,0,0,0,0,0,0,0,0,0,0,0,0,0,0,0,0,0,0,0,0,0,0,0,0,0,0,0,0,0,0,0,0,0,0,0,0,0,0,0,0,0,0,0,0,0,0,0,0,0,0,0,0,0,0,0,0,0,0,0,0,0,0,0,0,0,0,0,0,0,0,0,0,0,0,0,0,0,0,0,0,0,0,0,0,0,0],"sum_hessian":[2.2184302E5,1.8147628E5,4.036673E4,1.3799016E5,4.3486137E4,8.537275E3,3.1829455E4,2.5435693E4,1.1255446E5,3.874919E4,4.736945E3,4.1225503E3,4.414725E3,3.1267951E4,5.615037E2,1.6693113E4,8.74258E3,4.005673E4,7.249773E4,2.8736488E4,1.0012701E4,9.1541046E2,3.8215344E3,3.911545E3,2.110055E2,3.4320146E3,9.8271063E2,2.9564602E4,1.703349E3,3.4109933E2,2.2040442E2,3.387314E3,1.3305799E4,8.0661333E3,6.764466E2,2.1843654E4,1.8213078E4,2.534024E4,4.715749E4,2.7960635E4,7.758547E2,9.747034E3,2.6566708E2,4.7640497E2,4.3900546E2,3.5970435E3,2.2449115E2,1.6158076E3,2.2957373E3,8.1585144E1,1.2942035E2,2.9903245E3,4.416901E2,7.711552E1,9.055951E2,5.907395E3,2.3657207E4,1.1759298E3,5.274191E2,9.027488E1,2.5082445E2,2.4729243E3,9.1438965E2,7.449896E3,5.8559033E3,1.108666E3,6.9574673E3,5.084336E2,1.6801302E2,5.959617E3,1.5884037E4,7.639125E3,1.0573952E4,1.1586156E4,1.3754084E4,3.6931984E4,1.0225503E4,2.6781324E4,1.17931E3,5.3808234E2,2.3777232E2,6.083388E3,3.6636462E3,1.6466579E2,1.01001305E2,1.5545999E2,3.2094498E2,3.9158836E1,3.9984665E2,2.7376953E3,8.593479E2,2.0957928E2,1.4911862E1,1.5820603E3,3.374726E1,8.8177E2,1.4139673E3,7.235486E1,5.70655E1,2.0997832E3,8.9054126E2,4.31522E2,1.016811E1,8.729041E2,3.2691013E1,5.550742E3,3.5665283E2,2.3639238E4,1.7968704E1,3.4285275E2,8.330771E2,6.3872204E0,5.210319E2,8.2997185E1,7.2776885E0,2.3076263E2,2.0061804E1],"tree_param":{"num_deleted":"0","num_feature":"227","num_nodes":"117","size_leaf_vector":"0"}},{"base_weights":[5.409E-4,-2.2500707E-1,1.0346342E0,7.3793945E-3,-9.730384E-1,1.7920005E-1,1.2694387E0,8.328114E-1,-1.7656405E-1,-1.0202441E0,1.02881186E-1,7.4882233E-1,-3.5107237E-1,1.3003411E0,-4.4264892E-1,3.3181548E-1,1.0141742E0,-4.6113408E-1,5.393848E-1,-1.0553644E0,-2.7966163E-1,-8.172238E-1,3.2726562E-1,9.050769E-1,6.2174216E-2,-7.601086E-1,4.590164E-1,1.3178321E0,-1.5603969E-1,2.5569677E-1,-1.536063E0,2.0548894E-1,9.2101884E-1,4.2696923E-1,1.1524041E0,-5.9932196E-1,5.3177208E-2,8.0366564E-1,1.6432863E-1,-1.136976E0,-8.212471E-1,-5.942706E-1,1.1701376E0,-1.6980916E0,-4.0150118E-1,-6.965074E-1,5.1149535E-1,9.856906E-1,-1.7574406E-1,4.9739835E-1,-6.281513E-1,-1.0749875E0,-3.711692E-1,-1.6182148E0,6.8992877E-1,1.3550775E0,6.4585805E-1,6.350527E-1,-1.7025574E0,-1.301195E0,8.107819E-1,3.3472177E-1,-6.1360204E-1,1.1417927E0,1.8572824E-1,7.204843E-1,-3.8751715E-1,9.834602E-1,1.3733635E0,-1.0183692E0,-4.4048205E-1,8.5145205E-1,-3.5039502E-1,4.9298516E-1,9.9228066E-1,-1.5528022E-1,6.270564E-1,-9.046272E-1,-1.2085258E0,-7.2137976E-1,-1.2168825E0,-9.581894E-1,4.049551E-1,-1.6748196E0,1.5313346E0,9.511597E-2,-1.65808E0,3.8930617E-2,-1.7714071E0,6.978702E-1,-4.6714243E-1,1.3909833E-1,1.0545962E0,7.476403E-1,-6.894837E-1,6.1191183E-1,-2.1471057E0,-1.3525904E0,3.378508E-1,-1.1458086E0,4.668395E-1,1.1901795E-1,-1.1140848E0,-5.4132634E-1,9.415294E-1,1.044276E0,1.4321678E0,1.1671324E0,2.5975907E-1,-1.7948151E0,1.0267171E0,-1.5420777E0,1.2479683E0,-7.6600367E-1,1.1665655E0],"categories":[],"categories_nodes":[],"categories_segments":[],"categories_sizes":[],"default_left":[1,1,1,1,1,1,1,1,1,1,1,1,1,1,1,1,1,1,1,1,1,1,1,1,1,1,1,1,1,1,0,1,1,1,1,1,1,1,1,1,1,1,1,0,1,1,1,1,1,1,1,1,1,0,1,1,1,1,0,1,1,0,0,0,0,0,0,0,0,0,0,0,0,0,0,0,0,0,0,0,0,0,0,0,0,0,0,0,0,0,0,0,0,0,0,0,0,0,0,0,0,0,0,0,0,0,0,0,0,0,0,0,0,0,0],"id":4,"left_children":[1,3,5,7,9,11,13,15,17,19,21,23,25,27,29,31,33,35,37,39,41,43,45,47,49,51,53,55,57,59,-1,61,63,65,67,69,71,73,75,77,79,81,83,-1,85,87,89,91,93,95,97,99,101,-1,103,105,107,109,-1,111,113,-1,-1,-1,-1,-1,-1,-1,-1,-1,-1,-1,-1,-1,-1,-1,-1,-1,-1,-1,-1,-1,-1,-1,-1,-1,-1,-1,-1,-1,-1,-1,-1,-1,-1,-1,-1,-1,-1,-1,-1,-1,-1,-1,-1,-1,-1,-1,-1,-1,-1,-1,-1,-1,-1],"loss_changes":[5.0882234E4,3.1132287E4,7.8458477E3,2.0747262E4,2.1561328E3,2.5417644E3,1.6221641E3,2.2622695E3,2.2766682E4,1.0574062E3,3.6881845E2,4.352085E2,1.4444661E3,7.671211E2,4.1589243E2,4.9255273E2,1.4834902E3,5.6830586E3,3.1501982E3,7.408789E2,8.411121E2,1.2758598E2,2.7117114E2,2.8810938E2,2.2658319E2,3.543119E2,7.027959E2,7.436797E2,4.392885E2,2.8876715E2,0E0,5.7737665E2,1.8946997E2,8.33485E2,5.5106445E2,4.194748E3,5.4562534E3,1.0920684E3,1.9432897E3,4.7746484E2,3.957827E2,5.511739E2,3.405148E2,0E0,1.4947366E2,1.7351085E2,2.2238065E2,1.7926123E2,1.09729126E2,1.4136154E2,2.0455948E2,1.7524792E2,4.7257074E2,0E0,4.0856567E2,6.7383203E2,3.1451532E2,2.2805173E2,0E0,5.5889816E1,1.3891835E2,0E0,0E0,0E0,0E0,0E0,0E0,0E0,0E0,0E0,0E0,0E0,0E0,0E0,0E0,0E0,0E0,0E0,0E0,0E0,0E0,0E0,0E0,0E0,0E0,0E0,0E0,0E0,0E0,0E0,0E0,0E0,0E0,0E0,0E0,0E0,0E0,0E0,0E0,0E0,0E0,0E0,0E0,0E0,0E0,0E0,0E0,0E0,0E0,0E0,0E0,0E0,0E0,0E0,0E0],"parents":[2147483647,0,0,1,1,2,2,3,3,4,4,5,5,6,6,7,7,8,8,9,9,10,10,11,11,12,12,13,13,14,14,15,15,16,16,17,17,18,18,19,19,20,20,21,21,22,22,23,23,24,24,25,25,26,26,27,27,28,28,29,29,31,31,32,32,33,33,34,34,35,35,36,36,37,37,38,38,39,39,40,40,41,41,42,42,44,44,45,45,46,46,47,47,48,48,49,49,50,50,51,51,52,52,54,54,55,55,56,56,57,57,59,59,60,60],"right_children":[2,4,6,8,10,12,14,16,18,20,22,24,26,28,30,32,34,36,38,40,42,44,46,48,50,52,54,56,58,60,-1,62,64,66,68,70,72,74,76,78,80,82,84,-1,86,88,90,92,94,96,98,100,102,-1,104,106,108,110,-1,112,114,-1,-1,-1,-1,-1,-1,-1,-1,-1,-1,-1,-1,-1,-1,-1,-1,-1,-1,-1,-1,-1,-1,-1,-1,-1,-1,-1,-1,-1,-1,-1,-1,-1,-1,-1,-1,-1,-1,-1,-1,-1,-1,-1,-1,-1,-1,-1,-1,-1,-1,-1,-1,-1,-1],"split_conditions":[1.5E0,5E-1,2.5E0,5E-1,5.978125E1,1.5E0,2.405E2,5E-1,1.18384E2,2.9975E1,5.946875E1,1.5E0,1.5E0,1.35E1,5E-1,1.5E0,3.110352E6,1.5E0,3.35E1,1.57875E2,5.265E2,3.07E2,3.1579725E6,4.55E1,5E-1,2.5E0,1.495E2,2.755E2,5.5E0,4.5E0,-1.536063E-1,1.05E1,1.5E0,3.076543E6,1.5E0,3.1069065E6,2.5E0,3.4275E2,3.345E2,5E-1,3.635E2,3.3735965E6,9.408E3,-1.6980916E-1,4.65E1,3.1245E2,1.3555E4,1.45E1,5E-1,5.585E2,1.5E0,2.5E0,1.875E2,-1.6182148E-1,3.1188885E6,4.5E0,3.5E0,3.216866E6,-1.7025575E-1,3.865E2,3.17629E6,3.3472177E-2,-6.1360206E-2,1.1417927E-1,1.8572824E-2,7.204843E-2,-3.8751718E-2,9.834602E-2,1.3733636E-1,-1.0183692E-1,-4.4048205E-2,8.5145205E-2,-3.5039503E-2,4.9298517E-2,9.922807E-2,-1.5528022E-2,6.270564E-2,-9.046272E-2,-1.2085258E-1,-7.2137974E-2,-1.2168825E-1,-9.5818944E-2,4.049551E-2,-1.6748196E-1,1.5313347E-1,9.5115965E-3,-1.65808E-1,3.8930618E-3,-1.7714071E-1,6.978702E-2,-4.6714243E-2,1.39098335E-2,1.0545962E-1,7.4764036E-2,-6.894837E-2,6.1191183E-2,-2.1471058E-1,-1.3525905E-1,3.3785082E-2,-1.1458086E-1,4.668395E-2,1.1901795E-2,-1.1140849E-1,-5.4132637E-2,9.415294E-2,1.044276E-1,1.4321677E-1,1.1671324E-1,2.5975907E-2,-1.794815E-1,1.02671705E-1,-1.5420777E-1,1.2479683E-1,-7.6600365E-2,1.1665656E-1],"split_indices":[21,135,14,27,212,26,29,17,211,177,2,182,186,33,188,15,0,24,29,2,33,5,0,31,115,21,6,26,174,14,0,33,122,0,14,0,26,211,220,93,35,0,4,0,34,210,4,13,27,5,20,19,28,0,0,14,32,0,0,32,0,0,0,0,0,0,0,0,0,0,0,0,0,0,0,0,0,0,0,0,0,0,0,0,0,0,0,0,0,0,0,0,0,0,0,0,0,0,0,0,0,0,0,0,0,0,0,0,0,0,0,0,0,0,0],"split_type":[0,0,0,0,0,0,0,0,0,0,0,0,0,0,0,0,0,0,0,0,0,0,0,0,0,0,0,0,0,0,0,0,0,0,0,0,0,0,0,0,0,0,0,0,0,0,0,0,0,0,0,0,0,0,0,0,0,0,0,0,0,0,0,0,0,0,0,0,0,0,0,0,0,0,0,0,0,0,0,0,0,0,0,0,0,0,0,0,0,0,0,0,0,0,0,0,0,0,0,0,0,0,0,0,0,0,0,0,0,0,0,0,0,0,0],"sum_hessian":[2.1815416E5,1.790927E5,3.9061453E4,1.3664347E5,4.2449234E4,8.413036E3,3.0648416E4,2.4900568E4,1.1174291E5,4.0665113E4,1.7841205E3,4.055827E3,4.3572095E3,3.010527E4,5.431461E2,6.6190254E3,1.8281543E4,7.996097E4,3.1781936E4,3.882358E4,1.8415348E3,3.492702E2,1.4348502E3,3.3037114E3,7.521154E2,2.895336E3,1.4618734E3,2.9748092E4,3.5717685E2,3.3192023E2,2.1122589E2,5.45155E3,1.167476E3,3.4842825E3,1.479726E4,6.3026504E4,1.6934463E4,1.864366E4,1.3138276E4,2.878534E4,1.0038238E4,1.5136583E3,3.2787637E2,1.1099661E2,2.3827359E2,2.1840167E2,1.2164486E3,3.074487E3,2.2922435E2,4.614611E2,2.906543E2,1.5990264E3,1.2963094E3,1.4564836E2,1.3162251E3,2.8184883E4,1.5632108E3,2.3669122E2,1.2048563E2,8.688441E1,2.4503583E2,4.7091504E3,7.423993E2,8.9745795E2,2.7001804E2,2.5613635E3,9.229188E2,8.388743E3,6.4085166E3,1.7322184E4,4.5704324E4,5.686107E3,1.1248355E4,7.044236E3,1.1599424E4,7.771275E3,5.3670015E3,6.7804146E3,2.2004926E4,8.01731E3,2.0209279E3,1.1095869E3,4.0407144E2,3.6527977E1,2.913484E2,1.7144176E2,6.6831825E1,1.3024966E2,8.815201E1,1.0220862E3,1.9436238E2,2.3163074E2,2.8428564E3,8.1779816E1,1.4744453E2,4.4304477E2,1.841631E1,1.6586562E2,1.2478869E2,1.5290491E3,6.9977356E1,7.815021E2,5.148074E2,2.2313249E2,1.0930925E3,5.604404E3,2.2580479E4,6.643055E2,8.9890533E2,3.2358437E1,2.043328E2,7.974407E1,7.140335E0,4.4898533E1,2.001373E2],"tree_param":{"num_deleted":"0","num_feature":"227","num_nodes":"115","size_leaf_vector":"0"}},{"base_weights":[7.4452563E-4,-1.8560493E-1,1.0786717E0,7.6596314E-1,-3.5485163E-1,1.1645746E0,-3.0983144E-1,2.2202341E-1,9.7347534E-1,-5.68897E-1,4.8228386E-1,6.697319E-1,1.3055255E0,-7.382233E-1,4.2005426E-1,3.4267431E-1,-7.743939E-1,7.134151E-1,1.2825685E0,3.464118E-1,-6.4422065E-1,8.680644E-1,2.851336E-1,1.0710602E0,1.207473E-1,1.3693854E0,7.337788E-1,-9.8493314E-1,1.8395609E-1,7.695588E-1,-9.718631E-1,1.2447448E0,2.4416399E-1,-2.2289837E-2,-9.421286E-1,6.073573E-2,9.0192086E-1,8.9215237E-1,1.3472028E0,-5.5531695E-2,6.442169E-1,-7.322157E-1,7.483492E-2,-2.1133108E-1,1.024878E0,1.02779225E-1,7.8010815E-1,1.0998353E0,-1.3662491E0,-9.3375504E-1,5.114929E-1,1.372958E0,-1.5061432E0,4.254764E-1,1.3218381E0,5.4247534E-1,-1.1191148E0,8.6510783E-1,-1.3319788E0,9.951056E-1,-1.1356536E0,1.3488889E0,-1.4632305E0,1.2638695E0,-1.5506984E0,-1.4368226E-1,5.665537E-1,8.0110025E-1,-1.5233212E0,-1.5649964E0,-8.055792E-1,-3.7352484E-1,7.8226715E-1,-1.7023967E-1,9.557494E-1,-1.403124E-1,1.1826478E0,1.2246739E0,1.4249014E0,5.0004864E-1,-3.0628756E-1,9.901361E-1,3.739775E-1,-8.683007E-1,-3.7732828E-1,1.4603543E0,-5.8768433E-2,-5.938088E-1,7.824634E-1,1.192398E0,5.36144E-1,-1.6479791E-3,1.2793026E0,8.143895E-1,-2.486364E0,3.498165E-1,1.1858809E0,-1.9467845E0,1.4133532E0,-8.485701E-4,-1.3964471E0,1.2317166E-1,1.2007854E0,1.207968E0,1.4032393E0,1.2259719E0,-2.3410559E0,-1.2536498E0,5.4224503E-1,-1.9259638E0,1.3554093E0,2.2607026E0,-1.6642749E0,-5.834706E-1,-1.4471335E0,-1.0234482E0,1.2560707E0,1.1616127E0,-1.6722107E0,1.155443E0,-9.3228227E-1,-2.3360124E0,3.905373E-1,-1.045067E-1,-1.7853886E0],"categories":[],"categories_nodes":[],"categories_segments":[],"categories_sizes":[],"default_left":[1,1,1,1,1,1,1,1,1,1,1,1,1,1,1,1,1,1,1,1,1,1,1,1,1,1,1,1,1,1,1,1,1,1,1,1,1,1,1,1,1,1,1,1,1,1,1,1,1,1,1,1,1,1,1,1,1,1,1,1,1,0,1,0,0,0,0,0,0,0,0,0,0,0,0,0,0,0,0,0,0,0,0,0,0,0,0,0,0,0,0,0,0,0,0,0,0,0,0,0,0,0,0,0,0,0,0,0,0,0,0,0,0,0,0,0,0,0,0,0,0,0,0,0,0],"id":5,"left_children":[1,3,5,7,9,11,13,15,17,19,21,23,25,27,29,31,33,35,37,39,41,43,45,47,49,51,53,55,57,59,61,63,65,67,69,71,73,75,77,79,81,83,85,87,89,91,93,95,97,99,101,103,105,107,109,111,113,115,117,119,121,-1,123,-1,-1,-1,-1,-1,-1,-1,-1,-1,-1,-1,-1,-1,-1,-1,-1,-1,-1,-1,-1,-1,-1,-1,-1,-1,-1,-1,-1,-1,-1,-1,-1,-1,-1,-1,-1,-1,-1,-1,-1,-1,-1,-1,-1,-1,-1,-1,-1,-1,-1,-1,-1,-1,-1,-1,-1,-1,-1,-1,-1,-1,-1],"loss_changes":[4.3009695E4,2.9400871E4,3.7647148E3,3.11137E3,2.7772176E4,2.0721445E3,5.754967E2,9.155911E2,1.6030469E3,8.510094E3,2.4001196E3,1.4520303E3,8.435508E2,2.63992E2,3.3204236E2,6.0327203E2,1.0375986E2,1.3334834E3,2.2883789E2,1.1235278E3,7.2161406E3,1.8068267E3,1.8852754E3,2.685332E2,1.1478518E3,2.158125E2,4.2117188E2,1.8813062E2,2.5473578E2,2.3527386E2,1.5833662E2,3.7697754E1,7.6590173E2,1.8789195E2,5.5946716E1,7.616896E2,4.855166E2,3.894132E2,7.2700195E1,5.5677594E2,5.0362402E2,4.9069766E3,2.3020562E3,5.1540967E2,7.6238184E2,1.8755337E3,6.3172876E2,2.4247021E2,7.516033E1,3.2512305E2,5.438553E2,1.0213281E2,6.285047E1,3.001873E2,8.97937E1,2.864791E2,1.4699255E2,1.2684408E2,6.687073E1,1.5180383E2,1.0743129E2,0E0,4.955629E1,0E0,0E0,0E0,0E0,0E0,0E0,0E0,0E0,0E0,0E0,0E0,0E0,0E0,0E0,0E0,0E0,0E0,0E0,0E0,0E0,0E0,0E0,0E0,0E0,0E0,0E0,0E0,0E0,0E0,0E0,0E0,0E0,0E0,0E0,0E0,0E0,0E0,0E0,0E0,0E0,0E0,0E0,0E0,0E0,0E0,0E0,0E0,0E0,0E0,0E0,0E0,0E0,0E0,0E0,0E0,0E0,0E0,0E0,0E0,0E0,0E0,0E0],"parents":[2147483647,0,0,1,1,2,2,3,3,4,4,5,5,6,6,7,7,8,8,9,9,10,10,11,11,12,12,13,13,14,14,15,15,16,16,17,17,18,18,19,19,20,20,21,21,22,22,23,23,24,24,25,25,26,26,27,27,28,28,29,29,30,30,31,31,32,32,33,33,34,34,35,35,36,36,37,37,38,38,39,39,40,40,41,41,42,42,43,43,44,44,45,45,46,46,47,47,48,48,49,49,50,50,51,51,52,52,53,53,54,54,55,55,56,56,57,57,58,58,59,59,60,60,62,62],"right_children":[2,4,6,8,10,12,14,16,18,20,22,24,26,28,30,32,34,36,38,40,42,44,46,48,50,52,54,56,58,60,62,64,66,68,70,72,74,76,78,80,82,84,86,88,90,92,94,96,98,100,102,104,106,108,110,112,114,116,118,120,122,-1,124,-1,-1,-1,-1,-1,-1,-1,-1,-1,-1,-1,-1,-1,-1,-1,-1,-1,-1,-1,-1,-1,-1,-1,-1,-1,-1,-1,-1,-1,-1,-1,-1,-1,-1,-1,-1,-1,-1,-1,-1,-1,-1,-1,-1,-1,-1,-1,-1,-1,-1,-1,-1,-1,-1,-1,-1,-1,-1,-1,-1,-1,-1],"split_conditions":[1.5E0,5E-1,9.85E1,5E-1,8.18955E0,3.5E0,4.5E0,5E-1,1.5E0,4.5E0,1.5E0,1.5E0,2.55E1,3.398196E6,2.3734375E1,5E-1,3.091825E6,3.110352E6,5E-1,7.596875E1,1.5E0,3.5E0,4.5E0,4.5E0,3.13981E6,8.5E0,1.5E0,2.006E3,2.095E2,1.2246E4,1.5E0,1.065E2,1.6025E2,9.5185E3,1.89E2,1.84E2,7.5E0,3.1952995E6,2.5E0,1.5E0,1.5E0,1.40875E2,-4.85E1,2.5E0,6.15E1,1.5E0,1.5E0,1.5E0,3.5E0,5.013E3,1.996347E2,5.5E0,4.75E2,8.5E0,3.5E0,-1.75E1,2.0265625E1,1.465E2,1.075E2,2.905E2,1.725E2,1.3488889E-1,3.613535E1,1.2638696E-1,-1.5506984E-1,-1.4368226E-2,5.6655373E-2,8.011003E-2,-1.5233211E-1,-1.5649964E-1,-8.055792E-2,-3.7352484E-2,7.8226715E-2,-1.7023968E-2,9.557494E-2,-1.4031241E-2,1.1826479E-1,1.2246739E-1,1.4249013E-1,5.0004866E-2,-3.0628756E-2,9.901361E-2,3.7397753E-2,-8.683007E-2,-3.773283E-2,1.4603543E-1,-5.8768434E-3,-5.9380885E-2,7.824634E-2,1.192398E-1,5.3614404E-2,-1.6479792E-4,1.2793027E-1,8.143895E-2,-2.486364E-1,3.498165E-2,1.1858809E-1,-1.9467846E-1,1.4133532E-1,-8.485701E-5,-1.3964471E-1,1.2317166E-2,1.2007854E-1,1.207968E-1,1.4032392E-1,1.22597195E-1,-2.3410559E-1,-1.2536499E-1,5.4224502E-2,-1.9259638E-1,1.3554093E-1,2.2607027E-1,-1.664275E-1,-5.8347058E-2,-1.4471336E-1,-1.02344826E-1,1.2560707E-1,1.1616128E-1,-1.6722107E-1,1.155443E-1,-9.322823E-2,-2.3360124E-1,3.905373E-2,-1.04506705E-2,-1.7853886E-1],"split_indices":[17,27,29,17,220,14,14,18,14,29,9,26,26,0,213,3,0,0,226,2,39,3,186,196,0,100,89,4,28,4,27,28,2,4,5,6,30,0,14,9,26,2,225,14,35,56,79,15,107,4,210,14,5,13,20,225,2,28,5,31,30,0,210,0,0,0,0,0,0,0,0,0,0,0,0,0,0,0,0,0,0,0,0,0,0,0,0,0,0,0,0,0,0,0,0,0,0,0,0,0,0,0,0,0,0,0,0,0,0,0,0,0,0,0,0,0,0,0,0,0,0,0,0,0,0],"split_type":[0,0,0,0,0,0,0,0,0,0,0,0,0,0,0,0,0,0,0,0,0,0,0,0,0,0,0,0,0,0,0,0,0,0,0,0,0,0,0,0,0,0,0,0,0,0,0,0,0,0,0,0,0,0,0,0,0,0,0,0,0,0,0,0,0,0,0,0,0,0,0,0,0,0,0,0,0,0,0,0,0,0,0,0,0,0,0,0,0,0,0,0,0,0,0,0,0,0,0,0,0,0,0,0,0,0,0,0,0,0,0,0,0,0,0,0,0,0,0,0,0,0,0,0,0],"sum_hessian":[2.1411386E5,1.8255502E5,3.1558846E4,2.756587E4,1.5498914E5,2.9720291E4,1.8385547E3,7.6128403E3,1.995303E4,1.2342993E5,3.155921E4,6.5900483E3,2.3130242E4,1.1585535E3,6.800013E2,6.791187E3,8.216529E2,1.0837795E4,9.115235E3,9.384834E3,1.1404509E5,1.0672341E4,2.088687E4,3.8064446E3,2.783604E3,2.0805076E4,2.325167E3,9.1397144E2,2.44582E2,5.4388196E2,1.3611931E2,6.674682E2,6.1237188E3,1.5003683E2,6.716161E2,2.4289968E3,8.408798E3,1.2968096E3,7.818426E3,3.9944255E3,5.390408E3,1.0161041E5,1.2434687E4,1.3537468E3,9.318595E3,1.526447E4,5.6224004E3,3.762572E3,4.387249E1,7.522156E2,2.0313884E3,2.0779781E4,2.5294771E1,1.5265598E3,7.9860724E2,7.356201E1,8.404094E2,1.690517E2,7.5530304E1,4.8673764E2,5.7144302E1,2.3479471E1,1.1263985E2,6.63477E2,3.991241E0,2.779925E3,3.343794E3,9.718974E1,5.2847095E1,1.1888107E2,5.52735E2,1.5166619E3,9.12335E2,4.0188403E2,8.0069136E3,2.8486682E2,1.01194275E3,3.0404548E3,4.7779707E3,1.2418844E3,2.7525413E3,2.362997E3,3.0274114E3,7.344556E4,2.8164846E4,1.0927288E3,1.1341958E4,9.778197E2,3.7592712E2,6.9387935E3,2.379801E3,1.4020979E4,1.2434913E3,5.5647495E3,5.7651E1,3.877558E2,3.3748162E3,3.6540436E1,7.3320556E0,2.4971918E2,5.0249643E2,1.3001256E3,7.312628E2,3.2287236E3,1.7551057E4,5.8109617E0,1.9483809E1,9.86235E1,1.4279364E3,7.5937085E0,7.9101355E2,4.1345215E1,3.2216797E1,3.2024246E2,5.2016693E2,2.8716784E1,1.4033492E2,8.778399E0,6.67519E1,4.4972595E2,3.701171E1,3.168961E1,2.545469E1,2.1842403E1,9.079744E1],"tree_param":{"num_deleted":"0","num_feature":"227","num_nodes":"125","size_leaf_vector":"0"}},{"base_weights":[1.0787235E-3,2.286986E-1,-7.7635E-1,-1.4713787E-2,1.0448989E0,-8.9807135E-1,-1.0352253E-1,6.95425E-1,-1.828252E-1,1.2522131E0,5.042301E-1,-9.837861E-1,-6.631566E-1,7.1354336E-1,-3.5916495E-1,1.0236499E0,4.8907593E-1,-4.3343762E-1,4.268203E-1,1.3098135E0,6.028134E-1,7.181855E-1,-5.9295073E-2,-1.1458474E0,-8.652224E-1,-7.129187E-1,3.702834E-1,9.408775E-1,-8.943718E-1,-1.2893337E0,-1.7623761E-1,3.526825E-1,1.1036837E0,2.7048135E-1,1.0614257E0,-5.9166515E-1,-9.441321E-2,1.9007635E-1,8.5763144E-1,1.3341652E0,7.613038E-1,2.7460146E-1,1.206789E0,3.5157806E-1,1.068665E0,9.3892914E-1,-4.165612E-1,-9.5676535E-1,-1.2076261E0,-9.151015E-1,-1.1119897E-1,-1.0807042E0,-6.0855466E-1,-1.4607307E-1,1.9469997E0,4.5622435E-1,1.536518E0,-1.3267267E0,1.482838E0,-1.5229865E0,-3.6497265E-1,-9.236925E-1,8.870348E-2,5.7691115E-1,-7.199082E-1,-6.664894E-1,1.1232928E0,-3.279118E-1,4.5686302E-1,1.2450241E0,5.134655E-1,-6.619888E-1,5.251142E-1,7.691149E-1,-2.8144902E-1,-1.6584535E0,2.3668139E-1,-3.3698287E-2,9.2928463E-1,8.358503E-1,1.3467945E0,-7.623543E-1,1.1752584E0,3.9099148E-1,-1.2383817E0,-1.7360489E0,1.2589492E0,7.584286E-1,-1.705449E-1,8.7236595E-1,1.5649302E0,-1.2867507E0,1.5175259E0,-1.4045466E-1,-1.7300006E0,-2.4067655E-1,-1.1382551E0,-1.2178329E0,6.453115E-1,-9.5128506E-1,6.859236E-2,1.0618472E0,-4.3130255E-1,-1.121446E0,1.3919513E0,-4.7841182E-1,-9.840483E-1,2.0946522E-1,-1.677047E0,-1.4482286E0,2.1212285E0,1.0822028E0,-4.2023885E-1,1.6268083E0,-2.2502527E0,1.4423815E0,-1.7737548E0,-1.3350784E0,2.0592122E0,-1.5489649E0,1.3047445E0,-1.3523808E0,2.3747009E-1,4.7964206E-1,-1.2529639E0,3.2770148E-1,-1.1576223E0],"categories":[],"categories_nodes":[],"categories_segments":[],"categories_sizes":[],"default_left":[1,1,1,1,1,1,1,1,1,1,1,1,1,1,1,1,1,1,1,1,1,1,1,1,1,1,1,1,1,1,1,1,1,1,1,1,1,1,1,1,1,1,1,1,1,1,1,1,1,1,1,1,1,1,1,1,1,1,1,1,1,1,1,0,0,0,0,0,0,0,0,0,0,0,0,0,0,0,0,0,0,0,0,0,0,0,0,0,0,0,0,0,0,0,0,0,0,0,0,0,0,0,0,0,0,0,0,0,0,0,0,0,0,0,0,0,0,0,0,0,0,0,0,0,0,0,0],"id":6,"left_children":[1,3,5,7,9,11,13,15,17,19,21,23,25,27,29,31,33,35,37,39,41,43,45,47,49,51,53,55,57,59,61,63,65,67,69,71,73,75,77,79,81,83,85,87,89,91,93,95,97,99,101,103,105,107,109,111,113,115,117,119,121,123,125,-1,-1,-1,-1,-1,-1,-1,-1,-1,-1,-1,-1,-1,-1,-1,-1,-1,-1,-1,-1,-1,-1,-1,-1,-1,-1,-1,-1,-1,-1,-1,-1,-1,-1,-1,-1,-1,-1,-1,-1,-1,-1,-1,-1,-1,-1,-1,-1,-1,-1,-1,-1,-1,-1,-1,-1,-1,-1,-1,-1,-1,-1,-1,-1],"loss_changes":[3.7153402E4,3.2265686E4,3.8941348E3,1.4934768E4,4.181117E3,8.101133E2,1.522045E3,1.6213506E3,1.545496E4,1.00791406E3,1.2469705E3,5.658262E2,5.539868E2,6.35627E2,9.4412103E2,4.9593262E2,1.8394607E3,3.8453984E3,3.0054277E3,3.298203E2,4.3555304E2,9.62781E2,1.01570306E3,1.4439355E2,6.407676E2,3.936587E2,4.0353772E2,4.3866016E2,2.2358818E2,1.9640295E2,9.187607E2,2.3765869E2,2.8736426E2,1.1870594E3,4.0818115E2,3.838795E3,3.6845928E3,1.6389154E3,6.674795E2,1.481211E2,6.664483E2,2.5159067E2,1.20977905E2,7.7871826E2,3.7191895E2,9.6865216E2,7.60331E2,3.9914917E2,1.7833496E2,5.689365E2,3.9788263E2,2.301875E2,3.9069507E2,2.0395213E2,7.539508E1,4.6164227E2,2.369729E2,2.2905438E2,5.740972E1,5.547119E1,1.1055763E2,5.616166E2,1.02086163E3,0E0,0E0,0E0,0E0,0E0,0E0,0E0,0E0,0E0,0E0,0E0,0E0,0E0,0E0,0E0,0E0,0E0,0E0,0E0,0E0,0E0,0E0,0E0,0E0,0E0,0E0,0E0,0E0,0E0,0E0,0E0,0E0,0E0,0E0,0E0,0E0,0E0,0E0,0E0,0E0,0E0,0E0,0E0,0E0,0E0,0E0,0E0,0E0,0E0,0E0,0E0,0E0,0E0,0E0,0E0,0E0,0E0,0E0,0E0,0E0,0E0,0E0,0E0,0E0],"parents":[2147483647,0,0,1,1,2,2,3,3,4,4,5,5,6,6,7,7,8,8,9,9,10,10,11,11,12,12,13,13,14,14,15,15,16,16,17,17,18,18,19,19,20,20,21,21,22,22,23,23,24,24,25,25,26,26,27,27,28,28,29,29,30,30,31,31,32,32,33,33,34,34,35,35,36,36,37,37,38,38,39,39,40,40,41,41,42,42,43,43,44,44,45,45,46,46,47,47,48,48,49,49,50,50,51,51,52,52,53,53,54,54,55,55,56,56,57,57,58,58,59,59,60,60,61,61,62,62],"right_children":[2,4,6,8,10,12,14,16,18,20,22,24,26,28,30,32,34,36,38,40,42,44,46,48,50,52,54,56,58,60,62,64,66,68,70,72,74,76,78,80,82,84,86,88,90,92,94,96,98,100,102,104,106,108,110,112,114,116,118,120,122,124,126,-1,-1,-1,-1,-1,-1,-1,-1,-1,-1,-1,-1,-1,-1,-1,-1,-1,-1,-1,-1,-1,-1,-1,-1,-1,-1,-1,-1,-1,-1,-1,-1,-1,-1,-1,-1,-1,-1,-1,-1,-1,-1,-1,-1,-1,-1,-1,-1,-1,-1,-1,-1,-1,-1,-1,-1,-1,-1,-1,-1,-1,-1,-1,-1],"split_conditions":[5E-1,3.5E0,6.490625E1,5E-1,2.5E0,1.57875E2,1.5E0,5E-1,1.5E0,2.55E1,1.115E2,2.25E2,5E-1,2.195E2,1.89E2,5E-1,1.5E0,1.5E0,3.4869E2,2.845E2,1.5E0,5E-1,1.5E0,5E-1,2.5475E1,1.92E2,4.805E2,5E-1,4.805E2,6.790625E1,2.965E2,5.145E2,1.465E2,3.108193E6,1.5E0,3.485E2,1.5E0,1.495E2,2.5E0,1.5E0,5.5E0,1.12E2,3.5E0,2.25E1,1.6896E4,2.5E0,3.55E1,1.875E2,2.255E2,1.5E0,1.5E0,2.5E0,1.65E1,2.345E2,7.5E0,3.5E0,2.295E2,1.5E0,5E-1,4.5E0,3.286281E6,2.5E0,1.35E1,5.7691116E-2,-7.199082E-2,-6.6648945E-2,1.1232928E-1,-3.279118E-2,4.56863E-2,1.2450241E-1,5.134655E-2,-6.619888E-2,5.251142E-2,7.6911494E-2,-2.8144902E-2,-1.6584535E-1,2.3668138E-2,-3.3698287E-3,9.292846E-2,8.358503E-2,1.3467945E-1,-7.6235436E-2,1.1752584E-1,3.909915E-2,-1.2383818E-1,-1.7360489E-1,1.2589492E-1,7.584286E-2,-1.7054489E-2,8.72366E-2,1.5649302E-1,-1.2867507E-1,1.5175259E-1,-1.4045467E-2,-1.7300007E-1,-2.4067655E-2,-1.13825515E-1,-1.21783294E-1,6.453115E-2,-9.512851E-2,6.8592364E-3,1.0618472E-1,-4.3130256E-2,-1.12144604E-1,1.3919513E-1,-4.7841184E-2,-9.840483E-2,2.0946523E-2,-1.677047E-1,-1.4482287E-1,2.1212284E-1,1.0822028E-1,-4.2023886E-2,1.6268083E-1,-2.2502528E-1,1.4423816E-1,-1.7737548E-1,-1.3350783E-1,2.0592122E-1,-1.5489648E-1,1.3047445E-1,-1.3523808E-1,2.374701E-2,4.7964208E-2,-1.252964E-1,3.277015E-2,-1.15762234E-1],"split_indices":[18,14,215,27,3,2,9,3,186,26,34,8,40,28,8,30,15,15,211,31,89,197,12,106,220,8,10,40,10,214,5,5,6,0,193,2,26,6,3,13,14,29,20,28,4,19,26,10,18,82,15,51,32,28,19,35,218,7,40,98,0,35,15,0,0,0,0,0,0,0,0,0,0,0,0,0,0,0,0,0,0,0,0,0,0,0,0,0,0,0,0,0,0,0,0,0,0,0,0,0,0,0,0,0,0,0,0,0,0,0,0,0,0,0,0,0,0,0,0,0,0,0,0,0,0,0,0],"split_type":[0,0,0,0,0,0,0,0,0,0,0,0,0,0,0,0,0,0,0,0,0,0,0,0,0,0,0,0,0,0,0,0,0,0,0,0,0,0,0,0,0,0,0,0,0,0,0,0,0,0,0,0,0,0,0,0,0,0,0,0,0,0,0,0,0,0,0,0,0,0,0,0,0,0,0,0,0,0,0,0,0,0,0,0,0,0,0,0,0,0,0,0,0,0,0,0,0,0,0,0,0,0,0,0,0,0,0,0,0,0,0,0,0,0,0,0,0,0,0,0,0,0,0,0,0,0,0],"sum_hessian":[2.0995378E5,1.6240473E5,4.7549047E4,1.2509815E5,3.730658E4,4.026446E4,7.2845835E3,2.3945227E4,1.0115292E5,2.6965568E4,1.0341009E4,2.9498117E4,1.0766347E4,1.7355981E3,5.5489854E3,9.241484E3,1.4703743E4,7.1685016E4,2.946791E4,2.4767709E4,2.1978596E3,7.495061E3,2.8459482E3,1.2459258E4,1.7038857E4,1.0272039E4,4.9430737E2,1.5209714E3,2.1462677E2,9.109319E2,4.6380537E3,9.854359E2,8.256049E3,1.0641111E4,4.062632E3,4.8874047E4,2.2810967E4,1.9018242E4,1.0449667E4,2.3713492E4,1.0542174E3,1.4249622E3,7.7289734E2,3.6642246E3,3.8308364E3,7.496765E2,2.0962717E3,3.0723657E3,9.386893E3,1.598146E4,1.0573984E3,2.268465E3,8.0035737E3,3.7304633E2,1.2126103E2,8.395903E2,6.8138116E2,1.8197243E2,3.265433E1,7.2661584E2,1.8431601E2,1.2131145E3,3.424939E3,8.154297E2,1.7000618E2,9.0093216E1,8.165955E3,2.5270518E3,8.114059E3,3.0420852E3,1.0205469E3,4.597915E4,2.8949004E3,4.0605671E3,1.8750398E4,4.6684482E2,1.8551398E4,7.7757367E2,9.672094E3,5.878006E2,2.3125691E4,2.2504488E2,8.291726E2,1.3238623E3,1.0109985E2,1.2898354E1,7.59999E2,2.059197E3,1.6050276E3,2.7470076E3,1.0838286E3,1.5442564E2,5.9525085E2,1.7330609E3,3.632109E2,6.217006E2,2.450665E3,9.33581E3,5.1083042E1,1.5414497E4,5.669629E2,2.2618983E2,8.312086E2,2.2322312E3,3.6233795E1,5.945269E3,2.0583047E3,3.0344128E2,6.9605034E1,5.561953E0,1.1569908E2,4.8964578E2,3.499445E2,6.6607E2,1.5311131E1,2.4983843E1,1.5698859E2,5.3214097E0,2.733292E1,7.2044934E2,6.166523E0,6.937122E1,1.1494478E2,2.3045836E2,9.826562E2,2.8744631E3,5.504759E2],"tree_param":{"num_deleted":"0","num_feature":"227","num_nodes":"127","size_leaf_vector":"0"}},{"base_weights":[1.2568935E-3,-1.7471026E-1,8.670052E-1,1.154534E-2,-7.98658E-1,1.3584991E-1,1.0874038E0,6.5839946E-1,-1.2656565E-1,-8.4963584E-1,2.3656628E-1,-7.0148325E-1,3.8359684E-1,1.1157485E0,-4.4745854E-1,4.6784025E-1,1.062492E0,3.7670794E-1,-3.752388E-1,-8.8548905E-1,-7.720906E-2,3.9668128E-1,-9.668987E-1,-4.6161464E-1,-1.5809515E0,6.6115963E-1,-1.4506802E-2,1.1556231E0,4.9764356E-1,1.5973294E-1,-1.403428E0,8.425413E-1,2.7712852E-1,1.1369689E0,3.014171E-1,1.3240863E-1,6.7242074E-1,-3.5600096E-2,-5.58695E-1,-9.367004E-1,-5.394597E-1,2.7446172E-1,-1.3482414E0,5.3690072E-2,1.0808771E0,1.3254533E0,-1.5640364E0,-6.7636776E-1,1.2779863E0,7.5062364E-1,-4.0900856E-1,2.5099358E-1,-9.9706715E-1,8.8972765E-1,1.2679235E0,9.662287E-1,1.5843835E-1,-1.1603298E0,6.4130586E-1,-9.29675E-2,9.364659E-1,-2.842803E-1,4.4632012E-1,6.3077736E-1,1.2232713E0,6.132883E-1,-6.1041296E-1,1.7650633E-1,-1.6109405E0,5.8169955E-1,1.2808675E0,-6.8892545E-1,2.876791E-1,-6.370047E-1,-1.5332847E-3,-9.876762E-1,-6.3054305E-1,-6.9240856E-1,3.7905556E-1,6.6064507E-1,-6.417181E-1,-1.4181306E0,6.5775925E-1,1.9507295E-1,-1.3693069E0,-2.1862833E-1,1.3940334E0,-1.6371145E0,1.6603128E0,4.7192493E-1,-8.6044157E-1,2.1467602E0,-1.5771089E0,4.2925876E-1,9.8958975E-1,4.5372856E-1,-1.4677223E0,-2.6271215E-2,1.1638091E0,9.5429534E-1,-1.0988685E0,1.2477156E0,1.3846974E-1,1.2781531E0,4.599322E-1,1.1032583E0,-7.144185E-1,-1.0406979E-1,8.7506163E-1,-1.4097477E0,1.2235966E0,-1.1106281E0,9.976413E-1],"categories":[],"categories_nodes":[],"categories_segments":[],"categories_sizes":[],"default_left":[1,1,1,1,1,1,1,1,1,1,1,1,1,1,1,1,1,1,1,1,1,1,1,1,0,1,1,1,1,1,0,1,1,1,1,1,1,1,1,1,1,1,1,1,1,1,0,1,1,1,1,1,1,1,1,1,1,1,1,0,0,0,0,0,0,0,0,0,0,0,0,0,0,0,0,0,0,0,0,0,0,0,0,0,0,0,0,0,0,0,0,0,0,0,0,0,0,0,0,0,0,0,0,0,0,0,0,0,0,0,0,0,0],"id":7,"left_children":[1,3,5,7,9,11,13,15,17,19,21,23,25,27,29,31,33,35,37,39,41,43,45,47,-1,49,51,53,55,57,-1,59,61,63,65,67,69,71,73,75,77,79,81,83,85,87,-1,89,91,93,95,97,99,101,103,105,107,109,111,-1,-1,-1,-1,-1,-1,-1,-1,-1,-1,-1,-1,-1,-1,-1,-1,-1,-1,-1,-1,-1,-1,-1,-1,-1,-1,-1,-1,-1,-1,-1,-1,-1,-1,-1,-1,-1,-1,-1,-1,-1,-1,-1,-1,-1,-1,-1,-1,-1,-1,-1,-1,-1,-1],"loss_changes":[3.131509E4,1.9853207E4,5.59525E3,1.1753522E4,2.072748E3,1.6688851E3,1.1612227E3,1.7819717E3,1.3568357E4,1.0365059E3,3.5569482E2,3.8677185E2,6.859541E2,6.4508203E2,2.8144824E2,1.1239602E3,4.200752E2,2.5900913E3,4.5212393E3,6.3334766E2,7.429795E2,3.8201712E2,2.9885254E2,5.405654E2,0E0,3.5049255E2,6.6575555E2,7.336797E2,2.5246237E2,1.89671E2,0E0,4.662932E2,9.9054395E2,2.943496E2,1.8876619E2,1.5097804E3,8.9458105E2,5.3753066E3,2.0556152E3,4.856289E2,6.484133E2,4.611434E2,5.1434875E1,2.1865994E2,2.2152081E2,4.7704132E1,0E0,2.7234772E2,3.9800058E2,2.5881982E2,2.58998E2,5.0854248E2,1.0889581E2,1.9659106E3,1.4239453E2,1.5443927E2,1.7374933E2,4.917038E1,1.3744827E2,0E0,0E0,0E0,0E0,0E0,0E0,0E0,0E0,0E0,0E0,0E0,0E0,0E0,0E0,0E0,0E0,0E0,0E0,0E0,0E0,0E0,0E0,0E0,0E0,0E0,0E0,0E0,0E0,0E0,0E0,0E0,0E0,0E0,0E0,0E0,0E0,0E0,0E0,0E0,0E0,0E0,0E0,0E0,0E0,0E0,0E0,0E0,0E0,0E0,0E0,0E0,0E0,0E0,0E0],"parents":[2147483647,0,0,1,1,2,2,3,3,4,4,5,5,6,6,7,7,8,8,9,9,10,10,11,11,12,12,13,13,14,14,15,15,16,16,17,17,18,18,19,19,20,20,21,21,22,22,23,23,25,25,26,26,27,27,28,28,29,29,31,31,32,32,33,33,34,34,35,35,36,36,37,37,38,38,39,39,40,40,41,41,42,42,43,43,44,44,45,45,47,47,48,48,49,49,50,50,51,51,52,52,53,53,54,54,55,55,56,56,57,57,58,58],"right_children":[2,4,6,8,10,12,14,16,18,20,22,24,26,28,30,32,34,36,38,40,42,44,46,48,-1,50,52,54,56,58,-1,60,62,64,66,68,70,72,74,76,78,80,82,84,86,88,-1,90,92,94,96,98,100,102,104,106,108,110,112,-1,-1,-1,-1,-1,-1,-1,-1,-1,-1,-1,-1,-1,-1,-1,-1,-1,-1,-1,-1,-1,-1,-1,-1,-1,-1,-1,-1,-1,-1,-1,-1,-1,-1,-1,-1,-1,-1,-1,-1,-1,-1,-1,-1,-1,-1,-1,-1,-1,-1,-1,-1,-1,-1],"split_conditions":[1.5E0,5E-1,2.5E0,5E-1,2.009375E2,5E-1,2.445E2,1.5E0,2.5E0,5.82E2,4.065E2,3.035E2,1.5E0,1.785E2,5E-1,5E-1,3.5E0,6.715625E1,1.5E0,2.69885E2,2.25E1,2.5E0,1.5E0,4.5E0,-1.5809515E-1,2.5E0,1.2967E4,5.5E0,3.5E0,4.5E0,-1.403428E-1,1.5E0,3.1100925E6,5E-1,1.5E0,1.015E2,2.5E0,3.108721E6,2.5E0,2.328125E2,5.215E2,3.12375E2,1.5E0,7.4675E2,9.4925E3,3.4192265E6,-1.5640365E-1,2.802E3,3E0,1.5E0,1.875E2,2.5E0,5E-1,1.5E0,9.85E1,2.6929688E1,1.874375E2,3.865E2,3.17629E6,-9.296751E-3,9.364659E-2,-2.8428031E-2,4.4632014E-2,6.307774E-2,1.2232713E-1,6.132883E-2,-6.1041296E-2,1.7650632E-2,-1.6109405E-1,5.8169957E-2,1.2808675E-1,-6.8892546E-2,2.8767912E-2,-6.370047E-2,-1.5332847E-4,-9.876762E-2,-6.305431E-2,-6.924086E-2,3.7905555E-2,6.606451E-2,-6.417181E-2,-1.4181307E-1,6.577592E-2,1.9507295E-2,-1.3693069E-1,-2.1862833E-2,1.3940334E-1,-1.6371146E-1,1.6603129E-1,4.7192495E-2,-8.6044155E-2,2.1467602E-1,-1.577109E-1,4.2925876E-2,9.895898E-2,4.5372855E-2,-1.4677224E-1,-2.6271215E-3,1.1638091E-1,9.542953E-2,-1.0988685E-1,1.2477156E-1,1.3846974E-2,1.278153E-1,4.599322E-2,1.1032583E-1,-7.144185E-2,-1.0406979E-2,8.750617E-2,-1.4097477E-1,1.22359656E-1,-1.1106282E-1,9.976413E-2],"split_indices":[21,114,14,27,215,185,29,14,30,5,26,10,26,26,188,3,3,218,9,210,31,141,35,143,0,197,4,14,32,14,0,30,0,226,89,26,106,0,19,2,33,2,67,215,4,0,0,4,23,24,8,3,23,27,29,213,2,32,0,0,0,0,0,0,0,0,0,0,0,0,0,0,0,0,0,0,0,0,0,0,0,0,0,0,0,0,0,0,0,0,0,0,0,0,0,0,0,0,0,0,0,0,0,0,0,0,0,0,0,0,0,0,0],"split_type":[0,0,0,0,0,0,0,0,0,0,0,0,0,0,0,0,0,0,0,0,0,0,0,0,0,0,0,0,0,0,0,0,0,0,0,0,0,0,0,0,0,0,0,0,0,0,0,0,0,0,0,0,0,0,0,0,0,0,0,0,0,0,0,0,0,0,0,0,0,0,0,0,0,0,0,0,0,0,0,0,0,0,0,0,0,0,0,0,0,0,0,0,0,0,0,0,0,0,0,0,0,0,0,0,0,0,0,0,0,0,0,0,0],"sum_hessian":[2.0555411E5,1.7083245E5,3.472165E4,1.3156097E5,3.927149E4,8.042589E3,2.667906E4,2.3146883E4,1.08414086E5,3.7428562E4,1.8429259E3,1.8358763E3,6.2067124E3,2.6195572E4,4.8348776E2,1.57308125E4,7.4160703E3,3.5853E4,7.2561086E4,3.5768188E4,1.6603746E3,1.6271165E3,2.1580936E2,1.4436548E3,3.9222156E2,3.6566147E3,2.550098E3,2.4607262E4,1.5883107E3,2.9619202E2,1.8729576E2,5.304795E3,1.0426018E4,6.75459E3,6.6148035E2,1.963404E4,1.621896E4,2.5448541E4,4.7112547E4,3.1155549E4,4.612638E3,1.3011538E3,3.5922073E2,1.0845193E3,5.425972E2,4.434679E1,1.7146257E2,1.2855636E3,1.580912E2,3.3747876E3,2.818272E2,2.0082008E3,5.4189703E2,7.309461E3,1.72978E4,6.66183E2,9.221277E2,7.879467E1,2.1739734E2,4.8400583E2,4.820789E3,2.4142876E3,8.0117295E3,9.850814E2,5.7695083E3,4.9314014E2,1.6834018E2,1.915053E4,4.835103E2,1.4116155E4,2.102804E3,8.423694E3,1.7024848E4,4.1306707E4,5.805841E3,2.6706617E4,4.448931E3,3.9544065E3,6.582316E2,9.1552527E2,3.8562854E2,3.4741003E2,1.1810724E1,9.8728937E2,9.722993E1,1.05423416E2,4.371738E2,4.108563E0,4.0238228E1,1.7739163E2,1.108172E3,1.2139895E2,3.669226E1,1.4404487E3,1.9343387E3,1.5560081E2,1.2622639E2,1.5410753E3,4.671255E2,2.645348E1,5.1544354E2,4.950025E3,2.3594365E3,1.7080965E4,2.1683514E2,6.16279E2,4.990399E1,6.75528E2,2.4659966E2,7.170155E1,7.093116E0,3.6386288E1,1.8101105E2],"tree_param":{"num_deleted":"0","num_feature":"227","num_nodes":"113","size_leaf_vector":"0"}},{"base_weights":[1.3938867E-3,-1.4474647E-1,9.213315E-1,2.3337614E-2,-7.440063E-1,4.6353343E-1,1.13492E0,6.4838696E-1,-1.15203835E-1,-8.1577355E-1,-8.447375E-2,9.7546923E-1,-5.591289E-2,1.2248964E0,4.9994984E-1,4.973536E-1,1.2397782E0,-2.7656066E-1,5.212644E-1,-8.474846E-1,-1.3571951E-1,3.346147E-1,-4.2118865E-1,2.5725117E-1,1.0470531E0,1.5068181E-1,-9.9350977E-1,1.227005E0,-2.2310376E0,6.3326114E-1,-9.816042E-1,8.3815086E-1,3.0803138E-1,1.2462027E0,-1.9887094E0,2.1353465E-1,-3.9104387E-1,8.243125E-1,3.4434617E-1,-8.778488E-1,-2.9704806E-1,1.7856711E-1,-1.2874712E0,-7.296146E-1,5.1442385E-1,-6.3573405E-2,-1.0770072E0,3.7695011E-1,-2.1816478E0,1.1119998E0,2.312664E-1,-5.931341E-1,3.933833E-1,1.0144132E0,-1.1690929E0,1.2391863E0,6.909751E-1,3.9343694E-1,1.1505659E0,-1.530559E0,3.3317688E-1,-5.1546242E-2,9.312825E-1,-1.6059073E-2,5.79801E-1,1.2505109E0,-2.001368E0,6.2302625E-1,7.784242E-3,-4.4654715E-1,4.330059E-1,8.7621796E-1,-5.601773E-1,5.191807E-1,-1.2121345E-1,-9.523019E-1,-6.687371E-1,-9.593792E-1,5.25965E-1,5.370137E-1,-5.928233E-1,-1.3606042E0,6.2109375E-1,7.0535874E-1,-1.4123108E0,6.645149E-1,-7.7113813E-1,3.259584E-1,-8.558658E-1,-6.567617E-2,-1.4050218E0,-2.481844E-1,9.579814E-1,1.1497647E0,-2.0236424E-1,6.033624E-1,-1.7441763E0,3.099089E-1,-1.1301478E0,-1.1129119E0,5.2386874E-1,-1.7123252E0,1.4633132E0,5.76772E-1,-1.3724003E0,1.240162E0,-3.0826838E0,8.816218E-1,-1.0705575E0,-1.1702168E0,5.0696653E-1,-1.7325405E0,1.1853597E0,-2.6896518E-1,-1.9250163E0,9.0440404E-1,-1.8561424E0],"categories":[],"categories_nodes":[],"categories_segments":[],"categories_sizes":[],"default_left":[1,1,1,1,1,1,1,1,1,1,1,1,1,1,1,1,1,1,1,1,1,1,1,1,1,1,1,1,0,1,1,1,1,1,0,1,1,1,1,1,1,1,1,1,1,1,1,1,0,1,1,1,1,1,1,1,1,1,1,1,1,0,0,0,0,0,0,0,0,0,0,0,0,0,0,0,0,0,0,0,0,0,0,0,0,0,0,0,0,0,0,0,0,0,0,0,0,0,0,0,0,0,0,0,0,0,0,0,0,0,0,0,0,0,0,0,0],"id":8,"left_children":[1,3,5,7,9,11,13,15,17,19,21,23,25,27,29,31,33,35,37,39,41,43,45,47,49,51,53,55,-1,57,59,61,63,65,-1,67,69,71,73,75,77,79,81,83,85,87,89,91,-1,93,95,97,99,101,103,105,107,109,111,113,115,-1,-1,-1,-1,-1,-1,-1,-1,-1,-1,-1,-1,-1,-1,-1,-1,-1,-1,-1,-1,-1,-1,-1,-1,-1,-1,-1,-1,-1,-1,-1,-1,-1,-1,-1,-1,-1,-1,-1,-1,-1,-1,-1,-1,-1,-1,-1,-1,-1,-1,-1,-1,-1,-1,-1,-1],"loss_changes":[2.7042371E4,1.7483477E4,2.6956562E3,1.1738445E4,1.7995703E3,2.333203E3,1.0735352E3,2.1961484E3,1.1395684E4,7.3934766E2,5.268263E2,2.2691797E2,8.438958E2,1.2273828E2,4.6183734E2,1.2638745E3,1.06240234E2,4.966755E3,1.2029263E3,5.4730273E2,5.536552E2,3.1867E2,4.8541302E2,1.1813065E2,2.1262988E2,6.4475476E2,2.7851758E2,1.06603516E2,0E0,2.6541364E2,1.3992918E2,5.797793E2,1.1095394E3,7.2364746E1,0E0,1.4123201E3,3.2822412E3,5.94897E2,1.1535511E3,4.8275586E2,9.3497424E2,3.3267474E2,4.6610474E1,2.3692337E2,2.7518198E2,4.1402527E2,2.4220203E2,1.3967377E2,0E0,1.8495605E2,2.1977536E2,4.2649594E2,5.297948E2,8.0587776E1,2.577155E2,7.167383E1,1.245117E2,2.607893E2,7.0095764E1,6.738559E1,7.386033E1,0E0,0E0,0E0,0E0,0E0,0E0,0E0,0E0,0E0,0E0,0E0,0E0,0E0,0E0,0E0,0E0,0E0,0E0,0E0,0E0,0E0,0E0,0E0,0E0,0E0,0E0,0E0,0E0,0E0,0E0,0E0,0E0,0E0,0E0,0E0,0E0,0E0,0E0,0E0,0E0,0E0,0E0,0E0,0E0,0E0,0E0,0E0,0E0,0E0,0E0,0E0,0E0,0E0,0E0,0E0,0E0],"parents":[2147483647,0,0,1,1,2,2,3,3,4,4,5,5,6,6,7,7,8,8,9,9,10,10,11,11,12,12,13,13,14,14,15,15,16,16,17,17,18,18,19,19,20,20,21,21,22,22,23,23,24,24,25,25,26,26,27,27,29,29,30,30,31,31,32,32,33,33,35,35,36,36,37,37,38,38,39,39,40,40,41,41,42,42,43,43,44,44,45,45,46,46,47,47,49,49,50,50,51,51,52,52,53,53,54,54,55,55,56,56,57,57,58,58,59,59,60,60],"right_children":[2,4,6,8,10,12,14,16,18,20,22,24,26,28,30,32,34,36,38,40,42,44,46,48,50,52,54,56,-1,58,60,62,64,66,-1,68,70,72,74,76,78,80,82,84,86,88,90,92,-1,94,96,98,100,102,104,106,108,110,112,114,116,-1,-1,-1,-1,-1,-1,-1,-1,-1,-1,-1,-1,-1,-1,-1,-1,-1,-1,-1,-1,-1,-1,-1,-1,-1,-1,-1,-1,-1,-1,-1,-1,-1,-1,-1,-1,-1,-1,-1,-1,-1,-1,-1,-1,-1,-1,-1,-1,-1,-1,-1,-1,-1,-1,-1,-1],"split_conditions":[1.5E0,5E-1,4.5E0,5E-1,6.3984375E1,1.5E0,2.55E1,2.5E0,6.5858E0,5.82E2,5E-1,1.5E0,7.75E1,9.5E0,2.6820312E1,5E-1,1.5E0,2.55E1,1.5E0,2.9975E1,2.25E1,3.1374825E6,3.035E2,3.3885965E6,2.5E0,3.116168E6,5E-1,1.03E2,-2.2310376E-1,1.5E0,1.5E0,5E-1,1.4975E2,1.3525E3,-1.9887094E-1,1.5E0,3.48625E2,1.975E2,5E-1,1.57875E2,4.95E1,3.12375E2,1.5E0,1.5E0,4.07E2,1.0684E4,1.65E1,3.128515E6,-2.1816479E-1,5.1E1,1.2982E4,5.013E3,1.5E0,2.5E0,-3.25E1,6.5E0,2.845E2,8.5E0,3.5E0,5E-1,2.5E0,-5.154624E-3,9.312826E-2,-1.6059073E-3,5.79801E-2,1.250511E-1,-2.0013681E-1,6.2302627E-2,7.784242E-4,-4.4654716E-2,4.330059E-2,8.76218E-2,-5.6017734E-2,5.191807E-2,-1.2121345E-2,-9.523019E-2,-6.6873714E-2,-9.593792E-2,5.25965E-2,5.370137E-2,-5.9282333E-2,-1.3606042E-1,6.2109377E-2,7.0535876E-2,-1.4123109E-1,6.645149E-2,-7.7113815E-2,3.259584E-2,-8.558658E-2,-6.567617E-3,-1.4050218E-1,-2.481844E-2,9.579814E-2,1.14976466E-1,-2.0236423E-2,6.033624E-2,-1.7441763E-1,3.099089E-2,-1.1301478E-1,-1.1129119E-1,5.2386876E-2,-1.7123252E-1,1.4633133E-1,5.76772E-2,-1.3724004E-1,1.240162E-1,-3.082684E-1,8.816218E-2,-1.07055746E-1,-1.1702168E-1,5.0696652E-2,-1.7325406E-1,1.1853597E-1,-2.689652E-2,-1.9250163E-1,9.044041E-2,-1.8561424E-1],"split_indices":[17,114,14,27,175,26,26,14,177,5,30,15,35,100,213,3,51,29,9,220,31,0,10,0,99,0,132,29,0,89,125,30,2,172,0,9,2,28,41,2,28,2,67,9,26,4,35,0,0,28,4,4,15,199,225,60,31,13,20,28,206,0,0,0,0,0,0,0,0,0,0,0,0,0,0,0,0,0,0,0,0,0,0,0,0,0,0,0,0,0,0,0,0,0,0,0,0,0,0,0,0,0,0,0,0,0,0,0,0,0,0,0,0,0,0,0,0],"split_type":[0,0,0,0,0,0,0,0,0,0,0,0,0,0,0,0,0,0,0,0,0,0,0,0,0,0,0,0,0,0,0,0,0,0,0,0,0,0,0,0,0,0,0,0,0,0,0,0,0,0,0,0,0,0,0,0,0,0,0,0,0,0,0,0,0,0,0,0,0,0,0,0,0,0,0,0,0,0,0,0,0,0,0,0,0,0,0,0,0,0,0,0,0,0,0,0,0,0,0,0,0,0,0,0,0,0,0,0,0,0,0,0,0,0,0,0,0],"sum_hessian":[2.0114623E5,1.7357339E5,2.757285E4,1.3555347E5,3.8019914E4,8.77277E3,1.880008E4,2.4593363E4,1.1096011E5,3.4288555E4,3.7313577E3,4.4178843E3,4.3548853E3,1.6465904E4,2.3341758E3,1.9591738E4,5.0016235E3,8.8519336E4,2.2440773E4,3.2760672E4,1.5278833E3,1.662345E3,2.0690127E3,4.00832E2,4.017052E3,3.5692568E3,7.856283E2,1.6456508E4,9.395794E0,2.1420088E3,1.9216693E2,6.9955977E3,1.2596141E4,4.992303E3,9.320389E0,1.676189E4,7.1757445E4,8.270442E3,1.4170331E4,3.1047385E4,1.7132861E3,1.2010023E3,3.26881E2,2.3982782E2,1.4225171E3,1.33962E3,7.2939264E2,3.8288577E2,1.7946241E1,3.7204917E3,2.9656033E2,8.777478E2,2.691509E3,6.279087E1,7.2283746E2,1.6089561E4,3.669475E2,1.4647201E3,6.7728864E2,1.3544928E2,5.6717655E1,6.629367E2,6.332661E3,5.7454834E3,6.8506577E3,4.9863037E3,5.9999013E0,5.604865E3,1.1157025E4,6.7229695E4,4.5277485E3,7.971937E3,2.9850604E2,1.0301594E4,3.868738E3,2.2892924E4,8.1544624E3,9.492213E2,7.6406476E2,8.2018555E2,3.8081668E2,3.1509424E2,1.1786777E1,7.730521E1,1.6252261E2,1.2742319E3,1.4828519E2,8.9847296E2,4.411471E2,1.7892706E2,5.504656E2,1.8471877E2,1.98167E2,3.6167002E3,1.03791565E2,2.5013861E2,4.6421738E1,3.2747995E2,5.502678E2,2.1396906E2,2.47754E3,8.478104E0,5.4312767E1,7.520356E1,6.476339E2,1.6086642E4,2.9186597E0,3.3156274E2,3.5384758E1,9.8517784E1,1.3662024E3,7.4943333E0,6.697943E2,3.266348E1,1.027858E2,4.544679E1,1.1270866E1],"tree_param":{"num_deleted":"0","num_feature":"227","num_nodes":"117","size_leaf_vector":"0"}},{"base_weights":[1.5383232E-3,-1.325991E-1,8.752017E-1,2.1949358E-2,-6.9507104E-1,4.2878816E-1,1.0914162E0,6.0044456E-1,-1.03417255E-1,-7.341916E-1,2.3009942E-1,9.146613E-1,-5.1296156E-2,1.1841267E0,4.6324986E-1,4.5545277E-1,1.1943506E0,-3.2485598E-1,3.1102934E-1,-7.979764E-1,-3.7945646E-1,7.675685E-2,1.2434225E0,7.090063E-1,1.1608951E0,1.2756593E0,-1.7696287E-1,1.186242E0,-1.9714848E0,-1.8122817E0,5.4169744E-1,6.6832155E-1,1.6856468E-1,1.2007436E0,-1.7987263E0,-4.355403E-1,1.5857019E-1,4.8837936E-1,-7.682951E-3,-8.285992E-1,-1.0441075E-1,-5.510899E-1,5.4801285E-1,3.2426676E-1,-8.7375635E-1,1.3846225E0,-1.76761E0,7.7022445E-1,-9.368829E-1,1.174104E0,-2.1234274E0,-1.7354809E0,1.4484558E0,-1.039645E0,6.846411E-2,1.1989114E0,6.4653677E-1,-2.0356462E0,-1.3401476E0,7.009691E-1,-2.6862937E-1,1.4511968E-1,8.121195E-1,-6.6230625E-1,2.8507683E-1,1.2048068E0,-2.074068E0,-5.249874E-1,3.0489078E-1,4.915841E-1,-3.2180828E-1,-1.7255747E-1,5.834668E-1,-9.6828535E-2,1.4633164E0,-8.8020265E-1,-5.356378E-1,1.8929335E-1,-1.1466225E0,-4.062277E-1,-1.1832665E0,1.1306717E0,-1.3474462E0,4.7703603E-1,-6.640754E-1,-1.3076628E0,4.1362083E-1,-1.4043835E0,1.4812499E0,8.17324E-1,-1.1581526E0,-1.5981578E0,5.8107865E-1,1.1826628E0,-2.3706157E0,1.5109701E0,-1.4036177E0,-1.2262468E0,5.3526735E-1,4.1900757E-1,-4.4808367E-1,1.2001418E0,-2.1560016E0,8.1677264E-1,-1.1627293E0,-1.5966704E0,-2.3704548E0,-5.7590866E-1,7.727974E-1,-4.078993E-3,-2.0718312E0],"categories":[],"categories_nodes":[],"categories_segments":[],"categories_sizes":[],"default_left":[1,1,1,1,1,1,1,1,1,1,1,1,1,1,1,1,1,1,1,1,1,1,1,1,1,1,1,1,0,1,1,1,1,1,0,1,1,1,1,1,1,1,1,1,1,1,0,1,1,1,0,0,1,1,1,1,1,1,0,1,1,0,0,0,0,0,0,0,0,0,0,0,0,0,0,0,0,0,0,0,0,0,0,0,0,0,0,0,0,0,0,0,0,0,0,0,0,0,0,0,0,0,0,0,0,0,0,0,0,0,0],"id":9,"left_children":[1,3,5,7,9,11,13,15,17,19,21,23,25,27,29,31,33,35,37,39,41,43,45,47,49,51,53,55,-1,57,59,61,63,65,-1,67,69,71,73,75,77,79,81,83,85,87,-1,89,91,93,-1,-1,95,97,99,101,103,105,-1,107,109,-1,-1,-1,-1,-1,-1,-1,-1,-1,-1,-1,-1,-1,-1,-1,-1,-1,-1,-1,-1,-1,-1,-1,-1,-1,-1,-1,-1,-1,-1,-1,-1,-1,-1,-1,-1,-1,-1,-1,-1,-1,-1,-1,-1,-1,-1,-1,-1,-1,-1],"loss_changes":[2.3078844E4,1.4840736E4,2.5295137E3,9.712844E3,1.332E3,1.9954672E3,1.0278242E3,2.0535498E3,1.0101926E4,7.9853906E2,2.3199222E2,2.1447778E2,7.17906E2,1.0504492E2,4.066684E2,1.1708787E3,9.1711914E1,3.8387905E3,2.1666514E3,6.35459E2,8.571342E2,3.0574045E2,8.588519E1,2.3441003E2,8.636694E1,1.963031E2,8.326554E2,1.0436914E2,0E0,5.2832336E0,2.838233E2,8.2799854E2,7.909734E2,6.465039E1,0E0,3.866378E3,2.1384106E3,1.5478638E3,1.7973429E3,4.3277734E2,3.8789105E2,4.155227E2,9.303739E2,1.5596466E2,1.5053246E2,5.2750854E1,0E0,2.0409387E2,8.4868484E1,6.1243652E1,0E0,0E0,6.501959E1,2.5663165E2,5.54697E2,6.459961E1,1.1024733E2,3.5112762E0,0E0,1.6892157E2,1.7254723E2,0E0,0E0,0E0,0E0,0E0,0E0,0E0,0E0,0E0,0E0,0E0,0E0,0E0,0E0,0E0,0E0,0E0,0E0,0E0,0E0,0E0,0E0,0E0,0E0,0E0,0E0,0E0,0E0,0E0,0E0,0E0,0E0,0E0,0E0,0E0,0E0,0E0,0E0,0E0,0E0,0E0,0E0,0E0,0E0,0E0,0E0,0E0,0E0,0E0,0E0],"parents":[2147483647,0,0,1,1,2,2,3,3,4,4,5,5,6,6,7,7,8,8,9,9,10,10,11,11,12,12,13,13,14,14,15,15,16,16,17,17,18,18,19,19,20,20,21,21,22,22,23,23,24,24,25,25,26,26,27,27,29,29,30,30,31,31,32,32,33,33,35,35,36,36,37,37,38,38,39,39,40,40,41,41,42,42,43,43,44,44,45,45,47,47,48,48,49,49,52,52,53,53,54,54,55,55,56,56,57,57,59,59,60,60],"right_children":[2,4,6,8,10,12,14,16,18,20,22,24,26,28,30,32,34,36,38,40,42,44,46,48,50,52,54,56,-1,58,60,62,64,66,-1,68,70,72,74,76,78,80,82,84,86,88,-1,90,92,94,-1,-1,96,98,100,102,104,106,-1,108,110,-1,-1,-1,-1,-1,-1,-1,-1,-1,-1,-1,-1,-1,-1,-1,-1,-1,-1,-1,-1,-1,-1,-1,-1,-1,-1,-1,-1,-1,-1,-1,-1,-1,-1,-1,-1,-1,-1,-1,-1,-1,-1,-1,-1,-1,-1,-1,-1,-1,-1],"split_conditions":[1.5E0,5E-1,4.5E0,5E-1,3.1960938E1,1.5E0,2.55E1,2.5E0,5.999855E1,2.7383502E2,5.81E2,2.5E0,1.245E2,9.5E0,7.5E0,1.5E0,1.5E0,1.5E0,7.95E1,5.82E2,5.215E2,1.5E0,3.37375E2,3.9E1,6.5E0,2.5E0,1.5E0,1.03E2,-1.9714849E-1,2.41E2,5.205E2,3.110352E6,3.5E0,9.75E2,-1.7987263E-1,2.71125E2,1.65E1,2.5E0,1.6625E3,2.328125E2,2.25E1,4.095E2,3.565E2,1.5E0,2.13875E2,5.346875E1,-1.76761E-1,3.5E0,2.5E0,6.5E0,-2.1234274E-1,-1.7354809E-1,1.3384E4,2.5E0,3.5E0,3.135E2,1.3827E4,5E-1,-1.3401477E-1,8.5E0,1.18699E1,1.4511968E-2,8.121195E-2,-6.6230625E-2,2.8507683E-2,1.2048068E-1,-2.074068E-1,-5.249874E-2,3.0489078E-2,4.915841E-2,-3.2180827E-2,-1.7255748E-2,5.8346685E-2,-9.682854E-3,1.4633165E-1,-8.8020265E-2,-5.356378E-2,1.8929336E-2,-1.1466225E-1,-4.062277E-2,-1.1832666E-1,1.1306717E-1,-1.3474463E-1,4.7703605E-2,-6.640754E-2,-1.3076629E-1,4.1362084E-2,-1.4043836E-1,1.48125E-1,8.17324E-2,-1.1581526E-1,-1.5981577E-1,5.8107864E-2,1.18266284E-1,-2.3706158E-1,1.5109701E-1,-1.4036177E-1,-1.2262469E-1,5.3526737E-2,4.1900758E-2,-4.480837E-2,1.2001418E-1,-2.1560016E-1,8.1677265E-2,-1.1627293E-1,-1.5966704E-1,-2.3704548E-1,-5.759087E-2,7.727974E-2,-4.0789932E-4,-2.0718312E-1],"split_indices":[17,135,14,27,214,26,26,14,211,210,5,14,10,100,14,3,51,39,35,5,33,74,213,28,186,3,24,29,0,29,5,0,13,176,0,2,13,3,223,2,31,35,5,193,216,216,0,121,21,81,0,0,4,192,26,33,4,126,0,13,209,0,0,0,0,0,0,0,0,0,0,0,0,0,0,0,0,0,0,0,0,0,0,0,0,0,0,0,0,0,0,0,0,0,0,0,0,0,0,0,0,0,0,0,0,0,0,0,0,0,0],"split_type":[0,0,0,0,0,0,0,0,0,0,0,0,0,0,0,0,0,0,0,0,0,0,0,0,0,0,0,0,0,0,0,0,0,0,0,0,0,0,0,0,0,0,0,0,0,0,0,0,0,0,0,0,0,0,0,0,0,0,0,0,0,0,0,0,0,0,0,0,0,0,0,0,0,0,0,0,0,0,0,0,0,0,0,0,0,0,0,0,0,0,0,0,0,0,0,0,0,0,0,0,0,0,0,0,0,0,0,0,0,0,0],"sum_hessian":[1.9693169E5,1.7072098E5,2.6210703E4,1.339241E5,3.6796895E4,8.553487E3,1.7657217E4,2.3852885E4,1.100712E5,3.530427E4,1.4926243E3,4.2506636E3,4.302823E3,1.5385588E4,2.271629E3,1.9173723E4,4.6791626E3,7.174049E4,3.833071E4,2.9922643E4,5.381629E3,1.2973732E3,1.9525113E2,2.318297E3,1.9323666E3,3.7144666E2,3.9313765E3,1.5375904E4,9.682803E0,7.496663E1,2.1966624E3,1.1006014E4,8.1677085E3,4.669787E3,9.375285E0,5.8375137E4,1.3365357E4,2.4626543E4,1.3704169E4,2.8657154E4,1.2654868E3,4.5415884E3,8.4004065E2,1.0298605E3,2.6751276E2,1.8702107E2,8.230057E0,2.235674E3,8.2622894E1,1.9252661E3,7.100516E0,1.9668097E1,3.5177856E2,8.700151E2,3.0613616E3,1.5022044E4,3.5386032E2,4.8642487E1,2.632414E1,1.835939E3,3.6072336E2,2.37321E3,8.632804E3,1.0039144E3,7.163794E3,4.6646313E3,5.155601E0,5.2083523E4,6.291613E3,7.8933843E3,5.4719727E3,3.0972534E3,2.152929E4,1.2922004E4,7.821658E2,2.4363637E4,4.293519E3,9.8790515E2,2.7758163E2,3.6962434E3,8.45345E2,6.428376E2,1.9720303E2,8.924332E2,1.374272E2,2.0006554E2,6.744721E1,5.8093357E0,1.8121175E2,2.1829333E3,5.274077E1,5.7514725E1,2.510817E1,1.9212935E3,3.9726467E0,3.4469348E2,7.085081E0,7.7805E2,9.196509E1,1.8238414E3,1.23752E3,1.501718E4,4.865077E0,3.2392996E2,2.9930363E1,2.354325E1,2.5099237E1,9.740315E1,1.7385359E3,3.1544608E2,4.527729E1],"tree_param":{"num_deleted":"0","num_feature":"227","num_nodes":"111","size_leaf_vector":"0"}},{"base_weights":[1.6364458E-3,-1.3702323E-1,7.429598E-1,6.7207315E-3,-6.492598E-1,1.0075136E-1,9.602159E-1,3.2063183E-1,-1.8284716E-1,-6.9521856E-1,2.212391E-1,-5.988237E-1,3.0777556E-1,9.878354E-1,-4.079815E-1,-2.7204445E-1,5.3193474E-1,-3.2154247E-1,2.5688878E-1,-7.2139454E-1,1.862422E-1,4.0811968E-1,-6.199706E-1,-3.7936E-1,-1.4502704E0,-2.633956E-1,4.7963113E-1,1.0321317E0,3.7280333E-1,1.3992694E-1,-1.3220965E0,-5.531581E-1,5.2661073E-1,5.792697E-1,-8.7231934E-1,2.7973774E-1,-4.1022137E-1,3.125479E-1,-8.8377887E-1,-9.005778E-1,-5.9779656E-1,9.937966E-1,-1.4148174E-1,5.157466E-1,-1.4979409E0,-1.1186315E0,6.9633234E-1,-8.09172E-1,3.9299598E-1,4.6591196E-2,-1.0756599E0,-8.5763776E-1,5.5901307E-1,7.70325E-1,1.1535511E0,1.5927708E-1,1.0286105E0,-1.0771542E0,5.6345224E-1,1.8181011E-1,-9.049794E-1,6.2791127E-1,-1.244225E0,1.2465396E0,5.185975E-1,-1.1135902E0,7.9704297E-1,-1.3911235E-1,5.831983E-1,-4.9055794E-1,1.8581158E-1,2.2136791E-1,1.0597733E0,1.4016061E0,-1.5350115E0,-9.276194E-1,2.5969598E-1,-4.1706365E-1,-8.2956207E-1,1.1879884E0,-1.5364814E0,-3.480945E-1,1.2739905E0,5.7481813E-1,-1.8032196E0,3.5169145E-1,-1.763622E0,1.5450552E0,-1.3065047E0,-1.5050297E0,1.3404835E0,4.236241E-1,-1.0874802E0,9.210495E-1,-1.3454413E0,4.021467E-1,-6.7762583E-1,-1.54801E0,1.3103852E0,-1.6634719E0,1.3194329E-1,6.676514E-1,-2.72507E-1,9.319309E-1,-7.2914463E-1,1.1564962E0,-1.8816284E0,-8.284089E-2,1.0911527E0,1.0945753E0,-2.469344E0,-1.3247169E0,1.1403466E0,7.6108605E-1,-1.5028967E0],"categories":[],"categories_nodes":[],"categories_segments":[],"categories_sizes":[],"default_left":[1,1,1,1,1,1,1,1,1,1,1,1,1,1,1,1,1,1,1,1,1,1,1,1,0,1,1,1,1,1,0,1,1,1,1,1,1,1,1,1,1,1,1,1,1,1,1,1,1,1,1,1,1,1,1,1,1,1,1,0,0,0,0,0,0,0,0,0,0,0,0,0,0,0,0,0,0,0,0,0,0,0,0,0,0,0,0,0,0,0,0,0,0,0,0,0,0,0,0,0,0,0,0,0,0,0,0,0,0,0,0,0,0,0,0],"id":10,"left_children":[1,3,5,7,9,11,13,15,17,19,21,23,25,27,29,31,33,35,37,39,41,43,45,47,-1,49,51,53,55,57,-1,59,61,63,65,67,69,71,73,75,77,79,81,83,85,87,89,91,93,95,97,99,101,103,105,107,109,111,113,-1,-1,-1,-1,-1,-1,-1,-1,-1,-1,-1,-1,-1,-1,-1,-1,-1,-1,-1,-1,-1,-1,-1,-1,-1,-1,-1,-1,-1,-1,-1,-1,-1,-1,-1,-1,-1,-1,-1,-1,-1,-1,-1,-1,-1,-1,-1,-1,-1,-1,-1,-1,-1,-1,-1,-1],"loss_changes":[1.9823975E4,1.1962629E4,4.2398125E3,7.5496025E3,1.4244551E3,1.1128671E3,8.584668E2,5.9823184E3,4.8243545E3,7.8037695E2,2.8103815E2,3.2733813E2,5.821132E2,6.059961E2,2.2557439E2,2.819069E3,2.3411787E3,3.206522E3,1.2044698E3,7.267832E2,2.5845474E2,3.006996E2,2.1414746E2,4.6390082E2,0E0,3.455019E2,4.84339E2,6.5909375E2,2.0945375E2,1.4610712E2,0E0,2.4015483E3,5.8722833E2,1.3785107E3,4.6354327E2,9.8253625E2,2.5094463E3,1.2319592E3,1.3158978E3,4.2080176E2,8.138677E2,1.4033032E2,2.0374629E2,1.9071078E2,3.9146255E1,1.2018976E2,1.295358E2,3.0839575E2,4.6019073E2,2.5621906E2,4.291882E2,2.0420775E2,3.8891516E2,1.5954258E3,1.2894922E2,2.5514305E2,8.749893E1,4.1701828E1,8.692743E1,0E0,0E0,0E0,0E0,0E0,0E0,0E0,0E0,0E0,0E0,0E0,0E0,0E0,0E0,0E0,0E0,0E0,0E0,0E0,0E0,0E0,0E0,0E0,0E0,0E0,0E0,0E0,0E0,0E0,0E0,0E0,0E0,0E0,0E0,0E0,0E0,0E0,0E0,0E0,0E0,0E0,0E0,0E0,0E0,0E0,0E0,0E0,0E0,0E0,0E0,0E0,0E0,0E0,0E0,0E0,0E0],"parents":[2147483647,0,0,1,1,2,2,3,3,4,4,5,5,6,6,7,7,8,8,9,9,10,10,11,11,12,12,13,13,14,14,15,15,16,16,17,17,18,18,19,19,20,20,21,21,22,22,23,23,25,25,26,26,27,27,28,28,29,29,31,31,32,32,33,33,34,34,35,35,36,36,37,37,38,38,39,39,40,40,41,41,42,42,43,43,44,44,45,45,46,46,47,47,48,48,49,49,50,50,51,51,52,52,53,53,54,54,55,55,56,56,57,57,58,58],"right_children":[2,4,6,8,10,12,14,16,18,20,22,24,26,28,30,32,34,36,38,40,42,44,46,48,-1,50,52,54,56,58,-1,60,62,64,66,68,70,72,74,76,78,80,82,84,86,88,90,92,94,96,98,100,102,104,106,108,110,112,114,-1,-1,-1,-1,-1,-1,-1,-1,-1,-1,-1,-1,-1,-1,-1,-1,-1,-1,-1,-1,-1,-1,-1,-1,-1,-1,-1,-1,-1,-1,-1,-1,-1,-1,-1,-1,-1,-1,-1,-1,-1,-1,-1,-1,-1,-1,-1,-1,-1,-1,-1,-1,-1,-1,-1,-1],"split_conditions":[1.5E0,5E-1,2.5E0,1.5E0,2.009375E2,5E-1,2.405E2,3.108667E6,2.5994999E1,3.1960938E1,1.845E2,3.035E2,3.111093E6,1.785E2,5E-1,1.5E0,1.995E2,5E-1,9.5E0,5.9875E1,1.5E0,9.835E2,2.775E2,5E-1,-1.4502704E-1,1.5E0,1.465E2,5.5E0,1.5E0,4.5E0,-1.3220964E-1,7.5E0,1.72E2,-2.95E1,7.5E0,5E-1,3.5E0,2.5E0,1.65E1,1.5E0,2.25E1,9.5E0,5.81E2,1.5E0,1.505E2,5E-1,3.302462E6,1.375E2,4.535E2,1.04915E4,3.5E0,4.98125E1,2.75E1,5.55E1,5.365E2,1.5E0,2.7507812E1,3.865E2,7.65E1,1.8181011E-2,-9.049794E-2,6.279113E-2,-1.24422505E-1,1.2465396E-1,5.1859748E-2,-1.1135902E-1,7.97043E-2,-1.3911235E-2,5.8319833E-2,-4.9055796E-2,1.8581158E-2,2.213679E-2,1.05977334E-1,1.401606E-1,-1.5350115E-1,-9.276194E-2,2.5969598E-2,-4.1706365E-2,-8.295621E-2,1.18798845E-1,-1.5364814E-1,-3.480945E-2,1.2739906E-1,5.7481814E-2,-1.8032196E-1,3.5169147E-2,-1.763622E-1,1.5450552E-1,-1.3065048E-1,-1.5050296E-1,1.3404836E-1,4.236241E-2,-1.0874802E-1,9.210495E-2,-1.3454413E-1,4.021467E-2,-6.776258E-2,-1.54801E-1,1.3103853E-1,-1.6634719E-1,1.3194329E-2,6.6765144E-2,-2.7250702E-2,9.319309E-2,-7.2914466E-2,1.1564962E-1,-1.8816285E-1,-8.284089E-3,1.09115265E-1,1.0945753E-1,-2.469344E-1,-1.324717E-1,1.1403467E-1,7.6108605E-2,-1.5028967E-1],"split_indices":[21,114,14,9,215,185,29,0,220,214,29,10,0,26,188,15,29,27,188,2,18,217,173,79,0,3,6,14,131,14,0,33,29,225,27,17,15,199,34,81,31,12,5,68,10,18,0,8,5,4,23,2,31,35,35,87,213,32,26,0,0,0,0,0,0,0,0,0,0,0,0,0,0,0,0,0,0,0,0,0,0,0,0,0,0,0,0,0,0,0,0,0,0,0,0,0,0,0,0,0,0,0,0,0,0,0,0,0,0,0,0,0,0,0,0],"split_type":[0,0,0,0,0,0,0,0,0,0,0,0,0,0,0,0,0,0,0,0,0,0,0,0,0,0,0,0,0,0,0,0,0,0,0,0,0,0,0,0,0,0,0,0,0,0,0,0,0,0,0,0,0,0,0,0,0,0,0,0,0,0,0,0,0,0,0,0,0,0,0,0,0,0,0,0,0,0,0,0,0,0,0,0,0,0,0,0,0,0,0,0,0,0,0,0,0,0,0,0,0,0,0,0,0,0,0,0,0,0,0,0,0,0,0],"sum_hessian":[1.9285388E5,1.624664E5,3.0387463E4,1.2686618E5,3.5600234E4,7.681736E3,2.2705727E4,4.7766883E4,7.90993E4,3.3815133E4,1.7850996E3,1.7537112E3,5.928025E3,2.2256713E4,4.4901257E2,1.2554082E4,3.52128E4,6.01332E4,1.8966096E4,3.2840094E4,9.7504156E2,1.4610354E3,3.2406427E2,1.3954691E3,3.5824213E2,1.370977E3,4.557048E3,2.0760787E4,1.4959259E3,2.8127E2,1.6774258E2,9.285902E3,3.26818E3,3.4065113E4,1.1476888E3,7.728509E3,5.2404688E4,1.808439E4,8.8170575E2,1.340305E4,1.9437043E4,2.8088126E2,6.9416034E2,1.3836368E3,7.739852E1,2.3513661E2,8.892766E1,8.965154E2,4.989537E2,9.929697E2,3.7800732E2,2.548045E2,4.302243E3,6.5800713E3,1.4180717E4,1.1294331E3,3.6649274E2,7.221191E1,2.0905807E2,3.006238E3,6.279664E3,3.0919504E3,1.7622935E2,2.8376177E3,3.1227496E4,1.0030519E3,1.4463696E2,3.247165E3,4.4813438E3,4.6180418E4,6.2242725E3,1.6118794E4,1.9655957E3,1.9527406E2,6.864317E2,1.3097985E4,3.050644E2,1.092243E4,8.514613E3,2.6135358E2,1.9527672E1,6.0639984E2,8.7760506E1,1.3500001E3,3.363672E1,9.6805105E0,6.771801E1,1.5015886E1,2.2012073E2,1.9828402E1,6.909925E1,1.6501987E2,7.314955E2,3.8306668E2,1.1588702E2,6.6629553E2,3.2667416E2,3.1583475E2,6.2172573E1,1.4006555E2,1.1473895E2,3.8052795E3,4.9696378E2,5.9402383E3,6.3983307E2,1.4167588E4,1.31283655E1,8.972283E2,2.3220486E2,3.6038367E2,6.1090794E0,6.5321945E1,6.8899636E0,1.9138493E2,1.767314E1],"tree_param":{"num_deleted":"0","num_feature":"227","num_nodes":"115","size_leaf_vector":"0"}},{"base_weights":[1.6140848E-3,-1.1214712E-1,7.9580516E-1,1.7920064E-2,-6.0529375E-1,3.7552914E-1,1.0161269E0,5.280406E-1,-8.914976E-2,-6.629122E-1,-1.068321E-1,8.295324E-1,-5.691463E-2,1.1173189E0,3.8695055E-1,3.9154914E-1,1.1321651E0,-2.0883927E-1,5.140644E-1,-8.304682E-1,-5.432149E-1,-2.6951587E-1,6.711013E-1,1.3726746E-1,9.034767E-1,-1.1291193E0,8.781426E-2,1.1313679E0,5.4454106E-1,5.070576E-1,-9.416911E-1,7.068622E-1,2.274698E-1,1.1387938E0,-1.6696148E0,-5.723644E-1,-9.729424E-2,6.268486E-1,2.3979053E-2,-9.149974E-1,-4.3031505E-1,-7.8633827E-1,-4.2006823E-1,-5.424739E-1,3.2944447E-1,1.031704E0,-1.4238478E0,4.0490323E-1,-9.267949E-1,9.706786E-1,1.1318947E-1,-1.2752751E0,1.1535201E0,3.463267E-1,-5.3200555E-1,1.1336881E0,-1.8000927E0,7.377079E-1,-1.0558829E0,3.013501E-1,1.0734881E0,-1.4167328E0,2.3413618E-1,-1.3048E-1,8.082208E-1,-8.041498E-2,4.7876993E-1,1.1435567E0,-1.8303778E0,-7.574262E-1,-1.4313401E-1,2.3097862E-1,-2.4485485E-1,5.4750896E-1,1.1742294E0,7.7714026E-1,-5.239812E-1,-6.226718E-1,-1.0086318E0,-6.505495E-1,2.4822348E-1,2.2217212E0,-8.0924E-1,-5.108032E-1,1.033484E-1,-8.721966E-1,1.1985044E-2,4.217164E-1,-1.4347273E0,-3.4184986E-1,1.4667816E0,6.4670277E-1,-9.454138E-1,-2.2185488E0,-6.1684404E-4,1.0072318E0,-2.0270005E-1,4.589475E-1,-1.6297063E0,-4.0376192E-1,-1.6048613E0,-1.2606128E0,1.5387834E0,4.4283798E-1,-1.6144544E0,-3.0377916E-1,-1.5068381E0,1.134858E0,-2.9362066E0,8.950379E-1,-9.0374696E-1,-2.244541E0,1.1612926E0,-1.1775588E0,4.0488923E-1,1.104666E0,-1.6833311E0,-2.8118104E-1,-1.7950047E0,7.6233894E-1,-1.643363E0],"categories":[],"categories_nodes":[],"categories_segments":[],"categories_sizes":[],"default_left":[1,1,1,1,1,1,1,1,1,1,1,1,1,1,1,1,1,1,1,1,1,1,1,1,1,1,1,1,1,1,1,1,1,1,0,1,1,1,1,1,1,1,1,1,1,1,0,1,1,1,1,1,1,1,1,1,0,1,1,1,1,1,1,0,0,0,0,0,0,0,0,0,0,0,0,0,0,0,0,0,0,0,0,0,0,0,0,0,0,0,0,0,0,0,0,0,0,0,0,0,0,0,0,0,0,0,0,0,0,0,0,0,0,0,0,0,0,0,0,0,0],"id":11,"left_children":[1,3,5,7,9,11,13,15,17,19,21,23,25,27,29,31,33,35,37,39,41,43,45,47,49,51,53,55,57,59,61,63,65,67,-1,69,71,73,75,77,79,81,83,85,87,89,-1,91,93,95,97,99,101,103,105,107,-1,109,111,113,115,117,119,-1,-1,-1,-1,-1,-1,-1,-1,-1,-1,-1,-1,-1,-1,-1,-1,-1,-1,-1,-1,-1,-1,-1,-1,-1,-1,-1,-1,-1,-1,-1,-1,-1,-1,-1,-1,-1,-1,-1,-1,-1,-1,-1,-1,-1,-1,-1,-1,-1,-1,-1,-1,-1,-1,-1,-1,-1,-1],"loss_changes":[1.7075094E4,1.0603522E4,2.1922559E3,7.1448135E3,9.908301E2,1.5993105E3,9.886377E2,1.8708022E3,7.8061836E3,6.198076E2,4.5275803E2,2.0329541E2,6.4764105E2,1.0706641E2,3.4419174E2,9.5761523E2,7.956543E1,3.658287E3,9.894673E2,4.3543555E2,5.398545E2,4.838322E2,4.6892523E2,1.0992645E2,1.9056152E2,1.6706342E2,5.8943787E2,9.087305E1,1.0041812E2,2.2991379E2,1.0026781E2,5.378325E2,9.422588E2,6.1098633E1,0E0,1.6825474E3,3.3442349E3,6.313535E2,1.382969E3,2.905244E2,3.3625363E2,4.1961646E2,5.689304E2,3.7159833E2,1.51461E2,3.163305E2,0E0,1.01198105E2,9.285744E1,1.4211694E2,1.7098708E2,1.3347955E2,3.0208076E1,4.9192877E2,2.404396E2,6.547656E1,0E0,7.523114E1,9.5171104E1,2.2265056E2,4.7072815E1,5.429419E1,5.315983E1,0E0,0E0,0E0,0E0,0E0,0E0,0E0,0E0,0E0,0E0,0E0,0E0,0E0,0E0,0E0,0E0,0E0,0E0,0E0,0E0,0E0,0E0,0E0,0E0,0E0,0E0,0E0,0E0,0E0,0E0,0E0,0E0,0E0,0E0,0E0,0E0,0E0,0E0,0E0,0E0,0E0,0E0,0E0,0E0,0E0,0E0,0E0,0E0,0E0,0E0,0E0,0E0,0E0,0E0,0E0,0E0,0E0,0E0],"parents":[2147483647,0,0,1,1,2,2,3,3,4,4,5,5,6,6,7,7,8,8,9,9,10,10,11,11,12,12,13,13,14,14,15,15,16,16,17,17,18,18,19,19,20,20,21,21,22,22,23,23,24,24,25,25,26,26,27,27,28,28,29,29,30,30,31,31,32,32,33,33,35,35,36,36,37,37,38,38,39,39,40,40,41,41,42,42,43,43,44,44,45,45,47,47,48,48,49,49,50,50,51,51,52,52,53,53,54,54,55,55,57,57,58,58,59,59,60,60,61,61,62,62],"right_children":[2,4,6,8,10,12,14,16,18,20,22,24,26,28,30,32,34,36,38,40,42,44,46,48,50,52,54,56,58,60,62,64,66,68,-1,70,72,74,76,78,80,82,84,86,88,90,-1,92,94,96,98,100,102,104,106,108,-1,110,112,114,116,118,120,-1,-1,-1,-1,-1,-1,-1,-1,-1,-1,-1,-1,-1,-1,-1,-1,-1,-1,-1,-1,-1,-1,-1,-1,-1,-1,-1,-1,-1,-1,-1,-1,-1,-1,-1,-1,-1,-1,-1,-1,-1,-1,-1,-1,-1,-1,-1,-1,-1,-1,-1,-1,-1,-1,-1,-1,-1,-1],"split_conditions":[1.5E0,5E-1,4.5E0,5E-1,5.9921875E1,1.5E0,2.55E1,2.5E0,1.71995E2,2.25E2,5.075E2,1.5E0,8.5E0,1.045E2,2.6820312E1,5E-1,1.5E0,3.1051535E6,2.05E1,2.8675E2,5E-1,5.9734375E1,1.0066E4,1.25225E4,2.5E0,1.15E1,5.85E1,9.5E0,2.845E2,1.5E0,1.5E0,7.5E0,1.2925E2,1.3525E3,-1.6696148E-1,1.5E0,1.5E0,2.5E0,5E-1,5E-1,2.5E0,1.5E0,4.55E1,3.32611E6,4.73E2,7.6105E3,-1.4238478E-1,1.5E0,3.1331945E6,5.1E1,1.2982E4,2.155E2,2.095E2,1.73E2,1.85E1,6.5E0,-1.8000928E-1,1.3827E4,3.5E0,8.5E0,1.76E2,5E-1,2.5E0,-1.3048001E-2,8.082208E-2,-8.041498E-3,4.7876995E-2,1.14355676E-1,-1.8303779E-1,-7.5742625E-2,-1.4313402E-2,2.3097863E-2,-2.4485486E-2,5.4750897E-2,1.1742294E-1,7.7714026E-2,-5.2398123E-2,-6.226718E-2,-1.0086318E-1,-6.5054946E-2,2.4822349E-2,2.2217213E-1,-8.0924E-2,-5.1080324E-2,1.033484E-2,-8.721966E-2,1.1985045E-3,4.217164E-2,-1.4347273E-1,-3.418499E-2,1.4667816E-1,6.467028E-2,-9.4541386E-2,-2.2185488E-1,-6.1684404E-5,1.00723185E-1,-2.0270005E-2,4.5894753E-2,-1.6297063E-1,-4.0376194E-2,-1.6048613E-1,-1.2606129E-1,1.5387835E-1,4.42838E-2,-1.6144544E-1,-3.0377915E-2,-1.506838E-1,1.13485806E-1,-2.9362068E-1,8.950379E-2,-9.03747E-2,-2.2445409E-1,1.1612926E-1,-1.1775588E-1,4.0488925E-2,1.104666E-1,-1.6833311E-1,-2.8118104E-2,-1.7950048E-1,7.623389E-2,-1.6433631E-1],"split_indices":[17,135,14,27,175,26,26,14,220,8,33,15,13,29,213,3,51,0,26,2,79,214,4,4,99,23,28,100,31,131,125,30,2,172,0,14,9,106,80,106,7,7,26,0,26,4,0,146,0,28,4,5,8,31,26,60,0,4,81,13,29,28,206,0,0,0,0,0,0,0,0,0,0,0,0,0,0,0,0,0,0,0,0,0,0,0,0,0,0,0,0,0,0,0,0,0,0,0,0,0,0,0,0,0,0,0,0,0,0,0,0,0,0,0,0,0,0,0,0,0,0],"split_type":[0,0,0,0,0,0,0,0,0,0,0,0,0,0,0,0,0,0,0,0,0,0,0,0,0,0,0,0,0,0,0,0,0,0,0,0,0,0,0,0,0,0,0,0,0,0,0,0,0,0,0,0,0,0,0,0,0,0,0,0,0,0,0,0,0,0,0,0,0,0,0,0,0,0,0,0,0,0,0,0,0,0,0,0,0,0,0,0,0,0,0,0,0,0,0,0,0,0,0,0,0,0,0,0,0,0,0,0,0,0,0,0,0,0,0,0,0,0,0,0,0],"sum_hessian":[1.8899022E5,1.6531158E5,2.3678637E4,1.30811164E5,3.4500418E4,8.1447563E3,1.5533881E4,2.2692363E4,1.081188E5,3.0925348E4,3.5750703E3,3.9728848E3,4.171871E3,1.3381003E4,2.152878E3,1.8511629E4,4.1807334E3,9.021837E4,1.7900438E4,1.2883993E4,1.8041355E4,2.957287E3,6.177832E2,3.8368555E2,3.5891992E3,4.9534827E2,3.676523E3,1.3059701E4,3.213017E2,1.9749629E3,1.7791512E2,6.3347544E3,1.2176875E4,4.1714575E3,9.275664E0,2.1182027E4,6.9036336E4,1.4551416E4,3.349021E3,1.0635946E4,2.2480474E3,6.064022E3,1.1977333E4,2.0315596E3,9.2572754E2,5.274935E2,9.028971E1,3.0706998E2,7.661558E1,3.3077012E3,2.8149817E2,4.659548E2,2.9393463E1,2.5947532E3,1.08177E3,1.3049985E4,9.715301E0,2.8717902E2,3.412268E1,1.4499312E3,5.2503174E2,1.2657366E2,5.134145E1,6.8398E2,5.6507744E3,5.472646E3,6.7042285E3,4.1653906E3,6.0668597E0,1.480019E4,6.381837E3,2.1408668E4,4.7627668E4,1.2711027E4,1.8403882E3,1.410246E3,1.9387751E3,2.5821492E3,8.053797E3,1.6972192E3,5.508282E2,4.509389E1,6.0189277E3,1.0207817E4,1.7695153E3,1.2736056E3,7.579539E2,8.8043866E2,4.5288853E1,1.26943436E2,4.0055008E2,2.6087625E2,4.6193707E1,3.1410927E1,4.520465E1,3.2079097E3,9.97914E1,2.3551338E2,4.5984795E1,1.284703E2,3.374845E2,3.7325459E0,2.5660917E1,2.4737664E3,1.2098669E2,8.7761554E2,2.0415446E2,1.3046956E4,3.029454E0,2.6247598E2,2.4703035E1,2.2205608E1,1.1917072E1,9.4189896E1,1.3557412E3,5.19753E2,5.278771E0,3.2063652E1,9.451001E1,4.0532322E1,1.0809127E1],"tree_param":{"num_deleted":"0","num_feature":"227","num_nodes":"121","size_leaf_vector":"0"}},{"base_weights":[1.7158969E-3,-1.0106874E-1,7.7450454E-1,9.5457E-3,-6.1622113E-1,3.961109E-1,1.0161697E0,4.7740993E-1,-8.451835E-2,-6.895044E-1,2.57701E-1,6.567705E-1,-2.9371372E-1,1.0959314E0,3.5152206E-1,2.6859078E-1,9.0420574E-1,-2.017246E-1,3.789917E-1,-5.874168E-1,-8.311206E-1,-3.602489E-2,7.005579E-1,-9.936685E-1,7.3780096E-1,-7.564565E-2,-1.0419836E0,1.0984836E0,-3.4584675E0,4.8223674E-1,-1.8535329E0,4.9035975E-1,3.7389386E-2,9.5727175E-2,9.9688005E-1,-5.202706E-1,-9.96779E-2,6.5310603E-1,1.7054567E-1,8.107924E-2,-6.3392144E-1,-8.4766614E-1,9.989681E-1,1.711412E-1,-1.2664852E0,1.2931171E-1,8.821445E-1,-1.6824299E0,1.1558535E-2,8.569575E-1,2.9877959E-2,6.033939E-1,-3.1052333E-1,-1.47846E0,-1.7991023E-1,1.1159776E0,5.169555E-1,-3.997563E0,-1.039297E0,6.647772E-1,-4.722008E-1,-1.5246373E0,-2.8498852E0,4.782403E-2,6.57611E-1,-1.4296352E0,9.632186E-2,3.5595715E-1,-7.07687E-1,6.7889756E-1,1.0785327E0,-6.821187E-1,2.3852086E-1,2.2626846E-1,-2.4937963E-1,6.735126E-1,-1.6180688E0,1.12523966E-1,1.2282871E0,6.73877E-1,-7.078933E-1,-6.6553974E-1,2.62125E-1,-8.6468023E-1,8.9378834E-1,2.0207863E0,1.705883E-1,2.6381946E-1,-1.7119519E0,-1.5068809E0,1.1232288E0,1.0571004E0,-3.745434E-1,-4.6357024E-1,9.903518E-1,-1.8253928E0,8.303625E-1,-1.6609173E0,6.4550334E-1,8.838782E-1,-2.353283E0,1.4451349E-1,-2.4357624E0,6.8733054E-1,-2.374636E0,-4.058322E-1,2.234781E0,-6.910257E-1,-1.799489E0,9.939141E-1,-1.1872675E0,1.1189469E0,-1.7898798E0,8.204932E-1,-1.2807596E0,9.610815E-1,2.5817475E-1,-1.214307E0,6.899375E-1,-3.1274228E0,-1.150519E0],"categories":[],"categories_nodes":[],"categories_segments":[],"categories_sizes":[],"default_left":[1,1,1,1,1,1,1,1,1,1,1,1,1,1,1,1,1,1,1,1,1,1,1,1,1,1,1,1,1,1,1,1,1,1,1,1,1,1,1,1,1,1,1,1,1,1,1,1,1,1,1,1,1,1,1,1,1,0,0,1,1,0,1,0,0,0,0,0,0,0,0,0,0,0,0,0,0,0,0,0,0,0,0,0,0,0,0,0,0,0,0,0,0,0,0,0,0,0,0,0,0,0,0,0,0,0,0,0,0,0,0,0,0,0,0,0,0,0,0,0,0],"id":12,"left_children":[1,3,5,7,9,11,13,15,17,19,21,23,25,27,29,31,33,35,37,39,41,43,45,47,49,51,53,55,57,59,61,63,65,67,69,71,73,75,77,79,81,83,85,87,89,91,93,95,97,99,101,103,105,107,109,111,113,-1,-1,115,117,-1,119,-1,-1,-1,-1,-1,-1,-1,-1,-1,-1,-1,-1,-1,-1,-1,-1,-1,-1,-1,-1,-1,-1,-1,-1,-1,-1,-1,-1,-1,-1,-1,-1,-1,-1,-1,-1,-1,-1,-1,-1,-1,-1,-1,-1,-1,-1,-1,-1,-1,-1,-1,-1,-1,-1,-1,-1,-1,-1],"loss_changes":[1.4714199E4,9.316735E3,1.988169E3,5.9236426E3,1.8511201E3,1.5244598E3,7.031074E2,2.0078252E3,6.0883545E3,3.850205E2,2.9097833E2,8.235664E2,3.7937317E2,1.4150879E2,4.1114453E2,7.75775E2,5.544888E2,2.907677E3,1.2923076E3,4.8187744E2,3.390044E2,3.4326285E2,9.2413055E1,1.9967096E2,4.9473535E2,2.875515E2,1.9716248E2,1.19893555E2,4.8131485E0,2.3455228E2,2.1824432E1,5.715635E2,6.406704E2,1.5962973E2,1.7168213E2,2.665459E3,3.305838E3,4.5390918E2,7.884929E2,4.7236053E2,4.1071875E2,3.2871582E2,8.474094E1,2.0162448E2,1.13167725E2,1.0152146E2,9.899304E1,6.2989624E1,1.2643609E2,4.3594092E2,2.3948692E2,1.1746451E2,3.25823E2,8.677551E1,2.1106833E2,1.0118652E2,1.9078058E2,0E0,0E0,1.3577548E2,1.8750029E2,0E0,5.206711E0,0E0,0E0,0E0,0E0,0E0,0E0,0E0,0E0,0E0,0E0,0E0,0E0,0E0,0E0,0E0,0E0,0E0,0E0,0E0,0E0,0E0,0E0,0E0,0E0,0E0,0E0,0E0,0E0,0E0,0E0,0E0,0E0,0E0,0E0,0E0,0E0,0E0,0E0,0E0,0E0,0E0,0E0,0E0,0E0,0E0,0E0,0E0,0E0,0E0,0E0,0E0,0E0,0E0,0E0,0E0,0E0,0E0,0E0],"parents":[2147483647,0,0,1,1,2,2,3,3,4,4,5,5,6,6,7,7,8,8,9,9,10,10,11,11,12,12,13,13,14,14,15,15,16,16,17,17,18,18,19,19,20,20,21,21,22,22,23,23,24,24,25,25,26,26,27,27,28,28,29,29,30,30,31,31,32,32,33,33,34,34,35,35,36,36,37,37,38,38,39,39,40,40,41,41,42,42,43,43,44,44,45,45,46,46,47,47,48,48,49,49,50,50,51,51,52,52,53,53,54,54,55,55,56,56,59,59,60,60,62,62],"right_children":[2,4,6,8,10,12,14,16,18,20,22,24,26,28,30,32,34,36,38,40,42,44,46,48,50,52,54,56,58,60,62,64,66,68,70,72,74,76,78,80,82,84,86,88,90,92,94,96,98,100,102,104,106,108,110,112,114,-1,-1,116,118,-1,120,-1,-1,-1,-1,-1,-1,-1,-1,-1,-1,-1,-1,-1,-1,-1,-1,-1,-1,-1,-1,-1,-1,-1,-1,-1,-1,-1,-1,-1,-1,-1,-1,-1,-1,-1,-1,-1,-1,-1,-1,-1,-1,-1,-1,-1,-1,-1,-1,-1,-1,-1,-1,-1,-1,-1,-1,-1,-1],"split_conditions":[1.5E0,8.5E0,4.5E0,5E-1,1.4E1,3.15E1,4.05E1,1.5E0,2.69625E2,1.395E2,1.295E2,1.465E2,1.45595E4,4.845E2,3.246198E6,1.5E0,5E-1,3.1071955E6,1.15E1,1.5E0,1.5795E2,1.695E2,2.685E2,5.9546875E1,1.5159E4,1.5E0,1.315E2,1.03E2,1.7578125E1,5.06E2,1.3E1,3.1275475E6,5E-1,1.5E0,5E-1,5E-1,1.5E0,5E-1,2.1785E3,6.15E1,1.5E0,5.75E1,3.120385E6,2.75E1,8.66E2,1.95E1,1.3E1,3.65E1,3.228246E6,1.865E2,7.64375E1,2.5E0,3.5E0,1.5E0,1.5E0,5E-1,2.965E2,-3.9975628E-1,-1.039297E-1,5.5E0,2E1,-1.5246373E-1,3.055E2,4.782403E-3,6.5761104E-2,-1.4296351E-1,9.632186E-3,3.5595715E-2,-7.076871E-2,6.788976E-2,1.0785327E-1,-6.8211876E-2,2.3852086E-2,2.2626845E-2,-2.4937963E-2,6.735126E-2,-1.6180688E-1,1.1252397E-2,1.22828715E-1,6.73877E-2,-7.078933E-2,-6.655397E-2,2.6212499E-2,-8.6468026E-2,8.9378834E-2,2.0207863E-1,1.705883E-2,2.6381945E-2,-1.711952E-1,-1.506881E-1,1.1232288E-1,1.05710045E-1,-3.745434E-2,-4.6357024E-2,9.903518E-2,-1.8253928E-1,8.303625E-2,-1.6609173E-1,6.455033E-2,8.838782E-2,-2.353283E-1,1.4451349E-2,-2.4357624E-1,6.873306E-2,-2.374636E-1,-4.058322E-2,2.2347811E-1,-6.910257E-2,-1.7994891E-1,9.9391416E-2,-1.1872675E-1,1.1189469E-1,-1.7898798E-1,8.2049325E-2,-1.2807596E-1,9.610815E-2,2.5817474E-2,-1.21430695E-1,6.899375E-2,-3.127423E-1,-1.150519E-1],"split_indices":[25,30,14,27,220,31,26,14,211,31,2,6,4,10,0,3,17,0,29,26,177,174,5,2,4,26,29,29,213,5,17,0,7,89,226,40,9,104,223,30,82,13,0,30,12,34,13,30,0,6,213,122,22,9,21,41,31,0,0,32,35,0,29,0,0,0,0,0,0,0,0,0,0,0,0,0,0,0,0,0,0,0,0,0,0,0,0,0,0,0,0,0,0,0,0,0,0,0,0,0,0,0,0,0,0,0,0,0,0,0,0,0,0,0,0,0,0,0,0,0,0],"split_type":[0,0,0,0,0,0,0,0,0,0,0,0,0,0,0,0,0,0,0,0,0,0,0,0,0,0,0,0,0,0,0,0,0,0,0,0,0,0,0,0,0,0,0,0,0,0,0,0,0,0,0,0,0,0,0,0,0,0,0,0,0,0,0,0,0,0,0,0,0,0,0,0,0,0,0,0,0,0,0,0,0,0,0,0,0,0,0,0,0,0,0,0,0,0,0,0,0,0,0,0,0,0,0,0,0,0,0,0,0,0,0,0,0,0,0,0,0,0,0,0,0],"sum_hessian":[1.8524353E5,1.6349833E5,2.1745201E4,1.3459814E5,2.8900174E4,8.476125E3,1.3269076E4,2.253039E4,1.1206776E5,2.6664426E4,2.2357495E3,6.151678E3,2.3244475E3,1.1846747E4,1.4223298E3,1.5129556E4,7.400835E3,8.9449516E4,2.261824E4,1.5497686E4,1.116674E4,1.3447556E3,8.909939E2,2.8736307E2,5.864315E3,1.8007551E3,5.2369244E2,1.184087E4,5.87629E0,1.3434707E3,7.885904E1,7.7217314E3,7.4078247E3,7.6130914E2,6.639526E3,2.1701783E4,6.7747734E4,9.769218E3,1.2849022E4,1.0079423E3,1.4489743E4,1.106722E4,9.95202E1,1.1517094E3,1.9304631E2,2.1532466E2,6.756692E2,1.701239E2,1.1723918E2,5.0192686E3,8.4504614E2,4.623927E2,1.3383624E3,3.471911E2,1.7650131E2,1.1494173E4,3.4669775E2,4.2718797E0,1.6044103E0,1.1280328E3,2.1543787E2,6.1190346E1,1.7668695E1,2.118255E3,5.6034766E3,2.85192E2,7.122633E3,5.754688E2,1.8584035E2,1.3584769E3,5.2810493E3,1.78867E4,3.8150828E3,2.1322227E4,4.6425508E4,9.68292E3,8.6297844E1,1.2181898E4,6.671236E2,5.7560504E2,4.323373E2,1.3996126E4,4.93617E2,1.0960638E4,1.065826E2,4.3913204E1,5.5607E1,1.0985052E3,5.3204094E1,1.7573726E2,1.7309038E1,7.539528E1,1.3992938E2,5.0041874E1,6.256273E2,1.6122473E2,8.899167E0,3.1779198E1,8.5459984E1,4.9782466E3,4.1022324E1,8.0840234E2,3.664383E1,4.504654E2,1.1927297E1,1.2908665E3,4.749591E1,1.0146522E2,2.4572589E2,8.152156E1,9.497975E1,1.1483054E4,1.111878E1,2.970804E2,4.9617363E1,6.517315E2,4.7630136E2,1.3145184E2,8.398603E1,1.4465816E1,3.20288E0],"tree_param":{"num_deleted":"0","num_feature":"227","num_nodes":"121","size_leaf_vector":"0"}},{"base_weights":[1.7957701E-3,-1.06371015E-1,6.579853E-1,7.930916E-3,-5.3788155E-1,3.4319654E-2,8.747045E-1,4.4290274E-1,-7.9571396E-2,-6.2404996E-1,-1.7948176E-1,4.8177934E-1,-3.0057055E-1,1.1313937E0,7.0536876E-1,2.754412E-1,8.3944744E-1,2.6613238E-1,-2.5171214E-1,-6.6721815E-1,1.2636578E-1,-3.1659698E-1,5.0968987E-1,5.8953226E-1,-4.7841933E-1,-4.1991305E-1,1.1195799E0,-3.386183E0,1.134647E0,-2.6168272E-2,8.9760715E-1,-1.1073663E-1,3.8832843E-1,1.9544941E-1,9.3356085E-1,8.3736055E-2,4.9919426E-1,-3.2521564E-1,3.2242858E-1,-7.3862123E-1,-4.2820796E-1,3.4820423E-1,-1.1198069E0,-7.343919E-2,-6.9210154E-1,-4.174586E-1,8.975961E-1,6.78725E-1,-3.325888E-1,1.201014E0,-9.567331E-1,-2.9466E-1,-1.3194929E0,-1.3921335E0,1.2546653E0,1.1388085E0,-1.3126764E0,3.152015E-1,-1.3737353E0,1.0576469E0,3.4103438E-1,-9.642586E-1,4.3360997E-2,6.0090876E-1,1.6705632E-1,2.9427606E-1,-1.7702334E0,9.6696156E-1,-4.643241E-1,1.2135771E-1,-1.4453706E0,4.240678E-1,1.0686302E0,1.6069174E-1,-4.3778563E-1,1.5401862E0,2.3837614E-1,-7.630505E-1,6.8936326E-2,-5.540367E-1,4.4971693E-2,6.86209E-1,-4.6342096E-1,-1.2300313E0,8.5558975E-1,1.702499E-1,-9.5675904E-1,-4.9128538E-1,-1.2792882E0,-1.5421473E0,4.9269986E-1,1.0928699E0,-8.144334E-1,2.29815E-1,8.1206715E-1,-1.3241954E0,1.0941938E-1,1.3376127E0,-1.610575E0,-6.035157E-1,-2.1377163E0,-4.8843426E-1,2.2762755E-1,-1.3756003E0,9.8953986E-1,1.3271992E0,-1.5216473E0,1.1410937E0,-2.123831E0,5.8671135E-1,-1.0537604E0,-2.2099233E0,-1.1118869E0,6.733735E-1,1.1086248E0,4.477539E-1,-8.7314034E-1],"categories":[],"categories_nodes":[],"categories_segments":[],"categories_sizes":[],"default_left":[1,1,1,1,1,1,1,1,1,1,1,1,1,1,1,1,1,1,1,1,1,1,1,1,1,1,1,0,1,1,1,1,1,1,1,1,1,1,1,1,1,1,1,1,1,1,1,1,1,1,1,1,1,0,1,1,0,1,1,1,1,0,0,0,0,0,0,0,0,0,0,0,0,0,0,0,0,0,0,0,0,0,0,0,0,0,0,0,0,